{"learner":{"attributes":{"best_iteration":"9","best_ntree_limit":"10"},"feature_names":["x","y"],"feature_types":["float","float"],"gradient_booster":{"model":{"gbtree_model_param":{"num_parallel_tree":"1","num_trees":"30","size_leaf_vector":"0"},"tree_info":[0,1,2,0,1,2,0,1,2,0,1,2,0,1,2,0,1,2,0,1,2,0,1,2,0,1,2,0,1,2],"trees":[{"base_weights":[0.25983843,-0.9999394,0.70211273,0.9999643,0.26314405],"categories":[],"categories_nodes":[],"categories_segments":[],"categories_sizes":[],"default_left":[1,0,1,0,0],"id":0,"left_children":[1,-1,3,-1,-1],"loss_changes":[35381.383,0.0,6145.002,0.0,0.0],"parents":[2147483647,0,0,2,2],"right_children":[2,-1,4,-1,-1],"split_conditions":[-1.5187774,-0.09999394,0.037255257,0.09999643,0.026314406],"split_indices":[1,0,1,0,0],"split_type":[0,0,0,0,0],"sum_hessian":[63500.0,16500.0,47000.0,28000.0,19000.0],"tree_param":{"num_deleted":"0","num_feature":"2","num_nodes":"5","size_leaf_vector":"0"}},{"base_weights":[-0.25983843,0.9999394,-0.70211273,-0.9999643,-0.26314405],"categories":[],"categories_nodes":[],"categories_segments":[],"categories_sizes":[],"default_left":[1,0,1,0,0],"id":1,"left_children":[1,-1,3,-1,-1],"loss_changes":[35381.383,0.0,6145.002,0.0,0.0],"parents":[2147483647,0,0,2,2],"right_children":[2,-1,4,-1,-1],"split_conditions":[-1.5187774,0.09999394,0.037255257,-0.09999643,-0.026314406],"split_indices":[1,0,1,0,0],"split_type":[0,0,0,0,0],"sum_hessian":[63500.0,16500.0,47000.0,28000.0,19000.0],"tree_param":{"num_deleted":"0","num_feature":"2","num_nodes":"5","size_leaf_vector":"0"}},{"base_weights":[-0.28970022,-0.74997922,1.4998384],"categories":[],"categories_nodes":[],"categories_segments":[],"categories_sizes":[],"default_left":[1,0,0],"id":2,"left_children":[1,-1,-1],"loss_changes":[37371.71466926,0.0,0.0],"parents":[2147483647,0,0],"right_children":[2,-1,-1],"split_conditions":[1.49899268,-0.07499792,0.14998384],"split_indices":[0,0,0],"split_type":[0,0,0],"sum_hessian":[45368.88888895,36087.55555556,9281.33333333],"tree_param":{"num_deleted":"0","num_feature":"2","num_nodes":"3","size_leaf_vector":"0"}},{"base_weights":[0.23560572,-0.90931475,0.63604605,0.9093355,0.23700115],"categories":[],"categories_nodes":[],"categories_segments":[],"categories_sizes":[],"default_left":[1,0,1,0,0],"id":3,"left_children":[1,-1,3,-1,-1],"loss_changes":[28905.354,0.0,5093.701,0.0,0.0],"parents":[2147483647,0,0,2,2],"right_children":[2,-1,4,-1,-1],"split_conditions":[-1.5187774,-0.090931475,0.037255257,0.090933554,0.023700116],"split_indices":[1,0,1,0,0],"split_type":[0,0,0,0,0],"sum_hessian":[63044.84,16336.113,46708.727,27721.877,18986.85],"tree_param":{"num_deleted":"0","num_feature":"2","num_nodes":"5","size_leaf_vector":"0"}},{"base_weights":[-0.23560572,0.90931463,-0.63604605,-0.9093355,-0.23700115],"categories":[],"categories_nodes":[],"categories_segments":[],"categories_sizes":[],"default_left":[1,0,1,0,0],"id":4,"left_children":[1,-1,3,-1,-1],"loss_changes":[28905.346,0.0,5093.703,0.0,0.0],"parents":[2147483647,0,0,2,2],"right_children":[2,-1,4,-1,-1],"split_conditions":[-1.5187774,0.09093147,0.037255257,-0.090933554,-0.023700116],"split_indices":[1,0,1,0,0],"split_type":[0,0,0,0,0],"sum_hessian":[63044.836,16336.113,46708.723,27721.875,18986.85],"tree_param":{"num_deleted":"0","num_feature":"2","num_nodes":"5","size_leaf_vector":"0"}},{"base_weights":[-0.27793162,-0.73108267,1.36087958],"categories":[],"categories_nodes":[],"categories_segments":[],"categories_sizes":[],"default_left":[1,0,0],"id":5,"left_children":[1,-1,-1],"loss_changes":[33281.4317265,0.0,0.0],"parents":[2147483647,0,0],"right_children":[2,-1,-1],"split_conditions":[1.49899268,-0.07310827,0.13608796],"split_indices":[0,0,0],"split_type":[0,0,0],"sum_hessian":[44813.35006017,35106.52633861,9706.82372154],"tree_param":{"num_deleted":"0","num_feature":"2","num_nodes":"3","size_leaf_vector":"0"}},{"base_weights":[0.21627684,-0.84124553,0.5824668,0.8412642,0.21370745],"categories":[],"categories_nodes":[],"categories_segments":[],"categories_sizes":[],"default_left":[1,0,1,0,0],"id":6,"left_children":[1,-1,3,-1,-1],"loss_changes":[23959.893,0.0,4385.6914,0.0,0.0],"parents":[2147483647,0,0,2,2],"right_children":[2,-1,4,-1,-1],"split_conditions":[-1.5187774,-0.08412456,0.037255257,0.08412642,0.021370744],"split_indices":[1,0,1,0,0],"split_type":[0,0,0,0,0],"sum_hessian":[61868.992,15912.8545,45956.137,27003.586,18952.55],"tree_param":{"num_deleted":"0","num_feature":"2","num_nodes":"5","size_leaf_vector":"0"}},{"base_weights":[-0.21627684,0.84124565,-0.58246684,-0.8412642,-0.21370754],"categories":[],"categories_nodes":[],"categories_segments":[],"categories_sizes":[],"default_left":[1,0,1,0,0],"id":7,"left_children":[1,-1,3,-1,-1],"loss_changes":[23959.898,0.0,4385.6895,0.0,0.0],"parents":[2147483647,0,0,2,2],"right_children":[2,-1,4,-1,-1],"split_conditions":[-1.5187774,0.084124565,0.037255257,-0.08412642,-0.021370754],"split_indices":[1,0,1,0,0],"split_type":[0,0,0,0,0],"sum_hessian":[61868.99,15912.854,45956.133,27003.582,18952.55],"tree_param":{"num_deleted":"0","num_feature":"2","num_nodes":"5","size_leaf_vector":"0"}},{"base_weights":[-0.26565377,-0.71277601,1.25202343],"categories":[],"categories_nodes":[],"categories_segments":[],"categories_sizes":[],"default_left":[1,0,0],"id":8,"left_children":[1,-1,-1],"loss_changes":[29876.04138096,0.0,0.0],"parents":[2147483647,0,0],"right_children":[2,-1,-1],"split_conditions":[1.49899268,-0.0712776,0.12520234],"split_indices":[0,0,0],"split_type":[0,0,0],"sum_hessian":[44024.51028709,34006.42285892,10018.08742815],"tree_param":{"num_deleted":"0","num_feature":"2","num_nodes":"3","size_leaf_vector":"0"}},{"base_weights":[0.20033266,-0.7883946,0.5376183,0.78841203,0.19286296],"categories":[],"categories_nodes":[],"categories_segments":[],"categories_sizes":[],"default_left":[1,0,1,0,0],"id":9,"left_children":[1,-1,3,-1,-1],"loss_changes":[20076.355,0.0,3881.0244,0.0,0.0],"parents":[2147483647,0,0,2,2],"right_children":[2,-1,4,-1,-1],"split_conditions":[-1.5187774,-0.07883946,0.037255257,0.0788412,0.019286295],"split_indices":[1,0,1,0,0],"split_type":[0,0,0,0,0],"sum_hessian":[60199.668,15312.094,44887.574,25984.07,18903.506],"tree_param":{"num_deleted":"0","num_feature":"2","num_nodes":"5","size_leaf_vector":"0"}},{"base_weights":[-0.20033263,0.7883946,-0.5376183,-0.788412,-0.19286296],"categories":[],"categories_nodes":[],"categories_segments":[],"categories_sizes":[],"default_left":[1,0,1,0,0],"id":10,"left_children":[1,-1,3,-1,-1],"loss_changes":[20076.355,0.0,3881.0234,0.0,0.0],"parents":[2147483647,0,0,2,2],"right_children":[2,-1,4,-1,-1],"split_conditions":[-1.5187774,0.07883946,0.037255257,-0.0788412,-0.019286295],"split_indices":[1,0,1,0,0],"split_type":[0,0,0,0,0],"sum_hessian":[60199.668,15312.094,44887.574,25984.07,18903.506],"tree_param":{"num_deleted":"0","num_feature":"2","num_nodes":"5","size_leaf_vector":"0"}},{"base_weights":[-0.25326291,-0.69544234,1.16438097],"categories":[],"categories_nodes":[],"categories_segments":[],"categories_sizes":[],"default_left":[1,0,0],"id":11,"left_children":[1,-1,-1],"loss_changes":[26982.84955938,0.0,0.0],"parents":[2147483647,0,0],"right_children":[2,-1,-1],"split_conditions":[1.49899268,-0.06954423,0.1164381],"split_indices":[0,0,0],"split_type":[0,0,0],"sum_hessian":[43042.65058164,32809.49983045,10233.15075116],"tree_param":{"num_deleted":"0","num_feature":"2","num_nodes":"3","size_leaf_vector":"0"}},{"base_weights":[0.1868136,-0.74631757,0.49909908,0.7463345,0.17414883],"categories":[],"categories_nodes":[],"categories_segments":[],"categories_sizes":[],"default_left":[1,0,1,0,0],"id":12,"left_children":[1,-1,3,-1,-1],"loss_changes":[16962.012,0.0,3503.6338,0.0,0.0],"parents":[2147483647,0,0,2,2],"right_children":[2,-1,4,-1,-1],"split_conditions":[-1.5187774,-0.07463176,0.037255257,0.07463345,0.017414883],"split_indices":[1,0,1,0,0],"split_type":[0,0,0,0,0],"sum_hessian":[58205.742,14594.613,43611.13,24766.48,18844.648],"tree_param":{"num_deleted":"0","num_feature":"2","num_nodes":"5","size_leaf_vector":"0"}},{"base_weights":[-0.1868136,0.74631757,-0.4990991,-0.74633455,-0.1741488],"categories":[],"categories_nodes":[],"categories_segments":[],"categories_sizes":[],"default_left":[1,0,1,0,0],"id":13,"left_children":[1,-1,3,-1,-1],"loss_changes":[16962.012,0.0,3503.6348,0.0,0.0],"parents":[2147483647,0,0,2,2],"right_children":[2,-1,4,-1,-1],"split_conditions":[-1.5187774,0.07463176,0.037255257,-0.07463346,-0.01741488],"split_indices":[1,0,1,0,0],"split_type":[0,0,0,0,0],"sum_hessian":[58205.742,14594.614,43611.13,24766.48,18844.646],"tree_param":{"num_deleted":"0","num_feature":"2","num_nodes":"5","size_leaf_vector":"0"}},{"base_weights":[-0.24097529,-0.67926425,1.09227445],"categories":[],"categories_nodes":[],"categories_segments":[],"categories_sizes":[],"default_left":[1,0,0],"id":14,"left_children":[1,-1,-1],"loss_changes":[24487.64093095,0.0,0.0],"parents":[2147483647,0,0],"right_children":[2,-1,-1],"split_conditions":[1.49899268,-0.06792642,0.10922745],"split_indices":[0,0,0],"split_type":[0,0,0],"sum_hessian":[41903.60497301,31536.77902985,10366.82594317],"tree_param":{"num_deleted":"0","num_feature":"2","num_nodes":"3","size_leaf_vector":"0"}},{"base_weights":[0.17508203,-0.7121562,0.46530136,0.7121732,0.1573057],"categories":[],"categories_nodes":[],"categories_segments":[],"categories_sizes":[],"default_left":[1,0,1,0,0],"id":15,"left_children":[1,-1,3,-1,-1],"loss_changes":[14423.685,0.0,3209.2383,0.0,0.0],"parents":[2147483647,0,0,2,2],"right_children":[2,-1,4,-1,-1],"split_conditions":[-1.5187774,-0.07121562,0.037255257,0.07121732,0.015730571],"split_indices":[1,0,1,0,0],"split_type":[0,0,0,0,0],"sum_hessian":[56013.402,13805.805,42207.598,23427.85,18779.746],"tree_param":{"num_deleted":"0","num_feature":"2","num_nodes":"5","size_leaf_vector":"0"}},{"base_weights":[-0.17508197,0.7121562,-0.4653013,-0.7121731,-0.15730567],"categories":[],"categories_nodes":[],"categories_segments":[],"categories_sizes":[],"default_left":[1,0,1,0,0],"id":16,"left_children":[1,-1,3,-1,-1],"loss_changes":[14423.686,0.0,3209.2354,0.0,0.0],"parents":[2147483647,0,0,2,2],"right_children":[2,-1,4,-1,-1],"split_conditions":[-1.5187774,0.07121562,0.037255257,-0.07121731,-0.015730567],"split_indices":[1,0,1,0,0],"split_type":[0,0,0,0,0],"sum_hessian":[56013.402,13805.807,42207.594,23427.85,18779.746],"tree_param":{"num_deleted":"0","num_feature":"2","num_nodes":"5","size_leaf_vector":"0"}},{"base_weights":[-0.22890723,-0.66430798,1.0319023],"categories":[],"categories_nodes":[],"categories_segments":[],"categories_sizes":[],"default_left":[1,0,0],"id":17,"left_children":[1,-1,-1],"loss_changes":[22310.68681832,0.0,0.0],"parents":[2147483647,0,0],"right_children":[2,-1,-1],"split_conditions":[1.49899268,-0.0664308,0.10319023],"split_indices":[0,0,0],"split_type":[0,0,0],"sum_hessian":[40639.67730893,30208.21735236,10431.45995656],"tree_param":{"num_deleted":"0","num_feature":"2","num_nodes":"3","size_leaf_vector":"0"}},{"base_weights":[0.16469763,-0.6839838,0.43511084,0.8902406,0.24908945],"categories":[],"categories_nodes":[],"categories_segments":[],"categories_sizes":[],"default_left":[1,0,1,0,0],"id":18,"left_children":[1,-1,3,-1,-1],"loss_changes":[12328.263,0.0,3448.8433,0.0,0.0],"parents":[2147483647,0,0,2,2],"right_children":[2,-1,4,-1,-1],"split_conditions":[-1.5187774,-0.06839838,0.55664086,0.08902406,0.024908945],"split_indices":[1,0,0,0,0],"split_type":[0,0,0,0,0],"sum_hessian":[53716.87,12979.544,40737.33,11818.289,28919.04],"tree_param":{"num_deleted":"0","num_feature":"2","num_nodes":"5","size_leaf_vector":"0"}},{"base_weights":[-0.16469759,0.68398386,-0.4351108,-0.8902406,-0.24908942],"categories":[],"categories_nodes":[],"categories_segments":[],"categories_sizes":[],"default_left":[1,0,1,0,0],"id":19,"left_children":[1,-1,3,-1,-1],"loss_changes":[12328.265,0.0,3448.8428,0.0,0.0],"parents":[2147483647,0,0,2,2],"right_children":[2,-1,4,-1,-1],"split_conditions":[-1.5187774,0.068398386,0.55664086,-0.08902406,-0.024908943],"split_indices":[1,0,0,0,0],"split_type":[0,0,0,0,0],"sum_hessian":[53716.87,12979.544,40737.324,11818.289,28919.037],"tree_param":{"num_deleted":"0","num_feature":"2","num_nodes":"5","size_leaf_vector":"0"}},{"base_weights":[-0.21711813,-0.65057173,0.9806195],"categories":[],"categories_nodes":[],"categories_segments":[],"categories_sizes":[],"default_left":[1,0,0],"id":20,"left_children":[1,-1,-1],"loss_changes":[20393.88983835,0.0,0.0],"parents":[2147483647,0,0],"right_children":[2,-1,-1],"split_conditions":[1.49899268,-0.06505717,0.09806195],"split_indices":[0,0,0],"split_type":[0,0,0],"sum_hessian":[39279.96699547,28842.50519504,10437.46180045],"tree_param":{"num_deleted":"0","num_feature":"2","num_nodes":"3","size_leaf_vector":"0"}},{"base_weights":[0.15305315,-0.6604526,0.40101132,0.6750571,0.07916221],"categories":[],"categories_nodes":[],"categories_segments":[],"categories_sizes":[],"default_left":[1,0,1,0,0],"id":21,"left_children":[1,-1,3,-1,-1],"loss_changes":[10484.608,0.0,3513.4443,0.0,0.0],"parents":[2147483647,0,0,2,2],"right_children":[2,-1,4,-1,-1],"split_conditions":[-1.5187774,-0.06604526,0.037255257,0.06750571,0.007916221],"split_indices":[1,0,1,0,0],"split_type":[0,0,0,0,0],"sum_hessian":[51974.92,12140.963,39833.957,21514.148,18319.809],"tree_param":{"num_deleted":"0","num_feature":"2","num_nodes":"5","size_leaf_vector":"0"}},{"base_weights":[-0.15305318,0.6604526,-0.40101132,-0.6750571,-0.07916221],"categories":[],"categories_nodes":[],"categories_segments":[],"categories_sizes":[],"default_left":[1,0,1,0,0],"id":22,"left_children":[1,-1,3,-1,-1],"loss_changes":[10484.608,0.0,3513.4443,0.0,0.0],"parents":[2147483647,0,0,2,2],"right_children":[2,-1,4,-1,-1],"split_conditions":[-1.5187774,0.06604526,0.037255257,-0.06750571,-0.007916221],"split_indices":[1,0,1,0,0],"split_type":[0,0,0,0,0],"sum_hessian":[51974.918,12140.961,39833.957,21514.148,18319.809],"tree_param":{"num_deleted":"0","num_feature":"2","num_nodes":"5","size_leaf_vector":"0"}},{"base_weights":[-0.20722196,-0.63879411,0.93719369,-0.63157005,-0.64118484],"categories":[],"categories_nodes":[],"categories_segments":[],"categories_sizes":[],"default_left":[1,1,0,0,0],"id":23,"left_children":[1,3,-1,-1,-1],"loss_changes":[18749.48795144,0.07113967,0.0,0.0,0.0],"parents":[2147483647,0,0,1,1],"right_children":[2,4,-1,-1,-1],"split_conditions":[1.49899268,-1.76362958,0.09371937,-0.06315701,-0.06411848],"split_indices":[0,0,0,0,0],"split_type":[0,0,0,0,0],"sum_hessian":[37960.06173256,27565.3114905,10394.75024206,6920.10635728,20645.20513324],"tree_param":{"num_deleted":"0","num_feature":"2","num_nodes":"5","size_leaf_vector":"0"}},{"base_weights":[0.14456902,-0.6405895,0.3760658,0.6529434,0.07147331],"categories":[],"categories_nodes":[],"categories_segments":[],"categories_sizes":[],"default_left":[1,0,1,0,0],"id":24,"left_children":[1,-1,3,-1,-1],"loss_changes":[9027.598,0.0,3234.8179,0.0,0.0],"parents":[2147483647,0,0,2,2],"right_children":[2,-1,4,-1,-1],"split_conditions":[-1.5187774,-0.06405895,0.037255257,0.06529434,0.007147331],"split_indices":[1,0,1,0,0],"split_type":[0,0,0,0,0],"sum_hessian":[49664.902,11308.508,38356.395,20091.697,18264.697],"tree_param":{"num_deleted":"0","num_feature":"2","num_nodes":"5","size_leaf_vector":"0"}},{"base_weights":[-0.14456896,0.64058954,-0.37606573,-0.6529433,-0.07147331],"categories":[],"categories_nodes":[],"categories_segments":[],"categories_sizes":[],"default_left":[1,0,1,0,0],"id":25,"left_children":[1,-1,3,-1,-1],"loss_changes":[9027.599,0.0,3234.816,0.0,0.0],"parents":[2147483647,0,0,2,2],"right_children":[2,-1,4,-1,-1],"split_conditions":[-1.5187774,0.06405895,0.037255257,-0.06529433,-0.007147331],"split_indices":[1,0,1,0,0],"split_type":[0,0,0,0,0],"sum_hessian":[49664.902,11308.509,38356.395,20091.697,18264.697],"tree_param":{"num_deleted":"0","num_feature":"2","num_nodes":"5","size_leaf_vector":"0"}},{"base_weights":[-0.19625281,-0.62730547,0.89855442,-0.61921411,-0.6299586],"categories":[],"categories_nodes":[],"categories_segments":[],"categories_sizes":[],"default_left":[1,1,0,0,0],"id":26,"left_children":[1,3,-1,-1,-1],"loss_changes":[17222.40505619,0.17203417,0.0,0.0,0.0],"parents":[2147483647,0,0,1,1],"right_children":[2,4,-1,-1,-1],"split_conditions":[1.49899268,-1.76362958,0.08985544,-0.06192141,-0.06299586],"split_indices":[0,0,0,0,0],"split_type":[0,0,0,0,0],"sum_hessian":[36492.17047565,26183.5045537,10308.66592195,6523.34181873,19660.16273498],"tree_param":{"num_deleted":"0","num_feature":"2","num_nodes":"5","size_leaf_vector":"0"}},{"base_weights":[0.13675608,-0.623674,0.35304588,0.8168903,0.14572434],"categories":[],"categories_nodes":[],"categories_segments":[],"categories_sizes":[],"default_left":[1,0,1,0,0],"id":27,"left_children":[1,-1,3,-1,-1],"loss_changes":[7795.983,0.0,3548.642,0.0,0.0],"parents":[2147483647,0,0,2,2],"right_children":[2,-1,4,-1,-1],"split_conditions":[-1.5187774,-0.0623674,0.55664086,0.08168903,0.014572434],"split_indices":[1,0,0,0,0],"split_type":[0,0,0,0,0],"sum_hessian":[47397.355,10495.493,36901.86,11397.987,25503.873],"tree_param":{"num_deleted":"0","num_feature":"2","num_nodes":"5","size_leaf_vector":"0"}},{"base_weights":[-0.13675605,0.623674,-0.35304588,-0.8168903,-0.14572428],"categories":[],"categories_nodes":[],"categories_segments":[],"categories_sizes":[],"default_left":[1,0,1,0,0],"id":28,"left_children":[1,-1,3,-1,-1],"loss_changes":[7795.9824,0.0,3548.643,0.0,0.0],"parents":[2147483647,0,0,2,2],"right_children":[2,-1,4,-1,-1],"split_conditions":[-1.5187774,0.0623674,0.55664086,-0.08168903,-0.014572429],"split_indices":[1,0,0,0,0],"split_type":[0,0,0,0,0],"sum_hessian":[47397.355,10495.494,36901.86,11397.988,25503.871],"tree_param":{"num_deleted":"0","num_feature":"2","num_nodes":"5","size_leaf_vector":"0"}},{"base_weights":[-0.1855795,-0.61684602,0.86471266,-0.60794346,-0.6197241],"categories":[],"categories_nodes":[],"categories_segments":[],"categories_sizes":[],"default_left":[1,1,0,0,0],"id":29,"left_children":[1,3,-1,-1,-1],"loss_changes":[15852.01146646,0.25891487,0.0,0.0,0.0],"parents":[2147483647,0,0,1,1],"right_children":[2,4,-1,-1,-1],"split_conditions":[1.49899268,-1.77060186,0.08647127,-0.06079435,-0.06197241],"split_indices":[0,0,0,0,0],"split_type":[0,0,0,0,0],"sum_hessian":[34994.63688146,24808.35007665,10186.2868048,6112.68138556,18695.66869109],"tree_param":{"num_deleted":"0","num_feature":"2","num_nodes":"5","size_leaf_vector":"0"}}]},"name":"gbtree"},"learner_model_param":{"base_score":"5E-1","boost_from_average":"1","num_class":"3","num_feature":"2","num_target":"1"},"objective":{"name":"multi:softprob","softmax_multiclass_param":{"num_class":"3"}}},"version":[1,7,3]}