{"learner":{"attributes":{"best_iteration":"9","best_ntree_limit":"10"},"feature_names":["Area","Perimeter","MajorAxisLength","MinorAxisLength","AspectRation","Eccentricity","ConvexArea","EquivDiameter","Extent","Solidity","roundness","Compactness","ShapeFactor1","ShapeFactor2","ShapeFactor3","ShapeFactor4"],"feature_types":["int","float","float","float","float","float","int","float","float","float","float","float","float","float","float","float"],"gradient_booster":{"model":{"gbtree_model_param":{"num_parallel_tree":"1","num_trees":"63","size_leaf_vector":"0"},"tree_info":[0,1,2,3,4,5,6,0,1,2,3,4,5,6,0,1,2,3,4,5,6,0,1,2,3,4,5,0,1,2,3,4,5,0,1,2,3,4,5,0,1,2,3,4,5,0,1,2,3,4,5,0,1,2,3,4,5,0,1,2,3,4,5],"trees":[{"base_weights":[0.126471,-0.5394949,2.8197293,-0.5741464,1.3806227,-0.07984793,2.9116619,-0.57749856,0.74999994,-0.49514562,1.7221094,-0.39914164,1.4999999,0.74999994,2.9296231],"categories":[],"categories_nodes":[],"categories_segments":[],"categories_sizes":[],"default_left":[1,1,1,1,1,1,1,0,0,0,0,0,0,0,0],"id":0,"left_children":[1,3,5,7,9,11,13,-1,-1,-1,-1,-1,-1,-1,-1],"loss_changes":[4015.0408,120.21564,118.528564,8.262146,21.42147,7.969075,14.504395,0.0,0.0,0.0,0.0,0.0,0.0,0.0,0.0],"parents":[2147483647,0,0,1,1,2,2,3,3,4,4,5,5,6,6],"right_children":[2,4,6,8,10,12,14,-1,-1,-1,-1,-1,-1,-1,-1],"split_conditions":[0.002076446,0.92217815,0.84721553,0.9991489,40926.5,0.9905683,0.9938508,-0.057749856,0.074999996,-0.049514562,0.17221095,-0.039914165,0.14999999,0.074999996,0.2929623],"split_indices":[13,10,11,15,0,9,15,0,0,0,0,0,0,0,0],"split_type":[0,0,0,0,0,0,0,0,0,0,0,0,0,0,0],"sum_hessian":[2236.6667,1793.8889,442.7778,1762.7778,31.111113,13.611112,429.1667,1758.8889,3.888889,4.7222223,26.38889,11.944445,1.6666667,3.888889,425.2778],"tree_param":{"num_deleted":"0","num_feature":"16","num_nodes":"15","size_leaf_vector":"0"}},{"base_weights":[-0.12870552,0.60971856,-0.53582567,2.5392284,0.096620455,-0.24412298,-0.57808846,-0.032608718,2.8781037,-0.4059074,1.1789882,-0.45541185,1.3266331,-0.58640766,-0.30508476],"categories":[],"categories_nodes":[],"categories_segments":[],"categories_sizes":[],"default_left":[1,1,1,1,1,1,1,0,0,0,0,0,0,0,0],"id":1,"left_children":[1,3,5,7,9,11,13,-1,-1,-1,-1,-1,-1,-1,-1],"loss_changes":[673.03046,787.5419,17.647705,145.73645,342.9366,61.78131,2.6818848,0.0,0.0,0.0,0.0,0.0,0.0,0.0,0.0],"parents":[2147483647,0,0,1,1,2,2,3,3,4,4,5,5,6,6],"right_children":[2,4,6,8,10,12,14,-1,-1,-1,-1,-1,-1,-1,-1],"split_conditions":[0.0059784274,0.80711865,0.9843129,0.7425588,0.0012742418,0.9963815,210.78223,-0.0032608719,0.2878104,-0.04059074,0.11789882,-0.045541186,0.13266331,-0.058640767,-0.030508477],"split_indices":[12,10,9,11,13,15,3,0,0,0,0,0,0,0,0],"split_type":[0,0,0,0,0,0,0,0,0,0,0,0,0,0,0],"sum_hessian":[2236.6667,794.7223,1441.9445,166.11111,628.61115,183.33334,1258.6112,19.444445,146.66667,429.72223,198.8889,162.22223,21.111113,1220.2778,38.333336],"tree_param":{"num_deleted":"0","num_feature":"16","num_nodes":"15","size_leaf_vector":"0"}},{"base_weights":[-0.4089081,-0.5997168,2.9666355],"categories":[],"categories_nodes":[],"categories_segments":[],"categories_sizes":[],"default_left":[1,0,0],"id":2,"left_children":[1,-1,-1],"loss_changes":[1443.0227,0.0,0.0],"parents":[2147483647,0,0],"right_children":[2,-1,-1],"split_conditions":[313.82315,-0.05997168,0.29666355],"split_indices":[3,0,0],"split_type":[0,0,0],"sum_hessian":[2236.6667,2117.7778,118.88889],"tree_param":{"num_deleted":"0","num_feature":"16","num_nodes":"3","size_leaf_vector":"0"}},{"base_weights":[-0.027260564,-0.5218788,1.1014823,-0.5804855,0.060511995,1.9129144,-0.13653138,-0.59499854,-0.37434706,-0.3767735,1.2597401,-0.28116938,2.3142035,0.77217954,-0.34421292],"categories":[],"categories_nodes":[],"categories_segments":[],"categories_sizes":[],"default_left":[1,1,1,1,1,1,1,0,0,0,0,0,0,0,0],"id":3,"left_children":[1,3,5,7,9,11,13,-1,-1,-1,-1,-1,-1,-1,-1],"loss_changes":[1249.857,53.163544,685.4855,4.0084534,75.58111,363.49866,51.409588,0.0,0.0,0.0,0.0,0.0,0.0,0.0,0.0],"parents":[2147483647,0,0,1,1,2,2,3,3,4,4,5,5,6,6],"right_children":[2,4,6,8,10,12,14,-1,-1,-1,-1,-1,-1,-1,-1],"split_conditions":[64022.0,59661.5,0.77903545,55494.5,0.83037347,0.0008951938,1019.09753,-0.059499856,-0.03743471,-0.03767735,0.12597401,-0.02811694,0.23142035,0.07721796,-0.03442129],"split_indices":[0,6,11,0,10,13,1,0,0,0,0,0,0,0,0],"split_type":[0,0,0,0,0,0,0,0,0,0,0,0,0,0,0],"sum_hessian":[2236.6667,1555.5557,681.11115,1413.3334,142.22223,411.11115,270.0,1318.6112,94.72223,104.72223,37.5,63.611115,347.50003,49.722225,220.27779],"tree_param":{"num_deleted":"0","num_feature":"16","num_nodes":"15","size_leaf_vector":"0"}},{"base_weights":[0.08937878,2.7376301,-0.5141081,2.933314,-0.23849374,0.30505297,-0.5558544,1.2524271,2.9506705,-0.40654206,0.8823529,2.0707455,-0.5409836,0.93243235,-0.56261456],"categories":[],"categories_nodes":[],"categories_segments":[],"categories_sizes":[],"default_left":[1,1,1,1,1,1,1,0,0,0,0,0,0,0,0],"id":4,"left_children":[1,3,5,7,9,11,13,-1,-1,-1,-1,-1,-1,-1,-1],"loss_changes":[3577.6128,242.646,62.51819,7.6794434,5.3606224,134.15503,17.982117,0.0,0.0,0.0,0.0,0.0,0.0,0.0,0.0],"parents":[2147483647,0,0,1,1,2,2,3,3,4,4,5,5,6,6],"right_children":[2,4,6,8,10,12,14,-1,-1,-1,-1,-1,-1,-1,-1],"split_conditions":[0.7283032,215.28836,0.7410494,0.0061298916,0.005919274,386.5597,0.978002,0.12524271,0.29506704,-0.04065421,0.08823529,0.20707455,-0.054098364,0.093243234,-0.056261458],"split_indices":[11,3,11,12,12,2,15,0,0,0,0,0,0,0,0],"split_type":[0,0,0,0,0,0,0,0,0,0,0,0,0,0,0],"sum_hessian":[2236.6667,414.44446,1822.2223,388.88892,25.555557,88.05556,1734.1667,4.7222223,384.1667,22.777779,2.777778,28.055557,60.000004,7.2222223,1726.9446],"tree_param":{"num_deleted":"0","num_feature":"16","num_nodes":"15","size_leaf_vector":"0"}},{"base_weights":[0.34902424,1.2351537,-0.5352203,2.4333081,-0.513052,-0.14776324,-0.58237845,0.022255166,2.7354186,0.44378692,-0.5529322,-0.48134327,0.7174959,-0.45898005,-0.5917803],"categories":[],"categories_nodes":[],"categories_segments":[],"categories_sizes":[],"default_left":[1,1,1,1,1,1,1,0,0,0,0,0,0,0,0],"id":5,"left_children":[1,3,5,7,9,11,13,-1,-1,-1,-1,-1,-1,-1,-1],"loss_changes":[1753.9966,2342.917,20.391449,483.23608,17.624687,35.83121,0.887146,0.0,0.0,0.0,0.0,0.0,0.0,0.0,0.0],"parents":[2147483647,0,0,1,1,2,2,3,3,4,4,5,5,6,6],"right_children":[2,4,6,8,10,12,14,-1,-1,-1,-1,-1,-1,-1,-1],"split_conditions":[338.2168,0.84721553,354.25287,0.8383356,0.85452735,0.8440409,361.70013,0.0022255166,0.27354187,0.044378694,-0.05529322,-0.048134327,0.07174959,-0.045898005,-0.059178032],"split_indices":[2,11,2,10,11,10,2,0,0,0,0,0,0,0,0],"split_type":[0,0,0,0,0,0,0,0,0,0,0,0,0,0,0],"sum_hessian":[2236.6667,1116.9445,1119.7223,662.50006,454.44446,121.94445,997.77783,73.88889,588.61115,17.777779,436.6667,88.333336,33.611115,74.16667,923.61115],"tree_param":{"num_deleted":"0","num_feature":"16","num_nodes":"15","size_leaf_vector":"0"}},{"base_weights":[2.01987807,3.02756225,-0.57134469,0.38982679,3.30033746,0.51219512,-0.58179469,1.74514159,-0.48593806,3.38064579,2.05360377,1.48235294,-0.12426036],"categories":[],"categories_nodes":[],"categories_segments":[],"categories_sizes":[],"default_left":[1,1,1,1,1,1,0,0,0,0,0,0,0],"id":6,"left_children":[1,3,5,7,9,11,-1,-1,-1,-1,-1,-1,-1],"loss_changes":[3559.10701959,704.61034729,4.62684388,111.33006982,82.06693536,2.76745817,0.0,0.0,0.0,0.0,0.0,0.0,0.0],"parents":[2147483647,0,0,1,1,2,2,3,3,4,4,5,5],"right_children":[2,4,6,8,10,12,-1,-1,-1,-1,-1,-1,-1],"split_conditions":[42562.0,0.0067729,42671.5,0.87595853,745.9065,0.7351256,-0.05817947,0.17451416,-0.04859381,0.33806458,0.20536038,0.14823529,-0.01242604],"split_indices":[6,12,6,11,1,8,0,0,0,0,0,0,0],"split_type":[0,0,0,0,0,0,0,0,0,0,0,0,0],"sum_hessian":[1361.3877551,980.08163265,381.30612245,92.08163265,888.0,3.18367347,378.12244898,35.75510204,56.32653061,832.65306122,55.34693878,0.73469388,2.44897959],"tree_param":{"num_deleted":"0","num_feature":"16","num_nodes":"13","size_leaf_vector":"0"}},{"base_weights":[0.11680155,-0.52980506,2.1497526,-0.5656421,1.2029586,-0.06625063,2.205451,-0.56913185,0.7049473,-0.48589736,1.4691044,-0.3867965,1.3792603,0.65383446,2.216642],"categories":[],"categories_nodes":[],"categories_segments":[],"categories_sizes":[],"default_left":[1,1,1,1,1,1,1,0,0,0,0,0,0,0,0],"id":7,"left_children":[1,3,5,7,9,11,13,-1,-1,-1,-1,-1,-1,-1,-1],"loss_changes":[2963.6929,106.90817,67.29614,7.8357544,16.43808,7.164008,7.7661133,0.0,0.0,0.0,0.0,0.0,0.0,0.0,0.0],"parents":[2147483647,0,0,1,1,2,2,3,3,4,4,5,5,6,6],"right_children":[2,4,6,8,10,12,14,-1,-1,-1,-1,-1,-1,-1,-1],"split_conditions":[0.002076446,0.92217815,0.84721553,0.9991489,40926.5,0.9905683,0.9938508,-0.056913186,0.070494734,-0.048589736,0.14691044,-0.038679652,0.13792603,0.06538345,0.22166419],"split_indices":[13,10,11,15,0,9,15,0,0,0,0,0,0,0,0],"split_type":[0,0,0,0,0,0,0,0,0,0,0,0,0,0,0],"sum_hessian":[2252.716,1709.6719,543.04407,1675.6888,33.983047,13.309871,529.7342,1671.6497,4.03926,4.5139055,29.469141,11.493559,1.8163118,4.2188053,525.5154],"tree_param":{"num_deleted":"0","num_feature":"16","num_nodes":"15","size_leaf_vector":"0"}},{"base_weights":[-0.120936304,0.5480195,-0.525738,1.8353455,0.010494206,-0.2338266,-0.56938636,-0.085396245,2.221366,-0.43897775,0.87871003,-0.44442052,1.1389829,-0.5780415,-0.29246396],"categories":[],"categories_nodes":[],"categories_segments":[],"categories_sizes":[],"default_left":[1,1,1,1,1,1,1,0,0,0,0,0,0,0,0],"id":8,"left_children":[1,3,5,7,9,11,13,-1,-1,-1,-1,-1,-1,-1,-1],"loss_changes":[597.275,575.42645,17.37326,181.80713,229.71114,52.665936,2.6940308,0.0,0.0,0.0,0.0,0.0,0.0,0.0,0.0],"parents":[2147483647,0,0,1,1,2,2,3,3,4,4,5,5,6,6],"right_children":[2,4,6,8,10,12,14,-1,-1,-1,-1,-1,-1,-1,-1],"split_conditions":[0.0059784274,0.8174372,0.9843129,0.7485831,0.0012722237,0.9963815,210.78223,-0.0085396245,0.2221366,-0.043897774,0.08787101,-0.044442054,0.11389829,-0.05780415,-0.029246395],"split_indices":[12,10,9,11,13,15,3,0,0,0,0,0,0,0,0],"split_type":[0,0,0,0,0,0,0,0,0,0,0,0,0,0,0],"sum_hessian":[2203.576,830.6046,1372.9712,243.95041,586.65424,179.4178,1193.5533,40.95371,202.9967,386.86838,199.78586,156.14142,23.276388,1156.3252,37.22813],"tree_param":{"num_deleted":"0","num_feature":"16","num_nodes":"15","size_leaf_vector":"0"}},{"base_weights":[-0.39723986,-0.59209204,2.2500257],"categories":[],"categories_nodes":[],"categories_segments":[],"categories_sizes":[],"default_left":[1,0,0],"id":9,"left_children":[1,-1,-1],"loss_changes":[1112.6602,0.0,0.0],"parents":[2147483647,0,0],"right_children":[2,-1,-1],"split_conditions":[313.82315,-0.059209205,0.22500257],"split_indices":[3,0,0],"split_type":[0,0,0],"sum_hessian":[2153.465,2006.5493,146.91586],"tree_param":{"num_deleted":"0","num_feature":"16","num_nodes":"3","size_leaf_vector":"0"}},{"base_weights":[-0.024804335,-0.547793,0.88626045,-0.5869354,-0.2492826,1.3953985,-0.30151078,-0.49245122,0.44491225,-0.2691162,1.7887654,-0.55860734,0.05419525],"categories":[],"categories_nodes":[],"categories_segments":[],"categories_sizes":[],"default_left":[1,1,1,0,1,1,1,0,0,0,0,0,0],"id":10,"left_children":[1,3,5,-1,7,9,11,-1,-1,-1,-1,-1,-1],"loss_changes":[1060.1334,16.369598,491.12512,0.0,28.173058,372.485,22.37013,0.0,0.0,0.0,0.0,0.0,0.0],"parents":[2147483647,0,0,1,1,2,2,4,4,5,5,6,6],"right_children":[2,4,6,-1,8,10,12,-1,-1,-1,-1,-1,-1],"split_conditions":[61352.0,55494.5,0.78640485,-0.05869354,0.8262807,0.8011693,0.85078514,-0.049245123,0.044491228,-0.02691162,0.17887655,-0.055860735,0.0054195253],"split_indices":[0,0,11,0,10,10,10,0,0,0,0,0,0],"split_type":[0,0,0,0,0,0,0,0,0,0,0,0,0],"sum_hessian":[2222.9248,1412.494,810.4309,1247.8962,164.59775,567.1481,243.2828,122.11341,42.484333,108.47152,458.67654,140.8843,102.39852],"tree_param":{"num_deleted":"0","num_feature":"16","num_nodes":"13","size_leaf_vector":"0"}},{"base_weights":[0.08271354,2.063216,-0.5132743,-0.17958274,2.219955,0.17744365,-0.54761535,1.489894,-0.33426753,0.90328455,2.2254474,1.5207348,-0.5460033,-0.55357045,1.2296747],"categories":[],"categories_nodes":[],"categories_segments":[],"categories_sizes":[],"default_left":[1,1,1,1,1,1,1,0,0,0,0,0,0,0,0],"id":11,"left_children":[1,3,5,7,9,11,13,-1,-1,-1,-1,-1,-1,-1,-1],"loss_changes":[2652.9873,183.1626,41.08084,9.506979,1.5048828,81.09114,18.104279,0.0,0.0,0.0,0.0,0.0,0.0,0.0,0.0],"parents":[2147483647,0,0,1,1,2,2,3,3,4,4,5,5,6,6],"right_children":[2,4,6,8,10,12,14,-1,-1,-1,-1,-1,-1,-1,-1],"split_conditions":[0.73064655,0.0060714567,0.7414144,0.7036993,0.0061298916,64683.0,0.0077428883,0.14898941,-0.033426754,0.090328455,0.22254474,0.15207349,-0.05460033,-0.055357046,0.122967474],"split_indices":[11,12,11,11,12,0,12,0,0,0,0,0,0,0,0],"split_type":[0,0,0,0,0,0,0,0,0,0,0,0,0,0,0],"sum_hessian":[2245.72,518.90533,1726.8147,33.885628,485.01974,81.58986,1645.2249,2.1414666,31.74416,2.7021918,482.31754,28.17418,53.41568,1640.4169,4.8079615],"tree_param":{"num_deleted":"0","num_feature":"16","num_nodes":"15","size_leaf_vector":"0"}},{"base_weights":[0.31740534,1.0496223,-0.5271625,1.8883563,-0.50107175,-0.15006056,-0.57409674,0.0158933,2.0812163,0.11894535,-0.5650305,-0.49219713,0.65069616,-0.48430407,-0.5880728],"categories":[],"categories_nodes":[],"categories_segments":[],"categories_sizes":[],"default_left":[1,1,1,1,1,1,1,0,0,0,0,0,0,0,0],"id":12,"left_children":[1,3,5,7,9,11,13,-1,-1,-1,-1,-1,-1,-1,-1],"loss_changes":[1419.9895,1600.4015,18.790619,288.25293,17.21666,33.03319,0.9050293,0.0,0.0,0.0,0.0,0.0,0.0,0.0,0.0],"parents":[2147483647,0,0,1,1,2,2,3,3,4,4,5,5,6,6],"right_children":[2,4,6,8,10,12,14,-1,-1,-1,-1,-1,-1,-1,-1],"split_conditions":[338.6549,0.84721553,354.25287,0.83789974,0.86294293,0.8440409,367.35364,0.0015893299,0.20812164,0.011894535,-0.056503054,-0.049219713,0.065069616,-0.04843041,-0.05880728],"split_indices":[2,11,2,10,11,10,2,0,0,0,0,0,0,0,0],"split_type":[0,0,0,0,0,0,0,0,0,0,0,0,0,0,0],"sum_hessian":[2294.311,1228.7639,1065.5471,797.30347,431.46045,118.404106,947.143,74.55332,722.7501,40.265587,391.19485,83.22863,35.175476,132.36742,814.77563],"tree_param":{"num_deleted":"0","num_feature":"16","num_nodes":"15","size_leaf_vector":"0"}},{"base_weights":[1.92225989,2.698034,-0.55788496,2.84560233,-0.08861898,0.60664662,-0.56971504,2.99980747,2.13858687,-0.43429829,2.41780383,1.44323076,-0.06387635],"categories":[],"categories_nodes":[],"categories_segments":[],"categories_sizes":[],"default_left":[1,1,1,1,1,1,0,0,0,0,0,0,0],"id":13,"left_children":[1,3,5,7,9,11,-1,-1,-1,-1,-1,-1,-1],"loss_changes":[2717.1520229,442.44293967,4.99002705,104.92799832,48.74591334,2.26564416,0.0,0.0,0.0,0.0,0.0,0.0,0.0],"parents":[2147483647,0,0,1,1,2,2,3,3,4,4,5,5],"right_children":[2,4,6,8,10,12,-1,-1,-1,-1,-1,-1,-1],"split_conditions":[42562.0,0.884218,42671.5,722.879,0.00702491,0.7351256,-0.0569715,0.29998075,0.21385869,-0.04342983,0.24178038,0.14432308,-0.00638764],"split_indices":[6,11,6,1,12,8,0,0,0,0,0,0,0],"split_type":[0,0,0,0,0,0,0,0,0,0,0,0,0],"sum_hessian":[1410.43525434,1074.3098582,336.12539614,1020.26040503,54.04945317,2.87460588,333.25079026,834.9162586,185.34414643,48.22509888,5.82435429,0.7662239,2.10838198],"tree_param":{"num_deleted":"0","num_feature":"16","num_nodes":"13","size_leaf_vector":"0"}},{"base_weights":[0.10884593,-0.5373613,1.7140647,-0.56491673,0.893168,-0.3711508,1.7813122,-0.57458895,-0.29794887,0.36456695,1.510775,-0.50211155,0.43274772,0.904313,1.8107175],"categories":[],"categories_nodes":[],"categories_segments":[],"categories_sizes":[],"default_left":[1,1,1,1,1,1,1,0,0,0,0,0,0,0,0],"id":14,"left_children":[1,3,5,7,9,11,13,-1,-1,-1,-1,-1,-1,-1,-1],"loss_changes":[2334.5505,63.761993,91.24011,3.8958435,9.476555,2.4290445,14.504761,0.0,0.0,0.0,0.0,0.0,0.0,0.0,0.0],"parents":[2147483647,0,0,1,1,2,2,3,3,4,4,5,5,6,6],"right_children":[2,4,6,8,10,12,14,-1,-1,-1,-1,-1,-1,-1,-1],"split_conditions":[0.0020166019,0.9199896,0.84325963,0.99831396,0.99821,0.9905089,0.8539117,-0.057458896,-0.029794887,0.036456697,0.1510775,-0.050211158,0.04327477,0.0904313,0.18107174],"split_indices":[13,10,11,15,15,9,11,0,0,0,0,0,0,0,0],"split_type":[0,0,0,0,0,0,0,0,0,0,0,0,0,0,0],"sum_hessian":[2248.7065,1603.7542,644.9524,1574.0396,29.714624,20.0085,624.9439,1517.8938,56.14572,16.86791,12.846713,17.528402,2.4800968,21.304317,603.6396],"tree_param":{"num_deleted":"0","num_feature":"16","num_nodes":"15","size_leaf_vector":"0"}},{"base_weights":[-0.11405971,0.49747202,-0.5161118,1.4687492,-0.019428967,-0.22443838,-0.5611826,-0.07880981,1.821151,-0.4931251,0.64628416,-0.44497886,0.9454966,-0.5702152,-0.2798583],"categories":[],"categories_nodes":[],"categories_segments":[],"categories_sizes":[],"default_left":[1,1,1,1,1,1,1,0,0,0,0,0,0,0,0],"id":15,"left_children":[1,3,5,7,9,11,13,-1,-1,-1,-1,-1,-1,-1,-1],"loss_changes":[532.5253,431.4087,17.050934,162.91052,177.47171,45.973633,2.7145996,0.0,0.0,0.0,0.0,0.0,0.0,0.0,0.0],"parents":[2147483647,0,0,1,1,2,2,3,3,4,4,5,5,6,6],"right_children":[2,4,6,8,10,12,14,-1,-1,-1,-1,-1,-1,-1,-1],"split_conditions":[0.0059784274,0.8214755,0.9843129,0.75129724,0.0012196711,0.9962386,210.78223,-0.007880981,0.18211511,-0.049312513,0.064628415,-0.04449789,0.09454966,-0.057021525,-0.02798583],"split_indices":[12,10,9,11,13,15,3,0,0,0,0,0,0,0,0],"split_type":[0,0,0,0,0,0,0,0,0,0,0,0,0,0,0],"sum_hessian":[2163.8586,858.2304,1305.6282,297.4565,560.77386,175.54932,1130.0789,55.315777,242.14073,327.79013,232.98373,148.22717,27.322147,1093.9287,36.150135],"tree_param":{"num_deleted":"0","num_feature":"16","num_nodes":"15","size_leaf_vector":"0"}},{"base_weights":[-0.386438,-0.5847319,1.8733323,-0.58522266,0.17077865],"categories":[],"categories_nodes":[],"categories_segments":[],"categories_sizes":[],"default_left":[1,1,0,0,0],"id":16,"left_children":[1,3,-1,-1,-1],"loss_changes":[927.74854,0.80511475,0.0,0.0,0.0],"parents":[2147483647,0,0,1,1],"right_children":[2,4,-1,-1,-1],"split_conditions":[116653.0,302.80182,0.18733323,-0.058522265,0.017077865],"split_indices":[0,3,0,0,0],"split_type":[0,0,0,0,0],"sum_hessian":[2066.9673,1900.905,166.06235,1899.8962,1.0088222],"tree_param":{"num_deleted":"0","num_feature":"16","num_nodes":"5","size_leaf_vector":"0"}},{"base_weights":[-0.02273603,-0.53880507,0.780034,-0.5795346,-0.23774672,1.1864736,-0.29040256,-0.4816077,0.40590864,-0.2567463,1.4811064,-0.5508275,0.05453481],"categories":[],"categories_nodes":[],"categories_segments":[],"categories_sizes":[],"default_left":[1,1,1,0,1,1,1,0,0,0,0,0,0],"id":17,"left_children":[1,3,5,-1,7,9,11,-1,-1,-1,-1,-1,-1],"loss_changes":[912.5845,16.30307,375.36334,0.0,25.5408,266.1239,21.411577,0.0,0.0,0.0,0.0,0.0,0.0],"parents":[2147483647,0,0,1,1,2,2,4,4,5,5,6,6],"right_children":[2,4,6,-1,8,10,12,-1,-1,-1,-1,-1,-1],"split_conditions":[61352.0,55494.5,0.78640485,-0.05795346,0.8262807,0.8011693,0.85078514,-0.048160773,0.040590864,-0.02567463,0.14811064,-0.05508275,0.0054534813],"split_indices":[0,0,11,0,10,10,10,0,0,0,0,0,0],"split_type":[0,0,0,0,0,0,0,0,0,0,0,0,0],"sum_hessian":[2200.7805,1339.8031,860.97754,1179.3293,160.47375,623.956,237.02151,116.5633,43.910446,105.806305,518.1497,134.71552,102.30601],"tree_param":{"num_deleted":"0","num_feature":"16","num_nodes":"13","size_leaf_vector":"0"}},{"base_weights":[0.077146515,1.6911771,-0.503518,-0.42339286,1.7899177,0.032447383,-0.5478023,0.40815434,-0.49086007,0.7891931,1.8066688,1.1081597,-0.55632055,1.0261414,-0.55355257],"categories":[],"categories_nodes":[],"categories_segments":[],"categories_sizes":[],"default_left":[1,1,1,1,1,1,1,0,0,0,0,0,0,0,0],"id":18,"left_children":[1,3,5,7,9,11,13,-1,-1,-1,-1,-1,-1,-1,-1],"loss_changes":[2097.603,124.39441,39.08725,1.7277646,8.060913,80.78016,14.329529,0.0,0.0,0.0,0.0,0.0,0.0,0.0,0.0],"parents":[2147483647,0,0,1,1,2,2,3,3,4,4,5,5,6,6],"right_children":[2,4,6,8,10,12,14,-1,-1,-1,-1,-1,-1,-1,-1],"split_conditions":[0.73064655,0.005919274,0.7456292,0.6450496,0.0061298916,64528.5,0.97572553,0.040815435,-0.04908601,0.078919314,0.18066688,0.110815965,-0.055632055,0.10261414,-0.05535526],"split_indices":[11,12,11,8,12,0,15,0,0,0,0,0,0,0,0],"split_type":[0,0,0,0,0,0,0,0,0,0,0,0,0,0,0],"sum_hessian":[2236.226,591.1466,1645.0795,26.225641,564.92096,125.571915,1519.5076,1.5891662,24.636475,10.092594,554.82837,44.105858,81.46606,4.885229,1514.6223],"tree_param":{"num_deleted":"0","num_feature":"16","num_nodes":"15","size_leaf_vector":"0"}},{"base_weights":[0.29155555,0.9029408,-0.53975415,1.5227513,-0.49052703,-0.33892274,-0.5796594,-0.1392613,1.6810734,0.09546478,-0.5563536,-0.5343891,1.052334],"categories":[],"categories_nodes":[],"categories_segments":[],"categories_sizes":[],"default_left":[1,1,1,1,1,1,0,0,0,0,0,0,0],"id":19,"left_children":[1,3,5,7,9,11,-1,-1,-1,-1,-1,-1,-1],"loss_changes":[1183.5503,1159.5121,7.714081,244.646,16.014908,45.71233,0.0,0.0,0.0,0.0,0.0,0.0,0.0],"parents":[2147483647,0,0,1,1,2,2,3,3,4,4,5,5],"right_children":[2,4,6,8,10,12,-1,-1,-1,-1,-1,-1,-1],"split_conditions":[342.87012,0.84721553,924.754,0.8347955,0.86294293,0.83613205,-0.05796594,-0.013926131,0.16810735,0.009546478,-0.055635363,-0.05343891,0.10523339],"split_indices":[2,11,1,10,11,10,0,0,0,0,0,0,0],"split_type":[0,0,0,0,0,0,0,0,0,0,0,0,0],"sum_hessian":[2326.716,1340.6508,986.06537,927.852,412.79868,165.02682,821.0386,80.70965,847.1424,41.642715,371.15598,145.23741,19.789415],"tree_param":{"num_deleted":"0","num_feature":"16","num_nodes":"13","size_leaf_vector":"0"}},{"base_weights":[1.59830275,2.13945557,-0.55324219,2.24101523,-0.10477591,0.57692159,-0.56552092,2.35487674,1.810582,-0.43529521,1.97122796,1.3529828,-0.06614211],"categories":[],"categories_nodes":[],"categories_segments":[],"categories_sizes":[],"default_left":[1,1,1,1,1,1,0,0,0,0,0,0,0],"id":20,"left_children":[1,3,5,7,9,11,-1,-1,-1,-1,-1,-1,-1],"loss_changes":[1866.15956184,291.99381317,4.80442973,55.75855661,39.54059533,2.06743814,0.0,0.0,0.0,0.0,0.0,0.0,0.0],"parents":[2147483647,0,0,1,1,2,2,3,3,4,4,5,5],"right_children":[2,4,6,8,10,12,-1,-1,-1,-1,-1,-1,-1],"split_conditions":[42562.0,0.884218,42671.5,716.15,0.00702491,0.7351256,-0.05655209,0.23548767,0.1810582,-0.04352952,0.1971228,0.13529828,-0.00661421],"split_indices":[6,11,6,1,12,8,0,0,0,0,0,0,0],"split_type":[0,0,0,0,0,0,0,0,0,0,0,0,0],"sum_hessian":[1600.78004828,1279.07496843,321.70507985,1223.69953693,55.3754315,2.96337457,318.74170528,964.1770522,259.52248472,48.45177486,6.92365664,0.84257525,2.12079932],"tree_param":{"num_deleted":"0","num_feature":"16","num_nodes":"13","size_leaf_vector":"0"}},{"base_weights":[0.10200412,-0.52898425,1.4613565,-0.5575935,0.82042646,-0.3582571,1.5127263,-0.56769884,-0.2855328,0.18632203,1.2582539,0.22804967,-0.5455269,0.9689205,1.5436888],"categories":[],"categories_nodes":[],"categories_segments":[],"categories_sizes":[],"default_left":[1,1,1,1,1,1,1,0,0,0,0,0,0,0,0],"id":21,"left_children":[1,3,5,7,9,11,13,-1,-1,-1,-1,-1,-1,-1,-1],"loss_changes":[1912.7762,59.260498,66.623535,3.940155,8.657284,2.3443744,10.084106,0.0,0.0,0.0,0.0,0.0,0.0,0.0,0.0],"parents":[2147483647,0,0,1,1,2,2,3,3,4,4,5,5,6,6],"right_children":[2,4,6,8,10,12,14,-1,-1,-1,-1,-1,-1,-1,-1],"split_conditions":[0.0020166019,0.9199896,0.84325963,0.99831396,0.99089885,0.002035895,0.99663997,-0.056769885,-0.028553281,0.018632203,0.12582539,0.022804966,-0.054552693,0.09689205,0.15436888],"split_indices":[13,10,11,15,9,13,15,0,0,0,0,0,0,0,0],"split_type":[0,0,0,0,0,0,0,0,0,0,0,0,0,0,0],"sum_hessian":[2228.129,1522.1729,705.95605,1491.1455,31.027435,19.218729,686.7373,1436.695,54.450554,13.255333,17.772102,4.5998135,14.6189165,38.733803,648.00354],"tree_param":{"num_deleted":"0","num_feature":"16","num_nodes":"15","size_leaf_vector":"0"}},{"base_weights":[-0.10767017,0.45529294,-0.5067328,1.2635612,-0.01577979,-0.21492055,-0.5533351,-0.1727334,1.5247823,-0.4321588,0.65465385,-0.43427473,0.83650243,-0.5627983,-0.2666103],"categories":[],"categories_nodes":[],"categories_segments":[],"categories_sizes":[],"default_left":[1,1,1,1,1,1,1,0,0,0,0,0,0,0,0],"id":22,"left_children":[1,3,5,7,9,11,13,-1,-1,-1,-1,-1,-1,-1,-1],"loss_changes":[476.1916,334.8376,16.747345,121.75183,155.6468,40.130787,2.7500305,0.0,0.0,0.0,0.0,0.0,0.0,0.0,0.0],"parents":[2147483647,0,0,1,1,2,2,3,3,4,4,5,5,6,6],"right_children":[2,4,6,8,10,12,14,-1,-1,-1,-1,-1,-1,-1,-1],"split_conditions":[0.0059784274,0.8214755,0.9843129,0.7485831,0.0012722237,0.9962386,210.78223,-0.01727334,0.15247823,-0.043215882,0.06546538,-0.043427475,0.083650246,-0.056279834,-0.02666103],"split_indices":[12,10,9,11,13,15,3,0,0,0,0,0,0,0,0],"split_type":[0,0,0,0,0,0,0,0,0,0,0,0,0,0,0],"sum_hessian":[2117.6062,878.3562,1239.2499,322.8046,555.55164,171.4269,1067.823,49.726696,273.07788,342.92825,212.62337,142.32182,29.105074,1032.7739,35.04913],"tree_param":{"num_deleted":"0","num_feature":"16","num_nodes":"15","size_leaf_vector":"0"}},{"base_weights":[-0.3763999,-0.5788604,1.6107105,0.50926167,1.6153284],"categories":[],"categories_nodes":[],"categories_segments":[],"categories_sizes":[],"default_left":[1,0,1,0,0],"id":23,"left_children":[1,-1,3,-1,-1],"loss_changes":[797.2774,0.0,0.109680176,0.0,0.0],"parents":[2147483647,0,0,2,2],"right_children":[2,-1,4,-1,-1],"split_conditions":[313.82315,-0.05788604,0.7931346,0.050926168,0.16153285],"split_indices":[3,0,10,0,0],"split_type":[0,0,0,0,0],"sum_hessian":[1978.4249,1796.1315,182.29353,1.2256966,181.06784],"tree_param":{"num_deleted":"0","num_feature":"16","num_nodes":"5","size_leaf_vector":"0"}},{"base_weights":[-0.02071938,-0.5301496,0.69646525,-0.57263803,-0.2257473,1.0169502,-0.329588,-0.470726,0.37502468,-0.4426447,1.2358366,0.5655646,-0.41506675],"categories":[],"categories_nodes":[],"categories_segments":[],"categories_sizes":[],"default_left":[1,1,1,0,1,1,1,0,0,0,0,0,0],"id":24,"left_children":[1,3,5,-1,7,9,11,-1,-1,-1,-1,-1,-1],"loss_changes":[793.3415,16.290894,296.88974,0.0,23.305798,220.17316,16.716248,0.0,0.0,0.0,0.0,0.0,0.0],"parents":[2147483647,0,0,1,1,2,2,4,4,5,5,6,6],"right_children":[2,4,6,-1,8,10,12,-1,-1,-1,-1,-1,-1],"split_conditions":[61352.0,55494.5,0.7899976,-0.057263803,0.8262807,0.0008869794,976.82996,-0.0470726,0.037502468,-0.04426447,0.12358367,0.05655646,-0.041506674],"split_indices":[0,0,11,0,10,13,1,0,0,0,0,0,0],"split_type":[0,0,0,0,0,0,0,0,0,0,0,0,0],"sum_hessian":[2169.4128,1268.578,900.83484,1112.4247,156.15338,686.43695,214.39787,111.07602,45.077362,89.38318,597.0538,18.198868,196.199],"tree_param":{"num_deleted":"0","num_feature":"16","num_nodes":"13","size_leaf_vector":"0"}},{"base_weights":[0.07228275,1.4413462,-0.49468297,-0.41711885,1.5192201,-0.037114568,-0.54628855,0.3824479,-0.48456654,0.7006081,1.5324357,-0.56640667,0.8517787,0.9221667,-0.55175894],"categories":[],"categories_nodes":[],"categories_segments":[],"categories_sizes":[],"default_left":[1,1,1,1,1,1,1,0,0,0,0,0,0,0,0],"id":25,"left_children":[1,3,5,7,9,11,13,-1,-1,-1,-1,-1,-1,-1,-1],"loss_changes":[1717.9344,94.434814,36.938446,1.6333385,5.6584473,75.62172,11.807068,0.0,0.0,0.0,0.0,0.0,0.0,0.0,0.0],"parents":[2147483647,0,0,1,1,2,2,3,3,4,4,5,5,6,6],"right_children":[2,4,6,8,10,12,14,-1,-1,-1,-1,-1,-1,-1,-1],"split_conditions":[0.73074883,0.005919274,0.74989754,0.6450496,0.0061298916,0.005982714,0.97572553,0.03824479,-0.048456654,0.07006081,0.15324357,-0.056640666,0.08517787,0.09221667,-0.055175897],"split_indices":[11,12,11,8,12,12,15,0,0,0,0,0,0,0,0],"split_type":[0,0,0,0,0,0,0,0,0,0,0,0,0,0,0],"sum_hessian":[2211.3096,647.1298,1564.1797,25.850471,621.27936,158.70625,1405.4734,1.6476709,24.2028,10.728659,610.5507,99.701645,59.004616,4.5944066,1400.879],"tree_param":{"num_deleted":"0","num_feature":"16","num_nodes":"15","size_leaf_vector":"0"}},{"base_weights":[0.26973233,0.8045861,-0.5315752,1.2862549,-0.5213509,-0.3264006,-0.57306254,0.13629398,1.4401244,-0.019291153,-0.5569623,-0.52526534,0.91941833],"categories":[],"categories_nodes":[],"categories_segments":[],"categories_sizes":[],"default_left":[1,1,1,1,1,1,0,0,0,0,0,0,0],"id":26,"left_children":[1,3,5,7,9,11,-1,-1,-1,-1,-1,-1,-1],"loss_changes":[1002.7859,896.70264,7.787079,181.95349,6.6860504,40.09497,0.0,0.0,0.0,0.0,0.0,0.0,0.0],"parents":[2147483647,0,0,1,1,2,2,3,3,4,4,5,5],"right_children":[2,4,6,8,10,12,-1,-1,-1,-1,-1,-1,-1],"split_conditions":[342.87012,0.8539117,924.754,0.84742403,0.99663997,0.83613205,-0.057306256,0.013629398,0.14401244,-0.0019291154,-0.05569623,-0.052526534,0.09194183],"split_indices":[2,11,1,10,15,10,0,0,0,0,0,0,0],"split_type":[0,0,0,0,0,0,0,0,0,0,0,0,0],"sum_hessian":[2337.7761,1401.9822,935.794,1028.421,373.5612,158.88748,776.90656,121.59005,906.831,24.844055,348.71713,137.51494,21.37254],"tree_param":{"num_deleted":"0","num_feature":"16","num_nodes":"13","size_leaf_vector":"0"}},{"base_weights":[0.09612602,-0.5209012,1.2812482,-0.5506368,0.7607253,-0.3452336,1.3226571,-0.5612267,-0.27270323,-0.34104353,0.96576184,-0.48460695,0.44037572,0.7166743,1.3442024],"categories":[],"categories_nodes":[],"categories_segments":[],"categories_sizes":[],"default_left":[1,1,1,1,1,1,1,0,0,0,0,0,0,0,0],"id":27,"left_children":[1,3,5,7,9,11,13,-1,-1,-1,-1,-1,-1,-1,-1],"loss_changes":[1605.2976,55.44046,51.077637,4.001648,7.8197746,2.3433928,8.608765,0.0,0.0,0.0,0.0,0.0,0.0,0.0,0.0],"parents":[2147483647,0,0,1,1,2,2,3,3,4,4,5,5,6,6],"right_children":[2,4,6,8,10,12,14,-1,-1,-1,-1,-1,-1,-1,-1],"split_conditions":[0.0020166019,0.9199896,0.84325963,0.99831396,41732.0,0.9905089,0.85452735,-0.05612267,-0.027270323,-0.034104355,0.096576184,-0.048460696,0.044037573,0.07166743,0.13442025],"split_indices":[13,10,11,15,0,9,11,0,0,0,0,0,0,0,0],"split_type":[0,0,0,0,0,0,0,0,0,0,0,0,0,0,0],"sum_hessian":[2193.3582,1442.756,750.6023,1410.5983,32.157646,18.453148,732.1492,1357.8423,52.755985,4.9414277,27.216217,15.998102,2.4550455,26.313654,705.8355],"tree_param":{"num_deleted":"0","num_feature":"16","num_nodes":"15","size_leaf_vector":"0"}},{"base_weights":[-0.10106042,0.42090884,-0.49751666,1.1221917,-0.013795561,-0.2052505,-0.5457739,-0.27840126,1.3252585,-0.47377092,0.5335969,0.64136165,-0.45423752,-0.5557251,-0.25275427],"categories":[],"categories_nodes":[],"categories_segments":[],"categories_sizes":[],"default_left":[1,1,1,1,1,1,1,0,0,0,0,0,0,0,0],"id":28,"left_children":[1,3,5,7,9,11,13,-1,-1,-1,-1,-1,-1,-1,-1],"loss_changes":[427.81793,272.10284,16.457794,97.51123,139.23277,35.72483,2.7980042,0.0,0.0,0.0,0.0,0.0,0.0,0.0,0.0],"parents":[2147483647,0,0,1,1,2,2,3,3,4,4,5,5,6,6],"right_children":[2,4,6,8,10,12,14,-1,-1,-1,-1,-1,-1,-1,-1],"split_conditions":[0.0059784274,0.8214755,0.9843129,0.0010283749,0.0012196711,0.006323873,210.78223,-0.027840126,0.13252585,-0.04737709,0.053359687,0.06413617,-0.045423754,-0.05557251,-0.025275428],"split_indices":[12,10,9,13,13,12,3,0,0,0,0,0,0,0,0],"split_type":[0,0,0,0,0,0,0,0,0,0,0,0,0,0,0],"sum_hessian":[2065.3608,891.52655,1173.8342,340.5523,550.9743,167.09425,1006.74,43.076202,297.4761,299.46637,251.5079,37.61588,129.47838,972.80615,33.93388],"tree_param":{"num_deleted":"0","num_feature":"16","num_nodes":"15","size_leaf_vector":"0"}},{"base_weights":[-0.3678329,-0.5728986,1.4018873],"categories":[],"categories_nodes":[],"categories_segments":[],"categories_sizes":[],"default_left":[1,0,0],"id":29,"left_children":[1,-1,-1],"loss_changes":[686.69324,0.0,0.0],"parents":[2147483647,0,0],"right_children":[2,-1,-1],"split_conditions":[313.82315,-0.057289865,0.14018874],"split_indices":[3,0,0],"split_type":[0,0,0],"sum_hessian":[1888.9785,1693.4293,195.54926],"tree_param":{"num_deleted":"0","num_feature":"16","num_nodes":"3","size_leaf_vector":"0"}},{"base_weights":[-0.018852497,-0.52702177,0.6216127,-0.5661892,-0.23455615,0.91436666,-0.24396738,-0.4809199,0.32289252,-0.2763406,1.1350437,-0.55441236,0.07187023],"categories":[],"categories_nodes":[],"categories_segments":[],"categories_sizes":[],"default_left":[1,1,1,0,1,1,1,0,0,0,0,0,0],"id":30,"left_children":[1,3,5,-1,7,9,11,-1,-1,-1,-1,-1,-1],"loss_changes":[694.26746,13.492004,239.37045,0.0,19.681831,185.67578,23.504166,0.0,0.0,0.0,0.0,0.0,0.0],"parents":[2147483647,0,0,1,1,2,2,4,4,5,5,6,6],"right_children":[2,4,6,-1,8,10,12,-1,-1,-1,-1,-1,-1],"split_conditions":[60951.0,55494.5,0.78476256,-0.056618925,0.8262807,0.8006444,0.8433824,-0.04809199,0.03228925,-0.02763406,0.11350437,-0.055441238,0.0071870233],"split_indices":[0,0,11,0,10,10,10,0,0,0,0,0,0],"split_type":[0,0,0,0,0,0,0,0,0,0,0,0,0],"sum_hessian":[2131.1506,1188.4036,942.74713,1047.2219,141.1817,704.43787,238.30925,98.005554,43.176147,110.10299,594.3349,119.799675,118.509575],"tree_param":{"num_deleted":"0","num_feature":"16","num_nodes":"13","size_leaf_vector":"0"}},{"base_weights":[0.06809941,1.2653017,-0.4856588,-0.4083804,1.3291208,-0.037912585,-0.5386589,0.36397833,-0.47698137,0.6391512,1.3399961,-0.5603046,0.749996,0.83987445,-0.54435545],"categories":[],"categories_nodes":[],"categories_segments":[],"categories_sizes":[],"default_left":[1,1,1,1,1,1,1,0,0,0,0,0,0,0,0],"id":31,"left_children":[1,3,5,7,9,11,13,-1,-1,-1,-1,-1,-1,-1,-1],"loss_changes":[1442.0653,74.02014,35.27539,1.5529094,4.117676,65.65863,10.900299,0.0,0.0,0.0,0.0,0.0,0.0,0.0,0.0],"parents":[2147483647,0,0,1,1,2,2,3,3,4,4,5,5,6,6],"right_children":[2,4,6,8,10,12,14,-1,-1,-1,-1,-1,-1,-1,-1],"split_conditions":[0.73074883,0.005919274,0.74989754,0.6450496,0.0061298916,0.005982714,0.97572553,0.036397833,-0.047698136,0.063915126,0.13399962,-0.05603046,0.0749996,0.083987445,-0.054435547],"split_indices":[11,12,11,8,12,12,15,0,0,0,0,0,0,0,0],"split_type":[0,0,0,0,0,0,0,0,0,0,0,0,0,0,0],"sum_hessian":[2173.2632,686.9091,1486.354,25.032097,661.877,157.50061,1328.8534,1.6907451,23.341352,11.198169,650.67883,94.881805,62.618805,4.8659997,1323.9874],"tree_param":{"num_deleted":"0","num_feature":"16","num_nodes":"15","size_leaf_vector":"0"}},{"base_weights":[0.2509884,0.72658104,-0.5278276,1.1059126,-0.50918347,-0.058680795,-0.5499553,-0.51487964,1.2684371,0.17322613,-0.5485224,-0.48641232,0.8019733,-0.37696669,-0.5664177],"categories":[],"categories_nodes":[],"categories_segments":[],"categories_sizes":[],"default_left":[1,1,1,1,1,1,1,0,0,0,0,0,0,0,0],"id":32,"left_children":[1,3,5,7,9,11,13,-1,-1,-1,-1,-1,-1,-1,-1],"loss_changes":[864.0276,679.36273,9.150833,292.5935,9.243507,15.469713,2.1918182,0.0,0.0,0.0,0.0,0.0,0.0,0.0,0.0],"parents":[2147483647,0,0,1,1,2,2,3,3,4,4,5,5,6,6],"right_children":[2,4,6,8,10,12,14,-1,-1,-1,-1,-1,-1,-1,-1],"split_conditions":[888.503,0.8539117,901.08655,0.73815596,0.99663997,53391.5,924.754,-0.051487964,0.12684372,0.017322613,-0.054852244,-0.04864123,0.08019733,-0.03769667,-0.05664177],"split_indices":[1,11,1,11,15,0,1,0,0,0,0,0,0,0,0],"split_type":[0,0,0,0,0,0,0,0,0,0,0,0,0,0,0],"sum_hessian":[2330.658,1447.0612,883.5968,1107.2758,339.78546,39.96289,843.6339,100.71518,1006.56055,18.334538,321.45093,26.986073,12.976818,75.38446,768.24945],"tree_param":{"num_deleted":"0","num_feature":"16","num_nodes":"15","size_leaf_vector":"0"}},{"base_weights":[0.091024466,-0.52486265,1.1273121,-0.54601055,0.6042781,-0.25075415,1.1776444,-0.557326,-0.25015324,-0.009986968,1.2415233,-0.4340986,0.81862545,0.5593291,1.1973287],"categories":[],"categories_nodes":[],"categories_segments":[],"categories_sizes":[],"default_left":[1,1,1,1,1,1,1,0,0,0,0,0,0,0,0],"id":33,"left_children":[1,3,5,7,9,11,13,-1,-1,-1,-1,-1,-1,-1,-1],"loss_changes":[1371.003,32.505737,55.8349,4.290344,9.8951845,6.0490284,8.734863,0.0,0.0,0.0,0.0,0.0,0.0,0.0,0.0],"parents":[2147483647,0,0,1,1,2,2,3,3,4,4,5,5,6,6],"right_children":[2,4,6,8,10,12,14,-1,-1,-1,-1,-1,-1,-1,-1],"split_conditions":[0.001974361,0.9199896,0.84325963,0.99831396,0.99821,0.9905089,0.9958167,-0.055732604,-0.025015324,-0.0009986968,0.124152325,-0.04340986,0.08186255,0.05593291,0.11973287],"split_indices":[13,10,11,15,15,9,15,0,0,0,0,0,0,0,0],"split_type":[0,0,0,0,0,0,0,0,0,0,0,0,0,0,0],"sum_hessian":[2146.1853,1346.4536,799.7317,1322.2062,24.247421,28.039707,771.69196,1272.6482,49.558094,12.847527,11.399895,24.443031,3.5966773,24.71667,746.9753],"tree_param":{"num_deleted":"0","num_feature":"16","num_nodes":"15","size_leaf_vector":"0"}},{"base_weights":[-0.09532311,0.418042,-0.4668915,-0.22618233,0.88873124,-0.14542805,-0.5368579,1.0073379,-0.4562255,1.1892942,-0.31502813,0.5841519,-0.47975686,-0.5517884,-0.33797714],"categories":[],"categories_nodes":[],"categories_segments":[],"categories_sizes":[],"default_left":[1,1,1,1,1,1,1,0,0,0,0,0,0,0,0],"id":34,"left_children":[1,3,5,7,9,11,13,-1,-1,-1,-1,-1,-1,-1,-1],"loss_changes":[383.71478,256.3504,26.166214,101.88346,177.04892,51.48885,2.657898,0.0,0.0,0.0,0.0,0.0,0.0,0.0,0.0],"parents":[2147483647,0,0,1,1,2,2,3,3,4,4,5,5,6,6],"right_children":[2,4,6,8,10,12,14,-1,-1,-1,-1,-1,-1,-1,-1],"split_conditions":[0.005896054,0.0011724054,0.98492134,0.80085087,0.87460923,0.006348907,210.78223,0.100733794,-0.045622554,0.11892942,-0.031502813,0.058415193,-0.047975685,-0.05517884,-0.033797715],"split_indices":[12,13,9,10,10,12,3,0,0,0,0,0,0,0,0],"split_type":[0,0,0,0,0,0,0,0,0,0,0,0,0,0,0],"sum_hessian":[2009.5848,843.7377,1165.8472,356.4247,487.31296,208.94048,956.90674,55.49181,300.9329,389.95767,97.35531,65.42384,143.51663,888.4352,68.47157],"tree_param":{"num_deleted":"0","num_feature":"16","num_nodes":"15","size_leaf_vector":"0"}},{"base_weights":[-0.3590835,-0.56740165,1.2664701,0.42213055,1.2699113],"categories":[],"categories_nodes":[],"categories_segments":[],"categories_sizes":[],"default_left":[1,0,1,0,0],"id":35,"left_children":[1,-1,3,-1,-1],"loss_changes":[610.0291,0.0,0.058685303,0.0,0.0],"parents":[2147483647,0,0,2,2],"right_children":[2,-1,4,-1,-1],"split_conditions":[313.82315,-0.056740165,0.7931346,0.042213056,0.12699114],"split_indices":[3,0,10,0,0],"split_type":[0,0,0,0,0],"sum_hessian":[1798.3276,1594.624,203.70352,1.3288252,202.3747],"tree_param":{"num_deleted":"0","num_feature":"16","num_nodes":"5","size_leaf_vector":"0"}},{"base_weights":[-0.0168941,-0.5191219,0.56647223,-0.5600749,-0.22403888,0.7953523,-0.33867347,-0.47068384,0.291415,-0.16015111,1.0142231,0.4726005,-0.43204486],"categories":[],"categories_nodes":[],"categories_segments":[],"categories_sizes":[],"default_left":[1,1,1,0,1,1,1,0,0,0,0,0,0],"id":36,"left_children":[1,3,5,-1,7,9,11,-1,-1,-1,-1,-1,-1],"loss_changes":[611.6119,13.430511,200.3475,0.0,17.72961,161.43378,15.022522,0.0,0.0,0.0,0.0,0.0,0.0],"parents":[2147483647,0,0,1,1,2,2,4,4,5,5,6,6],"right_children":[2,4,6,-1,8,10,12,-1,-1,-1,-1,-1,-1],"split_conditions":[60951.0,55494.5,0.7917153,-0.056007493,0.8262807,0.8075385,976.82996,-0.047068384,0.0291415,-0.01601511,0.10142231,0.04726005,-0.043204486],"split_indices":[0,0,11,0,10,10,1,0,0,0,0,0,0],"split_type":[0,0,0,0,0,0,0,0,0,0,0,0,0],"sum_hessian":[2085.5315,1120.7625,964.7691,983.3854,137.37708,770.1469,194.62222,92.975235,44.401844,143.58405,626.56287,19.668388,174.95383],"tree_param":{"num_deleted":"0","num_feature":"16","num_nodes":"13","size_leaf_vector":"0"}},{"base_weights":[0.06413836,1.1307704,-0.47676104,-0.39997065,1.1850299,-0.03681887,-0.5312423,0.33878765,-0.4694551,0.5806152,1.1945533,-0.5542555,0.670652,-0.5366682,1.0076731],"categories":[],"categories_nodes":[],"categories_segments":[],"categories_sizes":[],"default_left":[1,1,1,1,1,1,1,0,0,0,0,0,0,0,0],"id":37,"left_children":[1,3,5,7,9,11,13,-1,-1,-1,-1,-1,-1,-1,-1],"loss_changes":[1226.4677,59.882507,33.79068,1.4543443,3.2840576,57.66598,11.020782,0.0,0.0,0.0,0.0,0.0,0.0,0.0,0.0],"parents":[2147483647,0,0,1,1,2,2,3,3,4,4,5,5,6,6],"right_children":[2,4,6,8,10,12,14,-1,-1,-1,-1,-1,-1,-1,-1],"split_conditions":[0.73074883,0.005919274,0.74989754,0.6450496,0.0061298916,0.005982714,0.0077428883,0.033878766,-0.04694551,0.05806152,0.11945533,-0.05542555,0.0670652,-0.05366682,0.100767314],"split_indices":[11,12,11,8,12,12,12,0,0,0,0,0,0,0,0],"split_type":[0,0,0,0,0,0,0,0,0,0,0,0,0,0,0],"sum_hessian":[2123.8782,714.2719,1409.6062,24.23364,690.03827,155.5112,1254.095,1.7501647,22.483477,11.665102,678.37317,89.94382,65.56738,1250.3379,3.7571511],"tree_param":{"num_deleted":"0","num_feature":"16","num_nodes":"15","size_leaf_vector":"0"}},{"base_weights":[0.23456474,0.65602374,-0.5363452,0.9713888,-0.49966517,-0.33700752,-0.56055135,-0.5034554,1.1228471,0.17893031,-0.541109,-0.54534405,0.075607516,-0.1376455,-0.56321204],"categories":[],"categories_nodes":[],"categories_segments":[],"categories_sizes":[],"default_left":[1,1,1,1,1,1,1,0,0,0,0,0,0,0,0],"id":38,"left_children":[1,3,5,7,9,11,13,-1,-1,-1,-1,-1,-1,-1,-1],"loss_changes":[750.10693,544.41034,3.7494354,262.54126,9.113281,7.854307,0.7397461,0.0,0.0,0.0,0.0,0.0,0.0,0.0,0.0],"parents":[2147483647,0,0,1,1,2,2,3,3,4,4,5,5,6,6],"right_children":[2,4,6,8,10,12,14,-1,-1,-1,-1,-1,-1,-1,-1],"split_conditions":[895.9675,0.8539117,924.754,0.7383022,0.99663997,0.82390904,51936.0,-0.05034554,0.11228471,0.017893031,-0.054110903,-0.054534405,0.007560752,-0.01376455,-0.056321204],"split_indices":[1,11,1,11,15,10,0,0,0,0,0,0,0,0,0],"split_type":[0,0,0,0,0,0,0,0,0,0,0,0,0,0,0],"sum_hessian":[2306.5999,1491.3971,815.2027,1171.7961,319.60095,89.88906,725.3136,108.91341,1062.8827,18.20459,301.39636,59.51648,30.372581,4.864423,720.4492],"tree_param":{"num_deleted":"0","num_feature":"16","num_nodes":"15","size_leaf_vector":"0"}},{"base_weights":[0.08611529,-0.5223787,1.0149144,-0.5403097,0.5326277,-0.21282928,1.0661688,-0.55232155,-0.23342782,-0.008302133,1.125113,-0.39324835,1.061876,0.5024517,1.0842016],"categories":[],"categories_nodes":[],"categories_segments":[],"categories_sizes":[],"default_left":[1,1,1,1,1,1,1,0,0,0,0,0,0,0,0],"id":39,"left_children":[1,3,5,7,9,11,13,-1,-1,-1,-1,-1,-1,-1,-1],"loss_changes":[1181.6373,24.185913,52.30182,4.4518433,6.937056,8.236097,7.5321045,0.0,0.0,0.0,0.0,0.0,0.0,0.0,0.0],"parents":[2147483647,0,0,1,1,2,2,3,3,4,4,5,5,6,6],"right_children":[2,4,6,8,10,12,14,-1,-1,-1,-1,-1,-1,-1,-1],"split_conditions":[0.0019527543,0.9199896,0.84325963,0.99831396,0.99821,0.9338903,0.9958167,-0.055232156,-0.023342783,-0.00083021325,0.1125113,-0.039324835,0.106187604,0.050245173,0.108420156],"split_indices":[13,10,11,15,15,10,15,0,0,0,0,0,0,0,0],"split_type":[0,0,0,0,0,0,0,0,0,0,0,0,0,0,0],"sum_hessian":[2088.8313,1262.2909,826.5404,1241.675,20.615812,32.996338,793.54407,1194.1349,47.540184,11.292199,9.323613,29.510923,3.4854145,25.49262,768.05145],"tree_param":{"num_deleted":"0","num_feature":"16","num_nodes":"15","size_leaf_vector":"0"}},{"base_weights":[-0.08985432,0.33784747,-0.50284165,0.9001703,-0.03976191,-0.26526204,-0.54341424,-0.20460826,1.0987918,-0.45541182,0.33871996,-0.43347114,0.6234122,-0.42815664,-0.5531346],"categories":[],"categories_nodes":[],"categories_segments":[],"categories_sizes":[],"default_left":[1,1,1,1,1,1,1,0,0,0,0,0,0,0,0],"id":40,"left_children":[1,3,5,7,9,11,13,-1,-1,-1,-1,-1,-1,-1,-1],"loss_changes":[344.858,203.71617,9.429352,84.7948,90.58307,22.217945,0.7125244,0.0,0.0,0.0,0.0,0.0,0.0,0.0,0.0],"parents":[2147483647,0,0,1,1,2,2,3,3,4,4,5,5,6,6],"right_children":[2,4,6,8,10,12,14,-1,-1,-1,-1,-1,-1,-1,-1],"split_conditions":[0.006088393,0.8234197,0.9843129,0.7485831,0.0012196711,0.9963815,0.98583865,-0.020460827,0.10987919,-0.045541182,0.033871997,-0.043347117,0.06234122,-0.042815667,-0.055313464],"split_indices":[12,10,9,11,13,15,9,0,0,0,0,0,0,0,0],"split_type":[0,0,0,0,0,0,0,0,0,0,0,0,0,0,0],"sum_hessian":[1950.4098,958.2254,992.1844,384.40253,573.8229,145.82404,846.36035,58.573433,325.8291,273.38614,300.43674,123.046005,22.778038,69.33118,777.0291],"tree_param":{"num_deleted":"0","num_feature":"16","num_nodes":"15","size_leaf_vector":"0"}},{"base_weights":[-0.3508967,-0.5622469,1.1591202,0.39186686,1.1622272],"categories":[],"categories_nodes":[],"categories_segments":[],"categories_sizes":[],"default_left":[1,0,1,0,0],"id":41,"left_children":[1,-1,3,-1,-1],"loss_changes":[545.9697,0.0,0.04547119,0.0,0.0],"parents":[2147483647,0,0,2,2],"right_children":[2,-1,4,-1,-1],"split_conditions":[313.82315,-0.056224693,121768.5,0.039186686,0.11622272],"split_indices":[3,0,0,0,0],"split_type":[0,0,0,0,0],"sum_hessian":[1707.6981,1498.5768,209.12135,1.3561068,207.76524],"tree_param":{"num_deleted":"0","num_feature":"16","num_nodes":"5","size_leaf_vector":"0"}},{"base_weights":[-0.014695759,-0.5114795,0.52126044,-0.554389,-0.21309392,-0.54488343,0.69282866,-0.46044728,0.26667356,-0.1771983,-0.600414,-0.2507615,0.9614389],"categories":[],"categories_nodes":[],"categories_segments":[],"categories_sizes":[],"default_left":[1,1,1,0,1,1,1,0,0,0,0,0,0],"id":42,"left_children":[1,3,5,-1,7,9,11,-1,-1,-1,-1,-1,-1],"loss_changes":[542.1962,13.412628,179.55975,0.0,16.083096,2.6775055,214.21994,0.0,0.0,0.0,0.0,0.0,0.0],"parents":[2147483647,0,0,1,1,2,2,4,4,5,5,6,6],"right_children":[2,4,6,-1,8,10,12,-1,-1,-1,-1,-1,-1],"split_conditions":[60951.0,55494.5,0.0046976786,-0.055438902,0.8262807,299.3021,0.8074907,-0.04604473,0.026667356,-0.017719831,-0.060041398,-0.02507615,0.096143894],"split_indices":[0,0,12,0,10,3,10,0,0,0,0,0,0],"split_type":[0,0,0,0,0,0,0,0,0,0,0,0,0],"sum_hessian":[2034.3832,1055.798,978.5852,922.3072,133.49078,135.34717,843.23804,88.1062,45.384583,18.308949,117.03822,186.86696,656.3711],"tree_param":{"num_deleted":"0","num_feature":"16","num_nodes":"13","size_leaf_vector":"0"}},{"base_weights":[0.06057684,0.997412,-0.48481178,-0.4463126,1.0666544,-0.4996447,0.6957429,0.25312364,-0.49612543,0.5377838,1.0779111,0.61403674,-0.51131105,-0.092422955,1.2096486],"categories":[],"categories_nodes":[],"categories_segments":[],"categories_sizes":[],"default_left":[1,1,1,1,1,1,1,0,0,0,0,0,0,0,0],"id":43,"left_children":[1,3,5,7,9,11,13,-1,-1,-1,-1,-1,-1,-1,-1],"loss_changes":[1056.0537,76.50061,23.224823,1.3627772,3.7423706,17.084991,6.847225,0.0,0.0,0.0,0.0,0.0,0.0,0.0,0.0],"parents":[2147483647,0,0,1,1,2,2,3,3,4,4,5,5,6,6],"right_children":[2,4,6,8,10,12,14,-1,-1,-1,-1,-1,-1,-1,-1],"split_conditions":[0.7355455,0.005919274,0.007492926,0.6450496,0.006141288,0.65467954,1.6597952,0.025312364,-0.049612544,0.05377838,0.10779112,0.061403673,-0.051131107,-0.009242295,0.12096486],"split_indices":[11,12,12,8,12,8,4,0,0,0,0,0,0,0,0],"split_type":[0,0,0,0,0,0,0,0,0,0,0,0,0,0,0],"sum_hessian":[2064.9407,759.49603,1305.4446,34.509872,724.98615,1289.8157,15.628915,2.02299,32.48688,16.12566,708.86053,12.836106,1276.9796,6.4921713,9.136744],"tree_param":{"num_deleted":"0","num_feature":"16","num_nodes":"15","size_leaf_vector":"0"}},{"base_weights":[0.22023638,0.60536695,-0.529548,0.8798923,-0.49346632,-0.32617462,-0.5548106,-0.49319398,1.0089955,0.13507852,-0.5339599,-0.5386402,0.06733255,-0.12914205,-0.55760366],"categories":[],"categories_nodes":[],"categories_segments":[],"categories_sizes":[],"default_left":[1,1,1,1,1,1,1,0,0,0,0,0,0,0,0],"id":44,"left_children":[1,3,5,7,9,11,13,-1,-1,-1,-1,-1,-1,-1,-1],"loss_changes":[655.5276,452.7655,3.7777405,213.24054,7.717346,7.357085,0.74116516,0.0,0.0,0.0,0.0,0.0,0.0,0.0,0.0],"parents":[2147483647,0,0,1,1,2,2,3,3,4,4,5,5,6,6],"right_children":[2,4,6,8,10,12,14,-1,-1,-1,-1,-1,-1,-1,-1],"split_conditions":[895.9675,0.85452735,924.754,0.7383022,0.99663997,0.82390904,51936.0,-0.049319398,0.100899555,0.013507852,-0.053395994,-0.05386402,0.006733255,-0.012914205,-0.055760365],"split_indices":[1,11,1,11,15,10,0,0,0,0,0,0,0,0,0],"split_type":[0,0,0,0,0,0,0,0,0,0,0,0,0,0,0],"sum_hessian":[2267.9983,1498.486,769.5124,1199.1079,299.37805,86.562515,682.9498,102.81298,1096.2949,17.978493,281.39957,55.97254,30.589972,4.759988,678.1899],"tree_param":{"num_deleted":"0","num_feature":"16","num_nodes":"15","size_leaf_vector":"0"}},{"base_weights":[0.08247866,-0.51544386,0.9349685,-0.53423387,0.5170237,-0.27778292,0.9769551,-0.5469394,-0.21876687,0.0046262345,1.049061,-0.46274558,0.71889687,0.5995908,1.0048689],"categories":[],"categories_nodes":[],"categories_segments":[],"categories_sizes":[],"default_left":[1,1,1,1,1,1,1,0,0,0,0,0,0,0,0],"id":45,"left_children":[1,3,5,7,9,11,13,-1,-1,-1,-1,-1,-1,-1,-1],"loss_changes":[1032.3301,23.371216,42.78253,4.568634,5.934397,5.626331,7.8997803,0.0,0.0,0.0,0.0,0.0,0.0,0.0,0.0],"parents":[2147483647,0,0,1,1,2,2,3,3,4,4,5,5,6,6],"right_children":[2,4,6,8,10,12,14,-1,-1,-1,-1,-1,-1,-1,-1],"split_conditions":[0.0019527543,0.9199896,0.83914834,0.99831396,0.99821,0.99094164,0.8603887,-0.054693937,-0.021876687,0.00046262346,0.1049061,-0.046274558,0.07188969,0.05995908,0.10048689],"split_indices":[13,10,11,15,15,9,11,0,0,0,0,0,0,0,0],"split_type":[0,0,0,0,0,0,0,0,0,0,0,0,0,0,0],"sum_hessian":[2023.332,1189.4597,833.8724,1168.6735,20.786259,27.71552,806.15686,1122.7217,45.951782,11.102395,9.683864,23.829065,3.886457,57.07281,749.08405],"tree_param":{"num_deleted":"0","num_feature":"16","num_nodes":"15","size_leaf_vector":"0"}},{"base_weights":[-0.08370471,-0.5011314,0.31286207,-0.2013855,-0.5303934,0.75670016,-0.09429294,-0.46759596,0.69721603,-0.41211838,-0.54890853,-0.13902092,1.0715861,-0.41256723,0.22772123],"categories":[],"categories_nodes":[],"categories_segments":[],"categories_sizes":[],"default_left":[1,1,1,1,1,1,1,0,0,0,0,0,0,0,0],"id":46,"left_children":[1,3,5,7,9,11,13,-1,-1,-1,-1,-1,-1,-1,-1],"loss_changes":[312.7907,7.9668884,175.2008,20.295864,1.6089325,130.95819,51.987488,0.0,0.0,0.0,0.0,0.0,0.0,0.0,0.0],"parents":[2147483647,0,0,1,1,2,2,3,3,4,4,5,5,6,6],"right_children":[2,4,6,8,10,12,14,-1,-1,-1,-1,-1,-1,-1,-1],"split_conditions":[208.93576,0.982511,0.8334507,0.9951972,0.98583865,0.7588149,0.0012722237,-0.046759598,0.0697216,-0.04121184,-0.054890852,-0.013902092,0.107158616,-0.041256722,0.022772124],"split_indices":[3,9,10,15,9,11,13,0,0,0,0,0,0,0,0],"split_type":[0,0,0,0,0,0,0,0,0,0,0,0,0,0,0],"sum_hessian":[1887.598,919.48413,968.1139,82.479996,837.00415,462.78033,505.3336,63.999733,18.480265,116.440216,720.5639,120.517136,342.26318,254.00119,251.33241],"tree_param":{"num_deleted":"0","num_feature":"16","num_nodes":"15","size_leaf_vector":"0"}},{"base_weights":[-0.34466642,-0.5574435,1.057545,0.36980137,1.0602509],"categories":[],"categories_nodes":[],"categories_segments":[],"categories_sizes":[],"default_left":[1,0,1,0,0],"id":47,"left_children":[1,-1,3,-1,-1],"loss_changes":[483.52182,0.0,0.005432129,0.0,0.0],"parents":[2147483647,0,0,2,2],"right_children":[2,-1,4,-1,-1],"split_conditions":[313.82315,-0.05574435,0.7931346,0.036980137,0.10602509],"split_indices":[3,0,10,0,0],"split_type":[0,0,0,0,0],"sum_hessian":[1617.6312,1405.029,212.60217,1.3727235,211.22945],"tree_param":{"num_deleted":"0","num_feature":"16","num_nodes":"5","size_leaf_vector":"0"}},{"base_weights":[-0.013156229,-0.52716905,0.45848244,-0.54899603,-0.29981357,0.7628918,-0.025004743,0.2712474,-0.4464029,0.9422485,-0.59351504,-0.47594294,0.44370764],"categories":[],"categories_nodes":[],"categories_segments":[],"categories_sizes":[],"default_left":[1,1,1,0,1,1,1,0,0,0,0,0,0],"id":48,"left_children":[1,3,5,-1,7,9,11,-1,-1,-1,-1,-1,-1],"loss_changes":[480.26523,4.5395203,152.07303,0.0,7.2564073,154.80014,84.78173,0.0,0.0,0.0,0.0,0.0,0.0],"parents":[2147483647,0,0,1,1,2,2,4,4,5,5,6,6],"right_children":[2,4,6,-1,8,10,12,-1,-1,-1,-1,-1,-1],"split_conditions":[59935.5,55494.5,0.99404436,-0.054899603,0.9895692,310.32343,0.98768216,0.027124738,-0.04464029,0.094224855,-0.059351504,-0.047594294,0.044370767],"split_indices":[6,0,15,0,15,3,9,0,0,0,0,0,0],"split_type":[0,0,0,0,0,0,0,0,0,0,0,0,0],"sum_hessian":[1979.0637,946.9346,1032.1292,862.6975,84.23711,633.00415,399.12497,17.032814,67.20429,559.3474,73.656746,203.41159,195.71338],"tree_param":{"num_deleted":"0","num_feature":"16","num_nodes":"13","size_leaf_vector":"0"}},{"base_weights":[0.057325024,0.90894526,-0.48056498,-0.45207924,0.97817665,0.6328134,-0.49541616,0.23204102,-0.4979972,0.39670825,0.98796713,0.9395535,-0.4351744,0.73643017,-0.50595534],"categories":[],"categories_nodes":[],"categories_segments":[],"categories_sizes":[],"default_left":[1,1,1,1,1,1,1,0,0,0,0,0,0,0,0],"id":49,"left_children":[1,3,5,7,9,11,13,-1,-1,-1,-1,-1,-1,-1,-1],"loss_changes":[916.6705,73.43182,20.59436,1.3149076,3.8063354,5.8418384,16.094086,0.0,0.0,0.0,0.0,0.0,0.0,0.0,0.0],"parents":[2147483647,0,0,1,1,2,2,3,3,4,4,5,5,6,6],"right_children":[2,4,6,8,10,12,14,-1,-1,-1,-1,-1,-1,-1,-1],"split_conditions":[0.7363863,0.005919274,170.8195,0.6450496,0.006083271,0.0018393542,0.978002,0.023204101,-0.04979972,0.039670825,0.09879672,0.09395535,-0.04351744,0.07364302,-0.050595533],"split_indices":[11,12,3,8,12,13,15,0,0,0,0,0,0,0,0],"split_type":[0,0,0,0,0,0,0,0,0,0,0,0,0,0,0],"sum_hessian":[1999.1696,773.6267,1225.5428,37.17963,736.4471,15.58442,1209.9584,2.083575,35.096054,12.882167,723.5649,12.200527,3.383893,9.679841,1200.2786],"tree_param":{"num_deleted":"0","num_feature":"16","num_nodes":"15","size_leaf_vector":"0"}},{"base_weights":[0.20751207,0.5634245,-0.52312595,0.8061567,-0.48417297,-0.31552756,-0.54951006,-0.54775834,0.91368705,0.09030675,-0.53046614,-0.5320768,0.058162633,-0.12055834,-0.55244553],"categories":[],"categories_nodes":[],"categories_segments":[],"categories_sizes":[],"default_left":[1,1,1,1,1,1,1,0,0,0,0,0,0,0,0],"id":50,"left_children":[1,3,5,7,9,11,13,-1,-1,-1,-1,-1,-1,-1,-1],"loss_changes":[577.242,379.8844,3.8100586,176.95532,7.5307465,6.8572226,0.7441864,0.0,0.0,0.0,0.0,0.0,0.0,0.0,0.0],"parents":[2147483647,0,0,1,1,2,2,3,3,4,4,5,5,6,6],"right_children":[2,4,6,8,10,12,14,-1,-1,-1,-1,-1,-1,-1,-1],"split_conditions":[895.9675,0.85452735,924.754,0.7304835,0.9968275,0.82390904,51936.0,-0.054775834,0.091368705,0.0090306755,-0.053046614,-0.053207677,0.0058162636,-0.012055834,-0.055244554],"split_indices":[1,11,1,11,15,10,0,0,0,0,0,0,0,0,0],"split_type":[0,0,0,0,0,0,0,0,0,0,0,0,0,0,0],"sum_hessian":[2217.6597,1491.3928,726.2667,1211.0244,280.36835,83.3559,642.9108,88.803604,1122.2208,20.837141,259.53122,52.505642,30.850264,4.6556883,638.2551],"tree_param":{"num_deleted":"0","num_feature":"16","num_nodes":"15","size_leaf_vector":"0"}},{"base_weights":[0.07908261,-0.5087109,0.8693849,-0.52842116,0.5040729,-0.26264414,0.9069112,-0.54186225,-0.2057592,0.01813782,0.9845196,-0.45265934,0.6865346,0.36443225,0.9256472],"categories":[],"categories_nodes":[],"categories_segments":[],"categories_sizes":[],"default_left":[1,1,1,1,1,1,1,0,0,0,0,0,0,0,0],"id":51,"left_children":[1,3,5,7,9,11,13,-1,-1,-1,-1,-1,-1,-1,-1],"loss_changes":[907.6532,22.635864,35.63965,4.6577454,5.095943,5.273204,7.8632812,0.0,0.0,0.0,0.0,0.0,0.0,0.0,0.0],"parents":[2147483647,0,0,1,1,2,2,3,3,4,4,5,5,6,6],"right_children":[2,4,6,8,10,12,14,-1,-1,-1,-1,-1,-1,-1,-1],"split_conditions":[0.0019527543,0.9199896,0.83914834,0.99831396,0.99821,0.99094164,0.9958167,-0.054186225,-0.02057592,0.001813782,0.098451965,-0.045265935,0.06865346,0.036443226,0.092564724],"split_indices":[13,10,11,15,15,9,15,0,0,0,0,0,0,0,0],"split_type":[0,0,0,0,0,0,0,0,0,0,0,0,0,0,0],"sum_hessian":[1951.9459,1119.5947,832.35114,1098.6909,20.90384,26.514313,805.8368,1054.1011,44.589886,10.90849,9.99535,22.52763,3.9866815,27.585325,778.25146],"tree_param":{"num_deleted":"0","num_feature":"16","num_nodes":"15","size_leaf_vector":"0"}},{"base_weights":[-0.078210086,-0.49338067,0.29471472,-0.26067913,-0.533924,0.6780291,-0.10865453,-0.44793558,0.5620886,-0.41814208,-0.5437903,-0.10766828,1.0036288,-0.47677636,0.14667971],"categories":[],"categories_nodes":[],"categories_segments":[],"categories_sizes":[],"default_left":[1,1,1,1,1,1,1,0,0,0,0,0,0,0,0],"id":52,"left_children":[1,3,5,7,9,11,13,-1,-1,-1,-1,-1,-1,-1,-1],"loss_changes":[282.6796,8.011093,148.80812,20.301384,0.611969,126.324905,44.207375,0.0,0.0,0.0,0.0,0.0,0.0,0.0,0.0],"parents":[2147483647,0,0,1,1,2,2,3,3,4,4,5,5,6,6],"right_children":[2,4,6,8,10,12,14,-1,-1,-1,-1,-1,-1,-1,-1],"split_conditions":[208.93576,0.9843129,0.8374059,0.9963815,0.98583865,0.76270384,0.9940002,-0.044793557,0.05620886,-0.041814208,-0.054379027,-0.010766828,0.10036289,-0.047677636,0.014667972],"split_indices":[3,9,10,15,9,11,15,0,0,0,0,0,0,0,0],"split_type":[0,0,0,0,0,0,0,0,0,0,0,0,0,0,0],"sum_hessian":[1823.8331,862.8805,960.95264,129.13428,733.7462,492.37592,468.5767,105.564156,23.570126,61.022392,672.7238,144.45767,347.91824,191.54875,277.02795],"tree_param":{"num_deleted":"0","num_feature":"16","num_nodes":"15","size_leaf_vector":"0"}},{"base_weights":[-0.33852306,-0.5530442,0.9816245,0.34442693,0.9841554],"categories":[],"categories_nodes":[],"categories_segments":[],"categories_sizes":[],"default_left":[1,0,1,0,0],"id":53,"left_children":[1,-1,3,-1,-1],"loss_changes":[433.8706,0.0,0.0065307617,0.0,0.0],"parents":[2147483647,0,0,2,2],"right_children":[2,-1,4,-1,-1],"split_conditions":[313.82315,-0.05530442,121768.5,0.034442693,0.098415546],"split_indices":[3,0,0,0,0],"split_type":[0,0,0,0,0],"sum_hessian":[1529.1146,1315.8698,213.24492,1.3860127,211.8589],"tree_param":{"num_deleted":"0","num_feature":"16","num_nodes":"5","size_leaf_vector":"0"}},{"base_weights":[-0.011707064,-0.496847,0.44647214,-0.54393494,-0.19861566,0.6227161,-0.32979992,-0.4461198,0.23419929,-0.43003482,0.74868363,-0.5225172,-0.008167414],"categories":[],"categories_nodes":[],"categories_segments":[],"categories_sizes":[],"default_left":[1,1,1,0,1,1,1,0,0,0,0,0,0],"id":54,"left_children":[1,3,5,-1,7,9,11,-1,-1,-1,-1,-1,-1],"loss_changes":[427.76166,13.018021,135.61266,0.0,13.926737,107.33237,11.387316,0.0,0.0,0.0,0.0,0.0,0.0],"parents":[2147483647,0,0,1,1,2,2,4,4,5,5,6,6],"right_children":[2,4,6,-1,8,10,12,-1,-1,-1,-1,-1,-1],"split_conditions":[60951.0,55494.5,0.7919189,-0.054393496,0.8262807,0.0008870526,0.86037374,-0.04461198,0.02341993,-0.04300348,0.074868366,-0.052251723,-0.00081674143],"split_indices":[0,0,11,0,10,13,10,0,0,0,0,0,0],"split_type":[0,0,0,0,0,0,0,0,0,0,0,0,0],"sum_hessian":[1922.4203,933.6971,988.7232,805.666,128.03107,805.94104,182.78218,81.433044,46.59802,85.8715,720.0695,113.90653,68.87564],"tree_param":{"num_deleted":"0","num_feature":"16","num_nodes":"13","size_leaf_vector":"0"}},{"base_weights":[0.054999832,0.8455528,-0.47196215,-0.44362026,0.9084159,0.59755874,-0.487431,0.21859634,-0.49076128,0.931389,0.6620527,-0.08997682,1.0316149,0.68368435,-0.49840516],"categories":[],"categories_nodes":[],"categories_segments":[],"categories_sizes":[],"default_left":[1,1,1,1,1,1,1,0,0,0,0,0,0,0,0],"id":55,"left_children":[1,3,5,7,9,11,13,-1,-1,-1,-1,-1,-1,-1,-1],"loss_changes":[804.11993,62.967407,19.45404,1.2487907,3.5513916,5.1550474,15.02179,0.0,0.0,0.0,0.0,0.0,0.0,0.0,0.0],"parents":[2147483647,0,0,1,1,2,2,3,3,4,4,5,5,6,6],"right_children":[2,4,6,8,10,12,14,-1,-1,-1,-1,-1,-1,-1,-1],"split_conditions":[0.7363863,0.005919274,170.8195,0.6450496,0.7236699,1.6597952,0.978002,0.021859635,-0.04907613,0.093138896,0.06620527,-0.008997682,0.10316149,0.068368435,-0.049840517],"split_indices":[11,12,3,8,11,4,15,0,0,0,0,0,0,0,0],"split_type":[0,0,0,0,0,0,0,0,0,0,0,0,0,0,0],"sum_hessian":[1928.2788,771.0053,1157.2736,35.56637,735.4389,15.962914,1141.3107,2.1218917,33.444477,670.16626,65.2727,6.484428,9.478486,10.026503,1131.284],"tree_param":{"num_deleted":"0","num_feature":"16","num_nodes":"15","size_leaf_vector":"0"}},{"base_weights":[0.19573161,0.5271901,-0.5171161,0.7402509,-0.49535453,-0.30633757,-0.54459655,-0.5411354,0.83408296,0.002176256,-0.53557336,-0.5256684,0.044322528,-0.111390695,-0.5476883],"categories":[],"categories_nodes":[],"categories_segments":[],"categories_sizes":[],"default_left":[1,1,1,1,1,1,1,0,0,0,0,0,0,0,0],"id":56,"left_children":[1,3,5,7,9,11,13,-1,-1,-1,-1,-1,-1,-1,-1],"loss_changes":[510.49463,321.60986,3.8060455,147.2171,5.100849,6.28345,0.75,0.0,0.0,0.0,0.0,0.0,0.0,0.0,0.0],"parents":[2147483647,0,0,1,1,2,2,3,3,4,4,5,5,6,6],"right_children":[2,4,6,8,10,12,14,-1,-1,-1,-1,-1,-1,-1,-1],"split_conditions":[895.9675,0.8603887,924.754,0.7304835,0.9968275,0.82390904,51936.0,-0.054113537,0.083408296,0.0002176256,-0.053557336,-0.052566838,0.004432253,-0.01113907,-0.05476883],"split_indices":[1,11,1,11,15,10,0,0,0,0,0,0,0,0,0],"split_type":[0,0,0,0,0,0,0,0,0,0,0,0,0,0,0],"sum_hessian":[2158.401,1473.5111,684.8898,1219.6556,253.85544,80.395195,604.49457,82.89268,1136.763,19.056833,234.7986,49.15232,31.242874,4.5460353,599.9485],"tree_param":{"num_deleted":"0","num_feature":"16","num_nodes":"15","size_leaf_vector":"0"}},{"base_weights":[0.076021545,-0.50213265,0.8148078,-0.5228296,0.49302435,-0.1687312,0.8516743,-0.53708076,-0.19200623,-0.15452911,0.79884017,-0.3597666,0.9516611,0.48514402,0.8741777],"categories":[],"categories_nodes":[],"categories_segments":[],"categories_sizes":[],"default_left":[1,1,1,1,1,1,1,0,0,0,0,0,0,0,0],"id":57,"left_children":[1,3,5,7,9,11,13,-1,-1,-1,-1,-1,-1,-1,-1],"loss_changes":[802.3072,21.96286,30.042908,4.766266,4.477178,6.8974676,6.1328125,0.0,0.0,0.0,0.0,0.0,0.0,0.0,0.0],"parents":[2147483647,0,0,1,1,2,2,3,3,4,4,5,5,6,6],"right_children":[2,4,6,8,10,12,14,-1,-1,-1,-1,-1,-1,-1,-1],"split_conditions":[0.0019527543,0.9199896,0.84325963,0.99831396,0.9974637,0.9338903,0.99663997,-0.053708076,-0.019200623,-0.015452911,0.079884015,-0.03597666,0.09516611,0.048514403,0.087417774],"split_indices":[13,10,11,15,15,10,15,0,0,0,0,0,0,0,0],"split_type":[0,0,0,0,0,0,0,0,0,0,0,0,0,0,0],"sum_hessian":[1876.3995,1052.8151,823.5845,1031.8301,20.984995,29.626318,793.9581,988.6189,43.2112,6.890122,14.094873,25.890657,3.735661,47.230812,746.7273],"tree_param":{"num_deleted":"0","num_feature":"16","num_nodes":"15","size_leaf_vector":"0"}},{"base_weights":[-0.07245274,-0.47203574,0.2942182,0.022966806,-0.51677155,-0.2649647,0.7703474,-0.47590113,0.5686078,-0.33384427,-0.5415642,-0.4611279,0.3296863,0.20630471,0.98089033],"categories":[],"categories_nodes":[],"categories_segments":[],"categories_sizes":[],"default_left":[1,1,1,1,1,1,1,0,0,0,0,0,0,0,0],"id":58,"left_children":[1,3,5,7,9,11,13,-1,-1,-1,-1,-1,-1,-1,-1],"loss_changes":[258.14093,18.680145,244.8534,19.551018,3.3258514,49.533325,58.766693,0.0,0.0,0.0,0.0,0.0,0.0,0.0,0.0],"parents":[2147483647,0,0,1,1,2,2,3,3,4,4,5,5,6,6],"right_children":[2,4,6,8,10,12,14,-1,-1,-1,-1,-1,-1,-1,-1],"split_conditions":[56423.5,0.982511,0.0011724054,0.9933548,0.98583865,0.995198,0.9938892,-0.047590114,0.056860782,-0.033384427,-0.054156423,-0.04611279,0.032968633,0.020630471,0.09808903],"split_indices":[6,9,13,15,9,15,15,0,0,0,0,0,0,0,0],"split_type":[0,0,0,0,0,0,0,0,0,0,0,0,0,0,0],"sum_hessian":[1759.9203,842.0267,917.8936,69.83107,772.1956,422.33362,495.55997,36.54582,33.28525,93.89289,678.30273,317.74167,104.59195,135.2381,360.32187],"tree_param":{"num_deleted":"0","num_feature":"16","num_nodes":"15","size_leaf_vector":"0"}},{"base_weights":[-0.332702,-0.54901195,0.920838,0.32211795,0.9232556],"categories":[],"categories_nodes":[],"categories_segments":[],"categories_sizes":[],"default_left":[1,0,1,0,0],"id":59,"left_children":[1,-1,3,-1,-1],"loss_changes":[391.98544,0.0,0.010681152,0.0,0.0],"parents":[2147483647,0,0,2,2],"right_children":[2,-1,4,-1,-1],"split_conditions":[313.82315,-0.054901194,0.7931346,0.032211795,0.09232556],"split_indices":[3,0,10,0,0],"split_type":[0,0,0,0,0],"sum_hessian":[1442.759,1230.9152,211.84381,1.3918631,210.45195],"tree_param":{"num_deleted":"0","num_feature":"16","num_nodes":"5","size_leaf_vector":"0"}},{"base_weights":[-0.01028269,-0.5150181,0.39638236,-0.5392,-0.2824085,0.662899,-0.04036501,0.2726825,-0.43403035,0.8042442,-0.5760988,-0.4704523,0.3787949],"categories":[],"categories_nodes":[],"categories_segments":[],"categories_sizes":[],"default_left":[1,1,1,0,1,1,1,0,0,0,0,0,0],"id":60,"left_children":[1,3,5,-1,7,9,11,-1,-1,-1,-1,-1,-1],"loss_changes":[382.67105,4.5268555,120.208984,0.0,6.8880925,112.76538,70.886894,0.0,0.0,0.0,0.0,0.0,0.0],"parents":[2147483647,0,0,1,1,2,2,4,4,5,5,6,6],"right_children":[2,4,6,-1,8,10,12,-1,-1,-1,-1,-1,-1],"split_conditions":[59935.5,55494.5,0.99404436,-0.05392,0.9895692,310.32343,0.98768216,0.02726825,-0.043403037,0.08042442,-0.057609882,-0.04704523,0.037879493],"split_indices":[6,0,15,0,15,3,9,0,0,0,0,0,0],"split_type":[0,0,0,0,0,0,0,0,0,0,0,0,0],"sum_hessian":[1862.3448,830.85565,1031.4891,751.42053,79.435165,640.2631,391.22604,16.871132,62.56403,575.01605,65.24708,193.03564,198.1904],"tree_param":{"num_deleted":"0","num_feature":"16","num_nodes":"13","size_leaf_vector":"0"}},{"base_weights":[0.052474495,0.78093404,-0.47193736,-0.45413497,0.8494999,0.5329459,-0.48684818,0.16067946,-0.49528185,0.33487052,0.8593488,0.7909523,-0.42167065,0.6197087,-0.4976312],"categories":[],"categories_nodes":[],"categories_segments":[],"categories_sizes":[],"default_left":[1,1,1,1,1,1,1,0,0,0,0,0,0,0,0],"id":61,"left_children":[1,3,5,7,9,11,13,-1,-1,-1,-1,-1,-1,-1,-1],"loss_changes":[708.67065,66.138824,16.421951,1.1291847,3.442505,4.335641,12.997192,0.0,0.0,0.0,0.0,0.0,0.0,0.0,0.0],"parents":[2147483647,0,0,1,1,2,2,3,3,4,4,5,5,6,6],"right_children":[2,4,6,8,10,12,14,-1,-1,-1,-1,-1,-1,-1,-1],"split_conditions":[0.7379986,0.005919274,170.8195,0.6450496,0.006083271,0.0018393542,0.978002,0.016067946,-0.049528185,0.03348705,0.08593488,0.07909524,-0.042167064,0.06197087,-0.04976312],"split_indices":[11,12,3,8,12,13,15,0,0,0,0,0,0,0,0],"split_type":[0,0,0,0,0,0,0,0,0,0,0,0,0,0,0],"sum_hessian":[1853.1316,775.4568,1077.6748,40.490067,734.96674,15.249148,1062.4257,2.3576195,38.132446,14.458825,720.50793,12.139597,3.109552,9.70809,1052.7177],"tree_param":{"num_deleted":"0","num_feature":"16","num_nodes":"15","size_leaf_vector":"0"}},{"base_weights":[0.1849129,0.49554908,-0.51130295,0.7038022,-0.41599512,-0.2966773,-0.5400086,-0.4664375,0.796485,0.32920656,-0.48676425,-0.5194743,0.034060623,-0.10326358,-0.54326767],"categories":[],"categories_nodes":[],"categories_segments":[],"categories_sizes":[],"default_left":[1,1,1,1,1,1,1,0,0,0,0,0,0,0,0],"id":62,"left_children":[1,3,5,7,9,11,13,-1,-1,-1,-1,-1,-1,-1,-1],"loss_changes":[452.95868,275.15787,3.82164,128.25055,14.394428,5.7994595,0.7535858,0.0,0.0,0.0,0.0,0.0,0.0,0.0,0.0],"parents":[2147483647,0,0,1,1,2,2,3,3,4,4,5,5,6,6],"right_children":[2,4,6,8,10,12,14,-1,-1,-1,-1,-1,-1,-1,-1],"split_conditions":[895.9675,0.84721553,924.754,0.7383022,0.99663997,0.82390904,51936.0,-0.04664375,0.0796485,0.032920655,-0.048676427,-0.051947434,0.0034060625,-0.0103263585,-0.05432677],"split_indices":[1,11,1,11,15,10,0,0,0,0,0,0,0,0,0],"split_type":[0,0,0,0,0,0,0,0,0,0,0,0,0,0,0],"sum_hessian":[2092.2432,1446.939,645.3041,1178.0315,268.90747,77.463394,567.8407,86.1569,1091.8746,23.005613,245.90186,45.94352,31.51987,4.4480076,563.39264],"tree_param":{"num_deleted":"0","num_feature":"16","num_nodes":"15","size_leaf_vector":"0"}}]},"name":"gbtree"},"learner_model_param":{"base_score":"5E-1","boost_from_average":"1","num_class":"7","num_feature":"16","num_target":"1"},"objective":{"name":"multi:softprob","softmax_multiclass_param":{"num_class":"7"}}},"version":[1,7,3]}