{"learner":{"attributes":{},"gradient_booster":{"model":{"gbtree_model_param":{"num_trees":"71","size_leaf_vector":"0"},"tree_info":[0,1,2,3,4,5,6,7,0,1,2,3,4,5,6,0,1,2,3,4,5,6,0,1,2,3,4,5,6,0,1,2,3,4,5,6,0,1,2,3,4,5,6,0,1,2,3,4,5,6,0,1,2,3,4,5,6,0,1,2,3,4,5,6,0,1,2,3,4,5,6],"trees":[{"base_weights":[-0.2706034779548645,3.440471887588501,-0.5824984312057495],"default_left":[true,false,false],"id":0,"leaf_child_counts":[0,0,0],"left_children":[1,-1,-1],"loss_changes":[877.6387329101562,0.0,0.0],"parents":[2147483647,0,0],"right_children":[2,-1,-1],"split_conditions":[0.0,0.3440471887588501,-0.05824984237551689],"split_indices":[48,0,0],"sum_hessian":[755.51025390625,57.795921325683594,697.71435546875],"tree_param":{"num_deleted":"0","num_feature":"202","num_nodes":"3","size_leaf_vector":"0"}},{"base_weights":[0.1933690905570984,-0.27115893363952637,1.6931493282318115,-0.4526205360889435,0.3503808081150055,1.4545300006866455,2.147754430770874,-0.5243459939956665,-0.1320754885673523,0.04092368856072426,0.690623939037323,1.514440655708313,-0.26141080260276794,1.0619901418685913,2.385890245437622,-0.5392388701438904,-0.09531014412641525,-0.23751725256443024,0.6376237273216248,-0.08793389797210693,0.9123594760894775,1.3354672193527222,0.45985397696495056,1.5926483869552612,0.4442012906074524,-0.4254143536090851,0.12844035029411316,-0.030567698180675507,1.5196304321289062,2.4907195568084717,0.5803108215332031,-0.5472272634506226,0.02422143705189228,0.8471336960792542,-0.3544303774833679,0.3617977201938629,-0.31650665402412415,-0.1627907007932663,1.4664031267166138,1.4736841917037964,-0.15708942711353302,0.05054150149226189,1.8064515590667725,1.5667144060134888,-0.3684210479259491,0.9510403275489807,0.18834078311920166,-0.18134716153144836,1.6438673734664917,1.4713375568389893,-0.08022923767566681,-0.41420117020606995,0.5779816508293152,1.9390580654144287,-0.3471074402332306,1.3400503396987915,2.670607089996338,1.2727272510528564,-0.3471074402332306,-0.5526859760284424,0.034146327525377274,-0.4585152864456177,1.0275229215621948,0.5779816508293152,-0.5253549814224243,1.4736841917037964,-0.09695292264223099,0.20057304203510284,-0.37282347679138184,0.46280989050865173,-0.4585152864456177,0.05785122886300087,2.011049747467041,0.1533966213464737,-0.41455891728401184,0.7368420958518982,-0.43523314595222473,2.4076433181762695,0.12844035029411316,1.7692307233810425,-0.3211009204387665,0.29106026887893677,1.6545453071594238,0.7974683046340942,-0.13907285034656525,-0.3684210479259491,0.12844035029411316,0.6673427224159241,1.7288529872894287,1.0275229215621948,-0.4844290614128113,2.397923707962036,0.05785122886300087,-0.08917198330163956,1.8892732858657837,0.7368420958518982,2.74169921875],"default_left":[true,true,true,true,true,true,true,true,true,true,true,true,true,true,true,true,true,true,true,true,true,true,true,true,true,false,false,true,true,true,true,true,true,false,true,true,true,true,true,false,true,true,true,true,false,true,true,true,true,false,true,false,false,true,false,true,true,false,false,false,false,false,false,false,false,false,false,false,false,false,false,false,false,false,false,false,false,false,false,false,false,false,false,false,false,false,false,false,false,false,false,false,false,false,false,false,false],"id":1,"leaf_child_counts":[0,0,0,0,0,0,0,0,0,0,0,0,0,0,0,0,0,0,0,0,0,0,0,0,0,0,0,0,0,0,0,0,0,0,0,0,0,0,0,0,0,0,0,0,0,0,0,0,0,0,0,0,0,0,0,0,0,0,0,0,0,0,0,0,0,0,0,0,0,0,0,0,0,0,0,0,0,0,0,0,0,0,0,0,0,0,0,0,0,0,0,0,0,0,0,0,0],"left_children":[1,3,5,7,9,11,13,15,17,19,21,23,25,27,29,31,33,35,37,39,41,43,45,47,49,-1,-1,51,53,55,57,59,61,-1,63,65,67,69,71,-1,73,75,77,79,-1,81,83,85,87,-1,89,-1,-1,91,-1,93,95,-1,-1,-1,-1,-1,-1,-1,-1,-1,-1,-1,-1,-1,-1,-1,-1,-1,-1,-1,-1,-1,-1,-1,-1,-1,-1,-1,-1,-1,-1,-1,-1,-1,-1,-1,-1,-1,-1,-1,-1],"loss_changes":[527.51220703125,65.401611328125,16.2979736328125,10.23504638671875,13.79489517211914,12.784713745117188,12.8583984375,2.2865371704101562,6.9107866287231445,7.919981479644775,8.681982040405273,9.0513916015625,0.3691059350967407,6.3015336990356445,7.643798828125,1.6039962768554688,3.5945427417755127,3.616671085357666,7.075457572937012,6.898510456085205,6.906502723693848,6.857393264770508,6.159732818603516,10.1353759765625,5.141888618469238,0.0,0.0,1.3304684162139893,7.591886520385742,5.75274658203125,2.9710958003997803,1.1248931884765625,3.3276963233947754,0.0,2.102273941040039,4.775224685668945,1.9937467575073242,1.3486676216125488,3.844724655151367,0.0,4.861664295196533,2.205357551574707,4.158332824707031,6.006317138671875,0.0,7.259908676147461,6.464388847351074,0.2755846381187439,7.587371826171875,0.0,3.686861515045166,0.0,0.0,6.220926284790039,0.0,6.528263092041016,3.201080322265625,0.0,0.0,0.0,0.0,0.0,0.0,0.0,0.0,0.0,0.0,0.0,0.0,0.0,0.0,0.0,0.0,0.0,0.0,0.0,0.0,0.0,0.0,0.0,0.0,0.0,0.0,0.0,0.0,0.0,0.0,0.0,0.0,0.0,0.0,0.0,0.0,0.0,0.0,0.0,0.0],"parents":[2147483647,0,0,1,1,2,2,3,3,4,4,5,5,6,6,7,7,8,8,9,9,10,10,11,11,12,12,13,13,14,14,15,15,16,16,17,17,18,18,19,19,20,20,21,21,22,22,23,23,24,24,27,27,28,28,29,29,30,30,31,31,32,32,34,34,35,35,36,36,37,37,38,38,40,40,41,41,42,42,43,43,45,45,46,46,47,47,48,48,50,50,53,53,55,55,56,56],"right_children":[2,4,6,8,10,12,14,16,18,20,22,24,26,28,30,32,34,36,38,40,42,44,46,48,50,-1,-1,52,54,56,58,60,62,-1,64,66,68,70,72,-1,74,76,78,80,-1,82,84,86,88,-1,90,-1,-1,92,-1,94,96,-1,-1,-1,-1,-1,-1,-1,-1,-1,-1,-1,-1,-1,-1,-1,-1,-1,-1,-1,-1,-1,-1,-1,-1,-1,-1,-1,-1,-1,-1,-1,-1,-1,-1,-1,-1,-1,-1,-1,-1],"split_conditions":[6.5,4.5,1.6167488098144531,3.5,1.3286947011947632,102.0,-0.08446428179740906,3.7525479793548584,3.923076868057251,0.07539999485015869,-4.901488304138184,2.485264301300049,3571.5,-4.940482176607475E-5,69.21499633789062,17.294536590576172,20.0,123.16500091552734,8.270791053771973,-41.66285705566406,0.4524535536766052,92.19428253173828,6.351675033569336,-0.6284999847412109,275.1875,-0.04254143685102463,0.012844035401940346,3430.0,2.918060302734375,1.1776807308197021,23362.5,208.0,32.83438491821289,0.08471336960792542,1943.5,-0.006234999746084213,1.5,1959.0,-5.695178985595703,0.1473684161901474,2.0473241806030273,0.9177839159965515,19.0,69.03407287597656,-0.03684210404753685,1.817460298538208,0.0507500022649765,3378.0,339.010009765625,0.1471337527036667,26.0,-0.041420117020606995,0.05779816582798958,3602.0,-0.03471074625849724,4180.35009765625,286.3800048828125,0.12727272510528564,-0.03471074625849724,-0.05526859685778618,0.0034146327525377274,-0.04585152864456177,0.10275229066610336,0.05779816582798958,-0.05253550037741661,0.1473684161901474,-0.009695292450487614,0.020057303830981255,-0.037282347679138184,0.04628099128603935,-0.04585152864456177,0.0057851229794323444,0.20110498368740082,0.015339662320911884,-0.041455890983343124,0.0736842080950737,-0.04352331534028053,0.2407643347978592,0.012844035401940346,0.17692308127880096,-0.03211009129881859,0.029106026515364647,0.16545453667640686,0.07974683493375778,-0.013907285407185555,-0.03684210404753685,0.012844035401940346,0.06673427671194077,0.17288529872894287,0.10275229066610336,-0.04844290763139725,0.2397923767566681,0.0057851229794323444,-0.00891719851642847,0.18892733752727509,0.0736842080950737,0.274169921875],"split_indices":[48,48,24,48,24,57,161,30,41,36,111,147,0,122,51,25,38,27,28,160,114,151,156,165,75,0,0,0,45,30,29,57,109,0,8,124,49,8,160,0,45,30,56,110,0,44,36,0,27,0,3,0,0,0,0,27,27,0,0,0,0,0,0,0,0,0,0,0,0,0,0,0,0,0,0,0,0,0,0,0,0,0,0,0,0,0,0,0,0,0,0,0,0,0,0,0,0],"sum_hessian":[755.51025390625,577.4694213867188,178.04083251953125,447.1837158203125,130.2857208251953,119.51021575927734,58.530616760253906,364.8979797363281,82.28572082519531,68.81632995605469,61.469390869140625,115.59184265136719,3.918367624282837,11.510205268859863,47.02041244506836,352.408203125,12.48979663848877,72.97959899902344,9.306122779846191,60.73469924926758,8.081633567810059,14.938776969909668,46.530616760253906,107.26531219482422,8.326531410217285,2.693877696990967,1.2244899272918701,3.6734695434570312,7.836735248565674,44.081634521484375,2.9387757778167725,347.5102233886719,4.8979597091674805,2.2040817737579346,10.285715103149414,8.081633567810059,64.89796447753906,5.142857551574707,4.163265705108643,1.7142858505249023,59.02041244506836,4.653061389923096,3.4285717010498047,13.224491119384766,1.7142858505249023,15.673470497131348,30.857145309448242,2.9387757778167725,104.3265380859375,2.2040817737579346,6.1224493980407715,2.4489798545837402,1.2244899272918701,6.367347240447998,1.4693878889083862,7.102041244506836,36.97959518432617,1.4693878889083862,1.4693878889083862,344.3265686035156,3.183673620223999,3.6734695434570312,1.2244899272918701,1.2244899272918701,9.061224937438965,1.7142858505249023,6.367347240447998,6.1224493980407715,58.7755126953125,1.4693878889083862,3.6734695434570312,1.4693878889083862,2.693877696990967,26.938777923583984,32.081634521484375,1.7142858505249023,2.9387757778167725,2.2040817737579346,1.2244899272918701,12.000000953674316,1.2244899272918701,8.816327095031738,6.857143402099609,10.285715103149414,20.571430206298828,1.7142858505249023,1.2244899272918701,9.061224937438965,95.26531219482422,1.2244899272918701,4.8979597091674805,4.8979597091674805,1.4693878889083862,2.2040817737579346,4.8979597091674805,1.7142858505249023,35.26530838012695],"tree_param":{"num_deleted":"0","num_feature":"202","num_nodes":"97","size_leaf_vector":"0"}},{"base_weights":[0.14313845336437225,-0.39042890071868896,0.6413048505783081,-0.4588361084461212,-0.14447522163391113,0.9161882400512695,0.5113765597343445,-0.024263447150588036,-0.47577354311943054,-0.2853766679763794,0.615384578704834,0.8096107840538025,1.716196060180664,0.06947888433933258,0.6291831135749817,-0.42596349120140076,1.4736841917037964,-0.48241618275642395,0.3684210181236267,0.4516128599643707,-0.3307429254055023,1.323782205581665,-0.20771513879299164,0.8919818997383118,-0.2826603353023529,1.991680383682251,-0.3471074402332306,0.3824116885662079,-0.27611395716667175,0.7392363548278809,0.08550802618265152,-0.517320990562439,0.12844035029411316,-0.04307693615555763,-0.49149957299232483,-0.4012738764286041,1.4770641326904297,-0.512099027633667,-0.10342513024806976,0.0725388452410698,2.185365676879883,-0.47547170519828796,0.46280989050865173,1.1284990310668945,0.5510296821594238,-0.5041550993919373,0.5779816508293152,2.1866912841796875,0.12844035029411316,0.6546761989593506,-0.10918544977903366,-0.42944785952568054,0.40433210134506226,0.120152547955513,0.8714224696159363,-0.10157729685306549,1.1886792182922363,-0.47547170519828796,1.0275229215621948,0.0725388452410698,-0.49803435802459717,-0.5666860938072205,0.5779816508293152,0.9032257795333862,-0.26495081186294556,-0.3684210479259491,0.5779816508293152,0.8979591131210327,1.941272258758545,2.09554123878479,0.4212806522846222,2.4303534030914307,0.12844035029411316,0.16106192767620087,1.1947482824325562,1.0275229215621948,-0.338491290807724,0.5779816508293152,-0.5115633606910706,-0.4439024329185486,1.6776858568191528,1.3023254871368408,-0.1536714732646942,1.5897046327590942,0.7010822296142578,-0.35807421803474426,0.307692289352417,2.09554123878479,-0.08917198330163956],"default_left":[true,true,true,true,true,true,true,true,true,true,true,true,true,true,true,true,false,true,false,true,true,true,true,true,true,true,false,true,true,true,true,false,false,true,true,false,false,true,true,true,false,false,false,true,true,false,false,true,false,true,true,true,true,true,true,true,true,false,false,false,false,false,false,false,false,false,false,false,false,false,false,false,false,false,false,false,false,false,false,false,false,false,false,false,false,false,false,false,false],"id":2,"leaf_child_counts":[0,0,0,0,0,0,0,0,0,0,0,0,0,0,0,0,0,0,0,0,0,0,0,0,0,0,0,0,0,0,0,0,0,0,0,0,0,0,0,0,0,0,0,0,0,0,0,0,0,0,0,0,0,0,0,0,0,0,0,0,0,0,0,0,0,0,0,0,0,0,0,0,0,0,0,0,0,0,0,0,0,0,0,0,0,0,0,0,0],"left_children":[1,3,5,7,9,11,13,15,17,19,21,23,25,27,29,31,-1,33,-1,35,37,39,41,43,45,47,-1,49,51,53,55,-1,-1,57,59,-1,-1,61,63,65,-1,-1,-1,67,69,-1,-1,71,-1,73,75,77,79,81,83,85,87,-1,-1,-1,-1,-1,-1,-1,-1,-1,-1,-1,-1,-1,-1,-1,-1,-1,-1,-1,-1,-1,-1,-1,-1,-1,-1,-1,-1,-1,-1,-1,-1],"loss_changes":[201.3348388671875,6.089946746826172,13.517974853515625,2.0922164916992188,8.856650352478027,9.219680786132812,13.917503356933594,7.713362216949463,1.7200736999511719,2.4590749740600586,7.855033874511719,10.301406860351562,8.498233795166016,6.331786155700684,12.598228454589844,0.5760353803634644,0.0,1.0695877075195312,0.0,4.465908527374268,2.6536145210266113,7.519838333129883,1.4548311233520508,7.773063659667969,1.9292346239089966,4.175762176513672,0.0,4.171492099761963,3.088644504547119,14.286445617675781,7.706523895263672,0.0,0.0,3.558957576751709,1.0228195190429688,0.0,0.0,2.4854745864868164,5.18035888671875,1.0908149480819702,0.0,0.0,0.0,9.595016479492188,8.0533447265625,0.0,0.0,5.225009918212891,0.0,5.10123348236084,3.417140007019043,2.221998691558838,6.850615978240967,10.591796875,16.59661865234375,3.5058417320251465,6.454031944274902,0.0,0.0,0.0,0.0,0.0,0.0,0.0,0.0,0.0,0.0,0.0,0.0,0.0,0.0,0.0,0.0,0.0,0.0,0.0,0.0,0.0,0.0,0.0,0.0,0.0,0.0,0.0,0.0,0.0,0.0,0.0,0.0],"parents":[2147483647,0,0,1,1,2,2,3,3,4,4,5,5,6,6,7,7,8,8,9,9,10,10,11,11,12,12,13,13,14,14,15,15,17,17,19,19,20,20,21,21,22,22,23,23,24,24,25,25,27,27,28,28,29,29,30,30,33,33,34,34,37,37,38,38,39,39,43,43,44,44,47,47,49,49,50,50,51,51,52,52,53,53,54,54,55,55,56,56],"right_children":[2,4,6,8,10,12,14,16,18,20,22,24,26,28,30,32,-1,34,-1,36,38,40,42,44,46,48,-1,50,52,54,56,-1,-1,58,60,-1,-1,62,64,66,-1,-1,-1,68,70,-1,-1,72,-1,74,76,78,80,82,84,86,88,-1,-1,-1,-1,-1,-1,-1,-1,-1,-1,-1,-1,-1,-1,-1,-1,-1,-1,-1,-1,-1,-1,-1,-1,-1,-1,-1,-1,-1,-1,-1,-1],"split_conditions":[3.5,2.5,4.5,64.55999755859375,2.8974151611328125,7.123571395874023,-1.7314999103546143,45.35499954223633,1.24714994430542,1.5525641441345215,46.5,28.090999603271484,0.1310800015926361,-0.15049999952316284,33.49325942993164,4372.0,0.1473684161901474,2.5,0.03684210404753685,16.10071563720703,2.417635679244995,47853.0,1983.5,1.5226588249206543,3.557142734527588,257.5,-0.03471074625849724,0.0030357143841683865,1.3373500108718872,2.828571319580078,0.3183000087738037,-0.051732100546360016,0.012844035401940346,1682.155029296875,57.0,-0.04012738913297653,0.14770641922950745,2.312857151031494,198.7550048828125,82.5,0.21853657066822052,-0.047547172755002975,0.04628099128603935,36.78499984741211,-0.6944999694824219,-0.050415512174367905,0.05779816582798958,47.24595642089844,0.012844035401940346,0.08458499610424042,5.5,-0.49269282817840576,0.23225000500679016,18.594715118408203,-1.666669595579151E-5,12.5,0.31055355072021484,-0.047547172755002975,0.10275229066610336,0.007253884803503752,-0.04980343580245972,-0.056668609380722046,0.05779816582798958,0.0903225764632225,-0.026495082303881645,-0.03684210404753685,0.05779816582798958,0.08979590982198715,0.19412723183631897,0.20955412089824677,0.0421280674636364,0.24303534626960754,0.012844035401940346,0.016106193885207176,0.11947482824325562,0.10275229066610336,-0.03384913131594658,0.05779816582798958,-0.051156338304281235,-0.0443902425467968,0.16776858270168304,0.1302325576543808,-0.015367147512733936,0.15897046029567719,0.07010822743177414,-0.035807423293590546,0.0307692289352417,0.20955412089824677,-0.00891719851642847],"split_indices":[48,48,49,27,35,159,167,51,46,45,70,168,125,166,156,0,0,3,0,142,45,10,8,24,32,3,0,161,50,47,46,0,0,21,0,0,0,161,27,3,0,0,0,51,165,0,0,156,0,170,38,163,46,34,122,57,162,0,0,0,0,0,0,0,0,0,0,0,0,0,0,0,0,0,0,0,0,0,0,0,0,0,0,0,0,0,0,0,0],"sum_hessian":[755.51025390625,364.8979797363281,390.6122741699219,284.81634521484375,80.08163452148438,123.42858123779297,267.1836853027344,10.775510787963867,274.04083251953125,68.08163452148438,12.000000953674316,110.69388580322266,12.734694480895996,56.571434020996094,210.6122589111328,9.061224937438965,1.7142858505249023,272.3265380859375,1.7142858505249023,3.4285717010498047,64.65306854248047,6.1224493980407715,5.877551555633545,103.10205078125,7.591837406158447,11.26530647277832,1.4693878889083862,29.63265609741211,26.938777923583984,174.85716247558594,35.755104064941406,7.836735248565674,1.2244899272918701,5.63265323638916,266.69390869140625,2.2040817737579346,1.2244899272918701,35.26530838012695,29.38775634765625,2.9387757778167725,3.183673620223999,4.408163547515869,1.4693878889083862,59.51020812988281,43.59183883666992,6.367347240447998,1.2244899272918701,10.040817260742188,1.2244899272918701,18.85714340209961,10.775510787963867,22.285715103149414,4.653061389923096,31.10204315185547,143.75511169433594,31.346940994262695,4.408163547515869,4.408163547515869,1.2244899272918701,2.9387757778167725,263.755126953125,34.04081726074219,1.2244899272918701,3.4285717010498047,25.959184646606445,1.7142858505249023,1.2244899272918701,48.000003814697266,11.510205268859863,2.2040817737579346,41.38775634765625,8.816327095031738,1.2244899272918701,10.53061294555664,8.326531410217285,1.2244899272918701,9.551020622253418,1.2244899272918701,21.06122589111328,3.183673620223999,1.4693878889083862,5.142857551574707,25.959184646606445,25.959184646606445,117.79592895507812,19.346940994262695,12.000000953674316,2.2040817737579346,2.2040817737579346],"tree_param":{"num_deleted":"0","num_feature":"202","num_nodes":"89","size_leaf_vector":"0"}},{"base_weights":[0.7564811110496521,1.3613678216934204,-0.12238571047782898,-0.5734120011329651,1.6492758989334106,0.2437431663274765,-0.39017438888549805,2.121321439743042,1.1591697931289673,0.6926154494285583,-0.09000805020332336,-0.40571558475494385,1.0275229215621948,2.4138829708099365,0.6579416394233704,1.394945740699768,0.5135651230812073,0.2468116730451584,1.0750852823257446,-0.27140116691589355,0.3152081370353699,-0.4293818771839142,0.3255813717842102,2.465228796005249,0.44905656576156616,0.24891583621501923,1.4194107055664062,1.61070716381073,0.4306076169013977,0.8852559328079224,-0.08708135038614273,-0.511335015296936,0.5401014685630798,1.5693672895431519,0.2626427114009857,0.1092611625790596,-0.4796219766139984,0.6267338991165161,-0.2909930646419525,-0.45009028911590576,0.5121951103210449,1.0355029106140137,-0.4254143536090851,2.5202620029449463,1.1638140678405762,-0.4254143536090851,1.4736841917037964,0.027750229462981224,1.3419688940048218,2.0024449825286865,-1.3459112935265694E-8,1.7961071729660034,1.0284359455108643,1.0797226428985596,-0.06086957827210426,1.6153844594955444,0.39302995800971985,-0.4187256097793579,0.7107691764831543,1.6279069185256958,0.057298753410577774,-0.08917198330163956,1.8007564544677734,-0.13861386477947235,1.4713375568389893,-0.09026964753866196,1.1592355966567993,-0.5343848466873169,0.222929909825325,0.8683812022209167,-0.4254143536090851,0.5779816508293152,-0.5067024230957031,-0.49640488624572754,-0.17208565771579742,1.2727272510528564,-0.3684210479259491,1.4770641326904297,0.12844035029411316],"default_left":[true,true,true,false,true,true,true,true,true,true,true,true,false,true,true,true,true,true,true,true,true,true,true,true,true,true,true,true,true,true,true,false,true,true,true,true,true,true,true,true,true,true,false,false,false,false,false,false,false,false,false,false,false,false,false,false,false,false,false,false,false,false,false,false,false,false,false,false,false,false,false,false,false,false,false,false,false,false,false],"id":3,"leaf_child_counts":[0,0,0,0,0,0,0,0,0,0,0,0,0,0,0,0,0,0,0,0,0,0,0,0,0,0,0,0,0,0,0,0,0,0,0,0,0,0,0,0,0,0,0,0,0,0,0,0,0,0,0,0,0,0,0,0,0,0,0,0,0,0,0,0,0,0,0,0,0,0,0,0,0,0,0,0,0,0,0],"left_children":[1,3,5,-1,7,9,11,13,15,17,19,21,-1,23,25,27,29,31,33,35,37,39,41,43,45,47,49,51,53,55,57,-1,59,61,63,65,67,69,71,73,75,77,-1,-1,-1,-1,-1,-1,-1,-1,-1,-1,-1,-1,-1,-1,-1,-1,-1,-1,-1,-1,-1,-1,-1,-1,-1,-1,-1,-1,-1,-1,-1,-1,-1,-1,-1,-1,-1],"loss_changes":[402.3387145996094,250.60137939453125,30.423076629638672,0.0,87.858154296875,19.73047637939453,4.361637115478516,83.03271484375,28.773529052734375,9.300420761108398,5.685308933258057,3.2172794342041016,0.0,15.4732666015625,10.331687927246094,28.7117919921875,12.000717163085938,6.3251824378967285,11.594112396240234,4.266221523284912,4.718564510345459,3.597421646118164,3.7155704498291016,8.5218505859375,5.472679138183594,5.651185989379883,9.745000839233398,10.58062744140625,8.744510650634766,11.25425910949707,5.940671920776367,0.0,10.464223861694336,7.217212677001953,6.271356582641602,4.213453769683838,1.448439121246338,4.48410177230835,1.949275016784668,2.0968704223632812,3.270860195159912,1.1916835308074951,0.0,0.0,0.0,0.0,0.0,0.0,0.0,0.0,0.0,0.0,0.0,0.0,0.0,0.0,0.0,0.0,0.0,0.0,0.0,0.0,0.0,0.0,0.0,0.0,0.0,0.0,0.0,0.0,0.0,0.0,0.0,0.0,0.0,0.0,0.0,0.0,0.0],"parents":[2147483647,0,0,1,1,2,2,4,4,5,5,6,6,7,7,8,8,9,9,10,10,11,11,13,13,14,14,15,15,16,16,17,17,18,18,19,19,20,20,21,21,22,22,23,23,24,24,25,25,26,26,27,27,28,28,29,29,30,30,32,32,33,33,34,34,35,35,36,36,37,37,38,38,39,39,40,40,41,41],"right_children":[2,4,6,-1,8,10,12,14,16,18,20,22,-1,24,26,28,30,32,34,36,38,40,42,44,46,48,50,52,54,56,58,-1,60,62,64,66,68,70,72,74,76,78,-1,-1,-1,-1,-1,-1,-1,-1,-1,-1,-1,-1,-1,-1,-1,-1,-1,-1,-1,-1,-1,-1,-1,-1,-1,-1,-1,-1,-1,-1,-1,-1,-1,-1,-1,-1,-1],"split_conditions":[4.5,0.0,6.5,-0.05734119936823845,4.5,1.1865947246551514,2.4142136573791504,3.5,7.5,6.5506391525268555,0.6312500238418579,87.03634643554688,0.10275229066610336,0.49199992418289185,0.19635000824928284,1.4717583656311035,0.006000000052154064,20202.5,2195.39990234375,5.882781982421875,31.813133239746094,284.0,0.06488987803459167,3.88444447517395,7.999541759490967,9.998332977294922,2011.22998046875,802.030029296875,-2.299999952316284,-3.9999998989515007E-5,10.022310256958008,-0.05113350227475166,2.1294686794281006,14099.5,4.046964168548584,70.5,9.110669312E9,0.426563024520874,2.7913546562194824,0.4573317766189575,2.037090301513672,8.169096704E9,-0.04254143685102463,0.25202620029449463,0.11638140678405762,-0.04254143685102463,0.1473684161901474,0.002775022992864251,0.13419689238071442,0.2002445012331009,-1.3459112713221089E-9,0.1796107143163681,0.10284359753131866,0.10797226428985596,-0.006086958106607199,0.16153845191001892,0.039302997291088104,-0.04187256097793579,0.07107692211866379,0.1627907007932663,0.005729875527322292,-0.00891719851642847,0.18007564544677734,-0.01386138703674078,0.1471337527036667,-0.009026965126395226,0.11592356115579605,-0.05343848466873169,0.02229299210011959,0.08683811873197556,-0.04254143685102463,0.05779816582798958,-0.05067024379968643,-0.049640487879514694,-0.017208566889166832,0.12727272510528564,-0.03684210404753685,0.14770641922950745,0.012844035401940346],"split_indices":[48,48,48,0,49,24,132,48,49,31,158,110,0,17,46,24,168,29,21,31,150,173,120,45,150,44,21,21,172,124,22,0,35,20,159,38,1,16,32,17,114,1,0,0,0,0,0,0,0,0,0,0,0,0,0,0,0,0,0,0,0,0,0,0,0,0,0,0,0,0,0,0,0,0,0,0,0,0,0],"sum_hessian":[755.51025390625,447.1837158203125,308.3265380859375,57.795921325683594,389.3877868652344,130.2857208251953,178.04083251953125,196.653076171875,192.73471069335938,55.10204315185547,75.18367767333984,176.81634521484375,1.2244899272918701,163.34695434570312,33.30612564086914,140.3265380859375,52.40816879272461,26.204084396362305,28.897960662841797,52.16326904296875,23.020410537719727,171.67347717285156,5.142857551574707,158.93878173828125,4.408163547515869,22.53061294555664,10.775510787963867,114.1224594116211,26.204084396362305,32.081634521484375,20.3265323638916,7.102041244506836,19.102041244506836,17.38775634765625,11.510205268859863,18.612245559692383,33.551021575927734,15.183674812316895,7.836735248565674,168.48980712890625,3.183673620223999,2.4489798545837402,2.693877696990967,151.5918426513672,7.3469390869140625,2.693877696990967,1.7142858505249023,19.591838836669922,2.9387757778167725,7.3469390869140625,3.4285717010498047,84.97959899902344,29.142858505249023,10.775510787963867,15.428572654724121,12.000000953674316,20.081634521484375,14.693878173828125,5.63265323638916,5.142857551574707,13.959184646606445,2.2040817737579346,15.183674812316895,9.306122779846191,2.2040817737579346,16.408164978027344,2.2040817737579346,31.346940994262695,2.2040817737579346,12.48979663848877,2.693877696990967,1.2244899272918701,6.612245559692383,143.75511169433594,24.734695434570312,1.4693878889083862,1.7142858505249023,1.2244899272918701,1.2244899272918701],"tree_param":{"num_deleted":"0","num_feature":"202","num_nodes":"79","size_leaf_vector":"0"}},{"base_weights":[-0.43054842948913574,-0.5270790457725525,-0.3392568528652191,0.3684210181236267,-0.5323059558868408,0.2543962299823761,-0.3658961057662964,-0.5424087643623352,-0.06466513872146606,0.5823816657066345,-0.4844290614128113,-0.03644109517335892,-0.40745052695274353,0.02422143705189228,-0.5503745079040527,0.7455620765686035,-0.49201276898384094,-0.08022923767566681,1.2300318479537964,-0.2825112044811249,0.6056572198867798,0.28150132298469543,-0.4222666621208191,0.8677685856819153,-0.4516128897666931,-0.04307693615555763,-0.558512806892395,-0.3211009204387665,1.4770641326904297,1.0275229215621948,-0.4844290614128113,-0.3471074402332306,1.7717841863632202,-0.4234875440597534,0.7512194514274597,-0.06231455132365227,1.2300318479537964,-0.26141080260276794,0.928176760673523,-0.4306541681289673,0.7368420958518982,1.0275229215621948,-0.47547170519828796,-0.5613266229629517,0.12844035029411316,2.4852070808410645,0.05785122886300087,-0.5604483485221863,0.5121951103210449,1.4736841917037964,-0.3471074402332306,-0.4801444113254547,1.0275229215621948,-0.3211009204387665,1.660079002380371,0.12844035029411316,-0.4254143536090851,-0.3211009204387665,1.6776858568191528,-0.4436272978782654,0.25846150517463684],"default_left":[true,true,true,false,true,true,true,true,true,true,false,true,true,true,true,true,false,true,true,true,true,true,true,false,false,true,true,false,false,false,false,false,true,true,true,true,true,true,true,true,false,false,false,false,false,false,false,false,false,false,false,false,false,false,false,false,false,false,false,false,false],"id":4,"leaf_child_counts":[0,0,0,0,0,0,0,0,0,0,0,0,0,0,0,0,0,0,0,0,0,0,0,0,0,0,0,0,0,0,0,0,0,0,0,0,0,0,0,0,0,0,0,0,0,0,0,0,0,0,0,0,0,0,0,0,0,0,0,0,0],"left_children":[1,3,5,-1,7,9,11,13,15,17,-1,19,21,23,25,27,-1,29,31,33,35,37,39,-1,-1,41,43,-1,-1,-1,-1,-1,45,47,49,51,53,55,57,59,-1,-1,-1,-1,-1,-1,-1,-1,-1,-1,-1,-1,-1,-1,-1,-1,-1,-1,-1,-1,-1],"loss_changes":[6.487884521484375,1.9087753295898438,6.286224365234375,0.0,1.6855087280273438,4.500537872314453,5.121814727783203,1.6217498779296875,3.4265341758728027,5.467315196990967,0.0,6.984503746032715,3.5188369750976562,2.7592697143554688,1.426910400390625,3.1654090881347656,0.0,3.686861515045166,6.072817802429199,4.960723400115967,5.192075729370117,2.9152028560638428,3.4912681579589844,0.0,0.0,3.558957576751709,0.74053955078125,0.0,0.0,0.0,0.0,0.0,5.870205879211426,3.9616169929504395,3.831281900405884,3.625166654586792,4.794069290161133,0.3691059350967407,3.997450590133667,3.017963409423828,0.0,0.0,0.0,0.0,0.0,0.0,0.0,0.0,0.0,0.0,0.0,0.0,0.0,0.0,0.0,0.0,0.0,0.0,0.0,0.0,0.0],"parents":[2147483647,0,0,1,1,2,2,4,4,5,5,6,6,7,7,8,8,9,9,11,11,12,12,13,13,14,14,15,15,17,17,18,18,19,19,20,20,21,21,22,22,25,25,26,26,32,32,33,33,34,34,35,35,36,36,37,37,38,38,39,39],"right_children":[2,4,6,-1,8,10,12,14,16,18,-1,20,22,24,26,28,-1,30,32,34,36,38,40,-1,-1,42,44,-1,-1,-1,-1,-1,46,48,50,52,54,56,58,60,-1,-1,-1,-1,-1,-1,-1,-1,-1,-1,-1,-1,-1,-1,-1,-1,-1,-1,-1,-1,-1],"split_conditions":[3.5,-3.081233501434326,-28.049999237060547,0.03684210404753685,0.550222635269165,0.0734499990940094,0.09019999951124191,0.1269097775220871,1.1957042217254639,-0.5342857241630554,-0.04844290763139725,4.071428298950195,-3.1471383571624756,21004.5,-35.773033142089844,4.202987776E9,-0.049201276153326035,14.5,1.181664228439331,68.5,6.726187712047249E-5,54.24092102050781,79.5,0.08677686005830765,-0.04516128823161125,12.26650333404541,5433.0,-0.03211009129881859,0.14770641922950745,0.10275229066610336,-0.04844290763139725,-0.03471074625849724,3.5,0.26749998331069946,10.984622955322266,5.967957496643066,-0.8634999990463257,1653.5,-4.4010233879089355,51435.0,0.0736842080950737,0.10275229066610336,-0.047547172755002975,-0.056132663041353226,0.012844035401940346,0.24852071702480316,0.0057851229794323444,-0.05604483559727669,0.05121951177716255,0.1473684161901474,-0.03471074625849724,-0.04801444336771965,0.10275229066610336,-0.03211009129881859,0.1660079061985016,0.012844035401940346,-0.04254143685102463,-0.03211009129881859,0.16776858270168304,-0.04436273127794266,0.025846151635050774],"split_indices":[48,128,172,0,123,36,46,16,119,158,0,164,124,29,159,1,0,38,146,56,120,110,164,0,0,156,0,0,0,0,0,0,81,124,22,154,166,0,125,20,0,0,0,0,0,0,0,0,0,0,0,0,0,0,0,0,0,0,0,0,0],"sum_hessian":[755.51025390625,364.8979797363281,390.6122741699219,1.7142858505249023,363.1836853027344,16.408164978027344,374.2041015625,355.3469543457031,7.836735248565674,11.510205268859863,4.8979597091674805,42.12245178222656,332.0816650390625,4.8979597091674805,350.4490051269531,2.4489798545837402,5.387755393981934,6.1224493980407715,5.387755393981934,30.857145309448242,11.26530647277832,6.612245559692383,325.46942138671875,1.4693878889083862,3.4285717010498047,5.63265323638916,344.81634521484375,1.2244899272918701,1.2244899272918701,1.2244899272918701,4.8979597091674805,1.4693878889083862,3.918367624282837,27.673471450805664,3.183673620223999,5.877551555633545,5.387755393981934,3.918367624282837,2.693877696990967,323.755126953125,1.7142858505249023,1.2244899272918701,4.408163547515869,343.59185791015625,1.2244899272918701,2.4489798545837402,1.4693878889083862,24.489797592163086,3.183673620223999,1.7142858505249023,1.4693878889083862,4.653061389923096,1.2244899272918701,1.2244899272918701,4.163265705108643,1.2244899272918701,2.693877696990967,1.2244899272918701,1.4693878889083862,318.1224670410156,5.63265323638916],"tree_param":{"num_deleted":"0","num_feature":"202","num_nodes":"61","size_leaf_vector":"0"}},{"base_weights":[-0.22037282586097717,-0.4419889450073242,-0.1504124104976654,-0.45215120911598206,0.5779816508293152,-0.045559898018836975,-0.41474366188049316,0.222929909825325,-0.4617860019207001,-0.06779320538043976,0.8316830992698669,-0.43194669485092163,1.0275229215621948,0.02422143705189228,-0.4757120907306671,-0.16160844266414642,0.11335195600986481,-0.05809129774570465,1.3865814208984375,-0.22448980808258057,-0.5170383453369141,-0.4585152864456177,1.0275229215621948,-0.29416343569755554,-0.5047750473022461,-0.178513303399086,0.825327455997467,-0.05537702143192291,0.35538071393966675,-0.4254143536090851,0.5779816508293152,1.8951964378356934,-1.097980284470168E-8,-0.3993154466152191,0.23098993301391602,-0.5335637331008911,0.222929909825325,0.6275861859321594,-0.3944491147994995,-0.5228090286254883,-0.04307693615555763,-0.11361707001924515,-0.467063307762146,-0.38620689511299133,1.8421051502227783,-0.3147183954715729,0.2226148098707199,1.3916913270950317,0.2092466801404953,0.12844035029411316,2.4852070808410645,-0.4990006685256958,0.1627906709909439,1.0415223836898804,-0.30634573101997375,-0.5680519938468933,-0.10447762161493301],"default_left":[true,true,true,true,false,true,true,false,true,true,true,true,false,true,true,true,true,true,true,true,true,false,false,true,true,true,true,true,true,false,false,true,false,true,true,true,false,false,false,false,false,false,false,false,false,false,false,false,false,false,false,false,false,false,false,false,false],"id":5,"leaf_child_counts":[0,0,0,0,0,0,0,0,0,0,0,0,0,0,0,0,0,0,0,0,0,0,0,0,0,0,0,0,0,0,0,0,0,0,0,0,0,0,0,0,0,0,0,0,0,0,0,0,0,0,0,0,0,0,0,0,0],"left_children":[1,3,5,7,-1,9,11,-1,13,15,17,19,-1,21,23,25,27,29,31,33,35,-1,-1,37,39,41,43,45,47,-1,-1,49,-1,51,53,55,-1,-1,-1,-1,-1,-1,-1,-1,-1,-1,-1,-1,-1,-1,-1,-1,-1,-1,-1,-1,-1],"loss_changes":[11.662723541259766,2.137439727783203,15.95954418182373,1.2722549438476562,0.0,8.129053115844727,4.5032806396484375,0.0,1.2133560180664062,6.894024848937988,5.1690354347229,2.750537872314453,0.0,3.3276963233947754,0.7625999450683594,4.60128116607666,5.68105936050415,1.3950300216674805,4.504876136779785,3.9940857887268066,1.5177135467529297,0.0,0.0,2.6716980934143066,1.2051734924316406,4.877171516418457,6.468500137329102,6.021559238433838,8.353250503540039,0.0,0.0,4.552446365356445,0.0,2.0858654975891113,6.514230251312256,1.6007919311523438,0.0,0.0,0.0,0.0,0.0,0.0,0.0,0.0,0.0,0.0,0.0,0.0,0.0,0.0,0.0,0.0,0.0,0.0,0.0,0.0,0.0],"parents":[2147483647,0,0,1,1,2,2,3,3,5,5,6,6,8,8,9,9,10,10,11,11,13,13,14,14,15,15,16,16,17,17,18,18,19,19,20,20,23,23,24,24,25,25,26,26,27,27,28,28,31,31,33,33,34,34,35,35],"right_children":[2,4,6,8,-1,10,12,-1,14,16,18,20,-1,22,24,26,28,30,32,34,36,-1,-1,38,40,42,44,46,48,-1,-1,50,-1,52,54,56,-1,-1,-1,-1,-1,-1,-1,-1,-1,-1,-1,-1,-1,-1,-1,-1,-1,-1,-1,-1,-1],"split_conditions":[2.5,2.611046075820923,6.5,-36.462501525878906,0.05779816582798958,242.0,1106.0335693359375,0.02229299210011959,543.5,6.5,0.03379761800169945,36.5,0.10275229066610336,10.211111068725586,4.372419357299805,8.400840759277344,1.200156807899475,0.426563024520874,1583.6300048828125,1.3499999046325684,1.325244665145874,-0.04585152864456177,0.10275229066610336,1.695033073425293,21.5,0.073392853140831,0.386549711227417,3.049450635910034,-0.36599498987197876,-0.04254143685102463,0.05779816582798958,-0.09577500075101852,-1.0979802622657076E-9,46.62999725341797,-0.2053571343421936,0.9254617691040039,0.02229299210011959,0.06275861710309982,-0.03944491222500801,-0.05228090286254883,-0.004307693801820278,-0.011361707001924515,-0.04670633003115654,-0.03862069174647331,0.18421052396297455,-0.03147184103727341,0.02226148173213005,0.1391691416501999,0.02092466875910759,0.012844035401940346,0.24852071702480316,-0.04990006610751152,0.01627906784415245,0.10415223985910416,-0.030634572729468346,-0.05680520087480545,-0.010447761975228786],"split_indices":[49,123,48,158,0,173,144,0,26,49,119,38,0,47,109,131,24,16,21,172,163,0,0,39,58,161,15,32,124,0,0,170,0,51,159,117,0,0,0,0,0,0,0,0,0,0,0,0,0,0,0,0,0,0,0,0,0],"sum_hessian":[755.51025390625,180.00001525878906,575.51025390625,178.77552795410156,1.2244899272918701,412.8979797363281,162.6122589111328,2.2040817737579346,176.57144165039062,403.59185791015625,9.306122779846191,161.3877716064453,1.2244899272918701,4.8979597091674805,171.67347717285156,265.9591979980469,137.63265991210938,3.918367624282837,5.387755393981934,48.000003814697266,113.38776397705078,3.6734695434570312,1.2244899272918701,25.224491119384766,146.44898986816406,262.2857360839844,3.6734695434570312,81.551025390625,56.08163833618164,2.693877696990967,1.2244899272918701,3.6734695434570312,1.7142858505249023,34.7755126953125,13.224491119384766,111.18367767333984,2.2040817737579346,1.9591838121414185,23.265308380126953,140.8163299560547,5.63265323638916,215.26531982421875,47.02041244506836,1.9591838121414185,1.7142858505249023,42.12245178222656,39.42857360839844,5.877551555633545,50.20408630371094,1.2244899272918701,2.4489798545837402,29.63265609741211,5.142857551574707,4.8979597091674805,8.326531410217285,102.61225128173828,8.571429252624512],"tree_param":{"num_deleted":"0","num_feature":"202","num_nodes":"57","size_leaf_vector":"0"}},{"base_weights":[-0.17146404087543488,-0.4167011082172394,0.034679196774959564,-0.4323517084121704,0.7551866769790649,0.6849005222320557,-0.3164142668247223,-0.5163558125495911,-0.2824701964855194,1.4713375568389893,-0.3684210479259491,0.3143005073070526,1.1088476181030273,-0.05064680054783821,-0.45509329438209534,-0.5320138335227966,-0.21696574985980988,-0.38628003001213074,0.03615233674645424,0.044007837772369385,0.8098746538162231,1.393763780593872,0.4739249348640442,-0.31349828839302063,0.5434014797210693,-0.5198490619659424,-0.23526546359062195,-0.5408028960227966,-0.10566038638353348,0.6275861859321594,-0.43326884508132935,-0.42457231879234314,0.7455620765686035,-0.26105812191963196,0.802247166633606,-0.0488305427134037,1.4713375568389893,-0.06466513872146606,1.1582733392715454,0.6992230415344238,1.793969750404358,0.9083214998245239,-0.2909930646419525,1.0275229215621948,-0.3552505671977997,0.05827261134982109,1.4138612747192383,-0.5338345766067505,0.222929909825325,0.39293137192726135,-0.41455891728401184,-0.545482337474823,0.05785122886300087,0.5779816508293152,-0.4439024329185486,0.12844035029411316,-0.5207877159118652,-0.5039187073707581,-0.15837104618549347,1.0275229215621948,0.12844035029411316,-0.3708609342575073,0.6275861859321594,-0.2048780471086502,1.3806227445602417,0.6646884083747864,-0.1596091240644455,0.6574585437774658,-0.4883720874786377,0.5466892719268799,1.8591222763061523,0.015317270532250404,1.2636916637420654,-0.3471074402332306,1.9235426187515259,1.249566674232483,-0.4254143536090851,-0.5067024230957031,0.5779816508293152,-0.4077209532260895,0.39737987518310547,1.0880827903747559,-0.1884945034980774,-0.2048780471086502,2.166188955307007,-0.08300396054983139,-0.5477585792541504,1.926605463027954,-0.04988124966621399,0.3867402970790863,-0.498320996761322],"default_left":[true,true,true,true,true,true,true,true,true,false,false,true,true,true,true,true,true,true,true,true,true,true,true,true,true,true,true,true,true,false,true,true,true,true,true,true,false,true,true,true,true,true,true,false,true,true,true,true,false,true,true,false,false,false,false,false,false,false,false,false,false,false,false,false,false,false,false,false,false,false,false,false,false,false,false,false,false,false,false,false,false,false,false,false,false,false,false,false,false,false,false],"id":6,"leaf_child_counts":[0,0,0,0,0,0,0,0,0,0,0,0,0,0,0,0,0,0,0,0,0,0,0,0,0,0,0,0,0,0,0,0,0,0,0,0,0,0,0,0,0,0,0,0,0,0,0,0,0,0,0,0,0,0,0,0,0,0,0,0,0,0,0,0,0,0,0,0,0,0,0,0,0,0,0,0,0,0,0,0,0,0,0,0,0,0,0,0,0,0,0],"left_children":[1,3,5,7,9,11,13,15,17,-1,-1,19,21,23,25,27,29,31,33,35,37,39,41,43,45,47,49,51,53,-1,55,57,59,61,63,65,-1,67,69,71,73,75,77,-1,79,81,83,85,-1,87,89,-1,-1,-1,-1,-1,-1,-1,-1,-1,-1,-1,-1,-1,-1,-1,-1,-1,-1,-1,-1,-1,-1,-1,-1,-1,-1,-1,-1,-1,-1,-1,-1,-1,-1,-1,-1,-1,-1,-1,-1],"loss_changes":[38.2590446472168,6.664539337158203,94.25759887695312,4.155784606933594,4.499747276306152,22.39466094970703,9.861225128173828,0.9052810668945312,4.145784378051758,0.0,0.0,10.497209548950195,11.481895446777344,14.70472526550293,2.384532928466797,0.7156333923339844,2.557267904281616,4.403850555419922,7.407269477844238,6.9543046951293945,8.51290512084961,11.480690002441406,7.676144123077393,4.013564109802246,12.129408836364746,1.523529052734375,4.8819260597229,0.5969123840332031,1.5071321725845337,0.0,0.5855799913406372,1.8604106903076172,0.4681612253189087,2.528761863708496,5.572880268096924,4.037250995635986,0.0,3.0248498916625977,7.494968414306641,7.079113960266113,8.554496765136719,7.117049217224121,1.949275016784668,0.0,2.687014579772949,5.189026355743408,12.994834899902344,0.7894248962402344,0.0,6.762665748596191,2.4131112098693848,0.0,0.0,0.0,0.0,0.0,0.0,0.0,0.0,0.0,0.0,0.0,0.0,0.0,0.0,0.0,0.0,0.0,0.0,0.0,0.0,0.0,0.0,0.0,0.0,0.0,0.0,0.0,0.0,0.0,0.0,0.0,0.0,0.0,0.0,0.0,0.0,0.0,0.0,0.0,0.0],"parents":[2147483647,0,0,1,1,2,2,3,3,4,4,5,5,6,6,7,7,8,8,11,11,12,12,13,13,14,14,15,15,16,16,17,17,18,18,19,19,20,20,21,21,22,22,23,23,24,24,25,25,26,26,27,27,28,28,30,30,31,31,32,32,33,33,34,34,35,35,37,37,38,38,39,39,40,40,41,41,42,42,44,44,45,45,46,46,47,47,49,49,50,50],"right_children":[2,4,6,8,10,12,14,16,18,-1,-1,20,22,24,26,28,30,32,34,36,38,40,42,44,46,48,50,52,54,-1,56,58,60,62,64,66,-1,68,70,72,74,76,78,-1,80,82,84,86,-1,88,90,-1,-1,-1,-1,-1,-1,-1,-1,-1,-1,-1,-1,-1,-1,-1,-1,-1,-1,-1,-1,-1,-1,-1,-1,-1,-1,-1,-1,-1,-1,-1,-1,-1,-1,-1,-1,-1,-1,-1,-1],"split_conditions":[4.5,1.5894356966018677,3.5,2.8694233894348145,23.588306427001953,6.5,5.5,0.4848061800003052,2.597297430038452,0.1471337527036667,-0.03684210404753685,0.41611480712890625,7.058857984E9,7.5,8.5,25.328105926513672,0.21462476253509521,308.778564453125,4.35338020324707,11.80555534362793,477.1500244140625,2.0302040576934814,0.3989596664905548,-2.587526798248291,50496.0,61.107322692871094,-0.16426964104175568,2822.0,21.5,0.06275861710309982,967.0,3.5,3.5,45591.0,1.5,0.5185922384262085,0.1471337527036667,0.4391487240791321,2.292980909347534,18545.5,-8.543499946594238,3.5,52273.5,0.10275229066610336,15.84444808959961,0.0,-0.003076785709708929,-36.04999923706055,0.02229299210011959,3.2775919437408447,42.0,-0.0545482337474823,0.0057851229794323444,0.05779816582798958,-0.0443902425467968,0.012844035401940346,-0.05207877233624458,-0.050391871482133865,-0.015837104991078377,0.10275229066610336,0.012844035401940346,-0.03708609566092491,0.06275861710309982,-0.02048780582845211,0.1380622833967209,0.06646884232759476,-0.01596091315150261,0.06574585288763046,-0.04883721098303795,0.05466892942786217,0.18591223657131195,0.001531727029941976,0.1263691633939743,-0.03471074625849724,0.1923542618751526,0.12495666742324829,-0.04254143685102463,-0.05067024379968643,0.05779816582798958,-0.04077209532260895,0.03973798826336861,0.10880827903747559,-0.0188494510948658,-0.02048780582845211,0.21661889553070068,-0.008300396613776684,-0.05477586016058922,0.19266055524349213,-0.004988125059753656,0.03867403045296669,-0.04983210191130638],"split_indices":[49,163,48,45,146,49,48,17,39,0,0,17,1,49,49,44,16,142,154,41,27,45,17,162,10,159,162,75,3,0,0,49,11,20,49,30,0,17,35,20,166,81,10,0,25,70,120,172,0,40,201,0,0,0,0,0,0,0,0,0,0,0,0,0,0,0,0,0,0,0,0,0,0,0,0,0,0,0,0,0,0,0,0,0,0,0,0,0,0,0,0],"sum_hessian":[755.51025390625,344.5714416503906,410.9388122558594,340.653076171875,3.918367624282837,143.75511169433594,267.1836853027344,216.73471069335938,123.91837310791016,2.2040817737579346,1.7142858505249023,77.63265991210938,66.12245178222656,92.0816421508789,175.10205078125,205.22450256347656,11.510205268859863,93.3061294555664,30.612247467041016,50.938777923583984,26.693880081176758,44.81632995605469,21.306123733520508,64.16326904296875,27.91836929321289,134.20408630371094,40.8979606628418,200.81634521484375,4.408163547515869,1.9591838121414185,9.551020622253418,90.85714721679688,2.4489798545837402,22.53061294555664,8.081633567810059,48.73469543457031,2.2040817737579346,7.836735248565674,18.85714340209961,17.38775634765625,27.428573608398438,13.469388961791992,7.836735248565674,1.2244899272918701,62.93878173828125,18.612245559692383,9.306122779846191,132.00001525878906,2.2040817737579346,8.816327095031738,32.081634521484375,199.34695434570312,1.4693878889083862,1.2244899272918701,3.183673620223999,1.2244899272918701,8.326531410217285,69.3061294555664,21.551021575927734,1.2244899272918701,1.2244899272918701,20.571430206298828,1.9591838121414185,3.183673620223999,4.8979597091674805,5.877551555633545,42.857147216796875,2.693877696990967,5.142857551574707,11.020408630371094,7.836735248565674,8.326531410217285,9.061224937438965,1.4693878889083862,25.959184646606445,10.775510787963867,2.693877696990967,6.612245559692383,1.2244899272918701,59.26531219482422,3.6734695434570312,2.9387757778167725,15.673470497131348,3.183673620223999,6.1224493980407715,4.163265705108643,127.83674621582031,1.2244899272918701,7.591837406158447,2.693877696990967,29.38775634765625],"tree_param":{"num_deleted":"0","num_feature":"202","num_nodes":"91","size_leaf_vector":"0"}},{"base_weights":[3.11040691,-0.0,3.11040691,-0.0,3.11040691,-0.0,3.11040691,-0.0,3.11040691,-0.0,3.11040691,-0.0,3.11040691],"categories":[],"categories_nodes":[],"categories_segments":[],"categories_sizes":[],"default_left":[1,0,1,0,1,0,1,0,1,0,1,0,0],"id":7,"left_children":[1,-1,3,-1,5,-1,7,-1,9,-1,11,-1,-1],"loss_changes":[326.22217089,0.0,326.22217089,0.0,326.22217089,0.0,326.22217089,0.0,326.22217089,0.0,326.22217089,0.0,0.0],"parents":[2147483647,0,0,2,2,4,4,6,6,8,8,10,10],"right_children":[2,-1,4,-1,6,-1,8,-1,10,-1,12,-1,-1],"split_conditions":[0.39611238,-0.0,0.39611238,-0.0,0.39611238,-0.0,0.39611238,-0.0,0.39611238,-0.0,0.39611238,-0.0,0.31104069],"split_indices":[18,0,18,0,18,0,18,0,18,0,18,0,0],"split_type":[0,0,0,0,0,0,0,0,0,0,0,0,0],"sum_hessian":[432.90625,0.0,432.90625,0.0,432.90625,0.0,432.90625,0.0,432.90625,0.0,432.90625,0.0,432.90625],"tree_param":{"num_deleted":"0","num_feature":"202","num_nodes":"13","size_leaf_vector":"0"}},{"base_weights":[-0.2626897394657135,2.4868433475494385,-0.5769320726394653],"default_left":[true,false,false],"id":8,"leaf_child_counts":[0,0,0],"left_children":[1,-1,-1],"loss_changes":[640.6571044921875,0.0,0.0],"parents":[2147483647,0,0],"right_children":[2,-1,-1],"split_conditions":[0.0,0.2486843317747116,-0.05769320949912071],"split_indices":[48,0,0],"sum_hessian":[738.8239135742188,75.06983947753906,663.7540283203125],"tree_param":{"num_deleted":"0","num_feature":"202","num_nodes":"3","size_leaf_vector":"0"}},{"base_weights":[0.17959930002689362,-0.26060718297958374,1.3946614265441895,-0.5163824558258057,0.15478017926216125,1.2242995500564575,1.8197354078292847,0.2533838152885437,-0.524455189704895,-0.07718031108379364,0.3838154375553131,1.2579289674758911,-0.21998925507068634,1.896782398223877,-0.088219054043293,-0.3913935422897339,1.0462135076522827,-0.5300058126449585,0.460422158241272,-0.17297030985355377,0.5462907552719116,0.0775502398610115,0.7029708027839661,1.0450122356414795,1.5399264097213745,-0.41307783126831055,0.19547760486602783,-0.30172890424728394,1.9455721378326416,-0.31898194551467896,0.19855789840221405,-0.538247287273407,0.18935106694698334,0.017180083319544792,-0.34676653146743774,0.06587229669094086,1.3308616876602173,1.4068039655685425,0.00822601281106472,0.4548126459121704,1.4905773401260376,0.07595670223236084,1.154104471206665,1.8080880641937256,0.8563832640647888,1.993272066116333,0.07758967578411102,-0.5465444922447205,0.032645538449287415,-0.4125213921070099,1.0362248420715332,0.7349268794059753,-0.14828038215637207,0.6095185875892639,-0.40000176429748535,-0.36660236120224,0.8824610114097595,-0.31922322511672974,1.872065782546997,-0.38689300417900085,0.1975117325782776,0.6725061535835266,-0.5147875547409058,1.7397514581680298,-0.3363613486289978,-0.4868161082267761,0.62000572681427,1.3501057624816895,0.4347214102745056,1.8808714151382446,0.0035707843489944935,1.1876064538955688,-0.28290456533432007,2.0441644191741943,0.3410037159919739],"default_left":[true,true,true,true,true,true,true,true,true,true,true,true,true,true,true,false,false,true,false,true,true,true,true,true,true,false,false,false,true,false,false,true,true,true,true,true,true,false,true,true,true,true,true,true,true,true,false,false,false,false,false,false,false,false,false,false,false,false,false,false,false,false,false,false,false,false,false,false,false,false,false,false,false,false,false],"id":9,"leaf_child_counts":[0,0,0,0,0,0,0,0,0,0,0,0,0,0,0,0,0,0,0,0,0,0,0,0,0,0,0,0,0,0,0,0,0,0,0,0,0,0,0,0,0,0,0,0,0,0,0,0,0,0,0,0,0,0,0,0,0,0,0,0,0,0,0,0,0,0,0,0,0,0,0,0,0,0,0],"left_children":[1,3,5,7,9,11,13,15,17,19,21,23,25,27,29,-1,-1,31,-1,33,35,37,39,41,43,-1,-1,-1,45,-1,-1,47,49,51,53,55,57,-1,59,61,63,65,67,69,71,73,-1,-1,-1,-1,-1,-1,-1,-1,-1,-1,-1,-1,-1,-1,-1,-1,-1,-1,-1,-1,-1,-1,-1,-1,-1,-1,-1,-1,-1],"loss_changes":[410.6724853515625,59.996543884277344,12.556915283203125,2.30322265625,11.488302230834961,7.50433349609375,8.452056884765625,2.6071252822875977,2.1352920532226562,6.543922424316406,10.569887161254883,7.131011962890625,0.4206613302230835,6.402374267578125,0.2713363766670227,0.0,0.0,2.1442108154296875,0.0,3.124572992324829,5.423863887786865,5.203259468078613,9.701059341430664,9.009796142578125,9.543746948242188,0.0,0.0,0.0,4.5831146240234375,0.0,0.0,1.6323699951171875,2.793394088745117,5.5738348960876465,2.7561912536621094,3.897855043411255,5.510406494140625,0.0,4.174315929412842,9.17318058013916,6.177064895629883,3.2956013679504395,10.309196472167969,5.58343505859375,7.487209320068359,3.6593017578125,0.0,0.0,0.0,0.0,0.0,0.0,0.0,0.0,0.0,0.0,0.0,0.0,0.0,0.0,0.0,0.0,0.0,0.0,0.0,0.0,0.0,0.0,0.0,0.0,0.0,0.0,0.0,0.0,0.0],"parents":[2147483647,0,0,1,1,2,2,3,3,4,4,5,5,6,6,7,7,8,8,9,9,10,10,11,11,12,12,13,13,14,14,17,17,19,19,20,20,21,21,22,22,23,23,24,24,28,28,31,31,32,32,33,33,34,34,35,35,36,36,38,38,39,39,40,40,41,41,42,42,43,43,44,44,45,45],"right_children":[2,4,6,8,10,12,14,16,18,20,22,24,26,28,30,-1,-1,32,-1,34,36,38,40,42,44,-1,-1,-1,46,-1,-1,48,50,52,54,56,58,-1,60,62,64,66,68,70,72,74,-1,-1,-1,-1,-1,-1,-1,-1,-1,-1,-1,-1,-1,-1,-1,-1,-1,-1,-1,-1,-1,-1,-1,-1,-1,-1,-1,-1,-1],"split_conditions":[6.5,3.5,8.5,1.0499999523162842,1.2420525550842285,940.5,4.795000076293945,7.817953109741211,3.698432207107544,0.07510000467300415,7.111411094665527,0.036485716700553894,22901.48828125,407.5,29.69042205810547,-0.03913935646414757,0.10462135076522827,208.0,0.04604221507906914,2737.0,0.20010998845100403,1.4201679229736328,3.175403118133545,68.5,0.16459524631500244,-0.041307784616947174,0.019547760486602783,-0.030172890052199364,0.9806866645812988,-0.031898196786642075,0.019855789840221405,17.294536590576172,1041.8800048828125,4.791231155395508,6778.5,1.6990000009536743,750.5,0.14068040251731873,1.4304295778274536,13.24017333984375,65.0,61.5,1.189173936843872,1.4990715980529785,3.5,9.82510592E9,0.007758967578411102,-0.054654449224472046,0.0032645538449287415,-0.04125213995575905,0.10362248867750168,0.07349269092082977,-0.014828038401901722,0.06095185875892639,-0.040000177919864655,-0.03666023537516594,0.08824609965085983,-0.031922321766614914,0.18720658123493195,-0.038689300417900085,0.01975117437541485,0.06725061684846878,-0.051478754729032516,0.1739751547574997,-0.03363613411784172,-0.04868161305785179,0.062000572681427,0.13501058518886566,0.04347214102745056,0.18808715045452118,3.5707844654098153E-4,0.11876064538955688,-0.028290456160902977,0.2044164389371872,0.03410037234425545],"split_indices":[48,48,48,42,24,95,141,28,35,36,31,162,23,26,156,0,0,57,0,0,170,39,41,201,119,0,0,0,125,0,0,25,21,22,20,168,26,0,30,25,9,38,153,124,61,1,0,0,0,0,0,0,0,0,0,0,0,0,0,0,0,0,0,0,0,0,0,0,0,0,0,0,0,0,0],"sum_hessian":[766.1072998046875,562.9432983398438,203.16397094726562,348.2591857910156,214.68414306640625,147.80615234375,55.357818603515625,3.2990024089813232,344.9601745605469,106.99034118652344,107.69379425048828,144.56898498535156,3.2371699810028076,53.21475601196289,2.1430628299713135,2.098614454269409,1.2003878355026245,343.4861755371094,1.4739861488342285,93.36788177490234,13.622456550598145,55.59100341796875,52.1027946472168,85.05533599853516,59.51364517211914,2.2139739990234375,1.0231961011886597,1.0427594184875488,52.1719970703125,1.1252776384353638,1.0177851915359497,339.844482421875,3.6417157649993896,45.01649856567383,48.351383209228516,9.121204376220703,4.5012526512146,1.7992016077041626,53.79180145263672,40.81904220581055,11.283753395080566,8.777946472167969,76.27738952636719,41.56288528442383,17.950761795043945,50.807525634765625,1.3644719123840332,335.0180358886719,4.82643985748291,2.428600788116455,1.2131150960922241,7.788641452789307,37.22785568237305,1.9986847639083862,46.352699279785156,6.323345184326172,2.797858953475952,1.2130199670791626,3.2882325649261475,17.08475685119629,36.70704650878906,33.58498764038086,7.234054088592529,9.971477508544922,1.3122751712799072,4.366435527801514,4.411511421203613,59.25590896606445,17.02147674560547,39.91080856323242,1.6520743370056152,13.874608993530273,4.0761518478393555,49.05924606323242,1.7482802867889404],"tree_param":{"num_deleted":"0","num_feature":"202","num_nodes":"75","size_leaf_vector":"0"}},{"base_weights":[0.1350645273923874,-0.37941423058509827,0.5762068033218384,-0.4490249454975128,-0.1349337100982666,0.2998083531856537,0.6718959212303162,-0.017775284126400948,-0.46638935804367065,-0.2744901478290558,0.5767197608947754,0.4454444646835327,-0.1555575430393219,0.7418025732040405,0.1740332841873169,-0.4178442060947418,1.339486002922058,-0.47322940826416016,0.3546868562698364,0.4342726767063141,-0.32012540102005005,1.1842013597488403,-0.19778043031692505,0.5983742475509644,-0.3307742774486542,-0.3108832538127899,0.8011112213134766,0.8681172728538513,0.41488251090049744,0.7011693716049194,-0.15744587779045105,0.14422965049743652,-0.5120999813079834,-0.03326573595404625,-0.4825928509235382,-0.3978779911994934,1.378495693206787,-0.5047094225883484,-0.09467262774705887,0.07007043063640594,1.8699229955673218,-0.4785328209400177,0.7043304443359375,0.921955406665802,0.14033909142017365,-0.4635075628757477,0.6912768483161926,0.6531084775924683,-0.38541415333747864,1.814667820930481,-0.3669755160808563,0.38351720571517944,0.9839975833892822,0.8250094056129456,0.010046692565083504,1.0858255624771118,-0.45535025000572205,0.3820534348487854,-0.4324856996536255,-0.4731999933719635,1.152927279472351,-0.4894123375415802,0.09623601287603378,-0.5611238479614258,0.5481106042861938,0.8264980912208557,-0.2539895176887512,0.7050820589065552,-0.3851325511932373,2.10282826423645,0.611286997795105,1.042418360710144,-0.24103336036205292,1.1521570682525635,-0.17829348146915436,-0.5358611941337585,0.20204004645347595,-0.5053867101669312,0.24337047338485718,0.5398378968238831,-0.495960533618927,1.0272407531738281,-0.47435855865478516,1.0380035638809204,-0.48734918236732483,-0.5387349128723145,0.2440386414527893,0.04444889724254608,1.7694752216339111,-0.09364229440689087,1.575819730758667,-0.5470068454742432,0.3358072340488434],"default_left":[true,true,true,true,true,true,true,true,true,true,true,true,true,true,true,true,false,true,false,true,true,true,true,true,true,true,true,true,true,true,true,false,false,true,true,false,false,true,true,true,true,false,false,true,true,true,false,false,true,false,false,true,true,true,true,true,false,true,true,false,false,false,false,false,false,false,false,false,false,false,false,false,false,false,false,false,false,false,false,false,false,false,false,false,false,false,false,false,false,false,false,false,false],"id":10,"leaf_child_counts":[0,0,0,0,0,0,0,0,0,0,0,0,0,0,0,0,0,0,0,0,0,0,0,0,0,0,0,0,0,0,0,0,0,0,0,0,0,0,0,0,0,0,0,0,0,0,0,0,0,0,0,0,0,0,0,0,0,0,0,0,0,0,0,0,0,0,0,0,0,0,0,0,0,0,0,0,0,0,0,0,0,0,0,0,0,0,0,0,0,0,0,0,0],"left_children":[1,3,5,7,9,11,13,15,17,19,21,23,25,27,29,31,-1,33,-1,35,37,39,41,43,45,47,49,51,53,55,57,-1,-1,59,61,-1,-1,63,65,67,69,-1,-1,71,73,75,-1,-1,77,-1,-1,79,81,83,85,87,-1,89,91,-1,-1,-1,-1,-1,-1,-1,-1,-1,-1,-1,-1,-1,-1,-1,-1,-1,-1,-1,-1,-1,-1,-1,-1,-1,-1,-1,-1,-1,-1,-1,-1,-1,-1],"loss_changes":[173.43093872070312,5.945453643798828,10.676132202148438,2.0455474853515625,8.068243026733398,7.203289985656738,10.475784301757812,6.888727188110352,1.6483535766601562,2.314650535583496,6.529527187347412,9.903940200805664,4.232667446136475,10.660598754882812,6.894150733947754,0.5911672115325928,0.0,1.0627174377441406,0.0,4.0790228843688965,2.6060376167297363,5.7071428298950195,2.043693780899048,10.047233581542969,2.2334556579589844,1.9605484008789062,5.430324554443359,10.381271362304688,12.65908432006836,7.243683338165283,3.823136329650879,0.0,0.0,3.9537293910980225,1.0589218139648438,0.0,0.0,2.376410484313965,4.6035990715026855,1.4134328365325928,0.08982086181640625,0.0,0.0,5.863197326660156,9.750097274780273,0.7381043434143066,0.0,0.0,1.8358838558197021,0.0,0.0,5.575985908508301,10.197586059570312,11.096202850341797,5.1917314529418945,8.237052917480469,0.0,5.175994873046875,1.661562442779541,0.0,0.0,0.0,0.0,0.0,0.0,0.0,0.0,0.0,0.0,0.0,0.0,0.0,0.0,0.0,0.0,0.0,0.0,0.0,0.0,0.0,0.0,0.0,0.0,0.0,0.0,0.0,0.0,0.0,0.0,0.0,0.0,0.0,0.0],"parents":[2147483647,0,0,1,1,2,2,3,3,4,4,5,5,6,6,7,7,8,8,9,9,10,10,11,11,12,12,13,13,14,14,15,15,17,17,19,19,20,20,21,21,22,22,23,23,24,24,25,25,26,26,27,27,28,28,29,29,30,30,33,33,34,34,37,37,38,38,39,39,40,40,43,43,44,44,45,45,48,48,51,51,52,52,53,53,54,54,55,55,57,57,58,58],"right_children":[2,4,6,8,10,12,14,16,18,20,22,24,26,28,30,32,-1,34,-1,36,38,40,42,44,46,48,50,52,54,56,58,-1,-1,60,62,-1,-1,64,66,68,70,-1,-1,72,74,76,-1,-1,78,-1,-1,80,82,84,86,88,-1,90,92,-1,-1,-1,-1,-1,-1,-1,-1,-1,-1,-1,-1,-1,-1,-1,-1,-1,-1,-1,-1,-1,-1,-1,-1,-1,-1,-1,-1,-1,-1,-1,-1,-1,-1],"split_conditions":[3.5,2.5,1.4749373197555542,64.55999755859375,2.8974151611328125,168.55850219726562,8.5,45.35499954223633,1.24714994430542,1.5525641441345215,46.5,20.98149871826172,147.23143005371094,83.78571319580078,-1.9642857296275906E-5,2.516707181930542,0.13394860923290253,2.5,0.0354686863720417,57.53071594238281,2.417635679244995,47853.0,0.4729195535182953,21404.0546875,427.5,18428.5,7.180816650390625,-0.7419642806053162,46369.5,2.2613635063171387,-1.2666659313254058E-4,0.014422965236008167,-0.05120999738574028,2141.570068359375,60.5,-0.03978779911994934,0.1378495693206787,2.312857151031494,198.7550048828125,6.102668762207031,50.5,-0.04785328358411789,0.07043304294347763,31712.0,126.0,76.5160140991211,0.06912768632173538,0.06531085073947906,2.5366549491882324,0.18146678805351257,-0.03669755160808563,20.433334350585938,43.59489440917969,283.44427490234375,1.8220210075378418,4.14100456237793,-0.045535024255514145,-9.850000496953726E-4,24835.884765625,-0.04732000082731247,0.11529272794723511,-0.0489412359893322,0.009623601101338863,-0.0561123862862587,0.054811060428619385,0.08264981210231781,-0.02539895288646221,0.0705082044005394,-0.03851325437426567,0.2102828323841095,0.06112870201468468,0.10424184054136276,-0.024103336036205292,0.1152157112956047,-0.017829349264502525,-0.053586121648550034,0.020204005762934685,-0.050538670271635056,0.024337047711014748,0.053983788937330246,-0.04959605261683464,0.10272407531738281,-0.047435857355594635,0.10380035638809204,-0.04873491823673248,-0.053873490542173386,0.02440386451780796,0.004444889724254608,0.17694751918315887,-0.009364229626953602,0.15758197009563446,-0.05470068380236626,0.0335807241499424],"split_indices":[48,48,45,27,35,37,49,51,46,45,70,168,143,148,120,109,0,3,0,143,45,10,19,23,93,29,22,159,10,45,125,0,0,21,72,0,0,161,27,28,56,0,0,20,201,110,0,0,35,0,0,47,47,37,39,151,0,124,23,0,0,0,0,0,0,0,0,0,0,0,0,0,0,0,0,0,0,0,0,0,0,0,0,0,0,0,0,0,0,0,0,0,0],"sum_hessian":[762.18994140625,351.9134826660156,410.2764892578125,273.2691955566406,78.64430236816406,106.57301330566406,303.7034606933594,10.655715942382812,262.61346435546875,66.26409912109375,12.380208015441895,80.76451110839844,25.808496475219727,265.8802795410156,37.823184967041016,8.764435768127441,1.891280174255371,260.8639831542969,1.7495036125183105,3.4933037757873535,62.77079391479492,6.641746520996094,5.738461494445801,67.66278076171875,13.101730346679688,22.784255981445312,3.0242395401000977,190.58644104003906,75.29383087158203,14.171548843383789,23.65163803100586,1.1825228929519653,7.581912994384766,5.530965328216553,255.3330078125,2.1644110679626465,1.328892707824707,33.83255386352539,28.9382381439209,2.9503426551818848,3.69140362739563,4.73453426361084,1.003927230834961,39.05754089355469,28.605241775512695,12.0794677734375,1.0222622156143188,1.078024983406067,21.70623207092285,1.3228528499603271,1.70138680934906,37.610904693603516,152.9755401611328,36.88692092895508,38.40690994262695,10.68039608001709,3.491152286529541,7.854907035827637,15.796730995178223,4.473072528839111,1.0578926801681519,252.5124969482422,2.8205034732818604,32.555145263671875,1.2774101495742798,3.6494340896606445,25.288803100585938,1.002670168876648,1.9476726055145264,2.549001932144165,1.1424016952514648,35.485599517822266,3.571941375732422,6.2242350578308105,22.381006240844727,11.07078742980957,1.0086803436279297,18.393068313598633,3.3131632804870605,32.26264572143555,5.348262310028076,148.8572540283203,4.11829137802124,31.916044235229492,4.9708781242370605,11.091540336608887,27.31536865234375,4.654855251312256,6.025541305541992,6.275702476501465,1.5792043209075928,13.998194694519043,1.7985368967056274],"tree_param":{"num_deleted":"0","num_feature":"202","num_nodes":"93","size_leaf_vector":"0"}},{"base_weights":[0.6669954657554626,1.143817663192749,-0.11563682556152344,-0.5661677718162537,1.3536933660507202,0.22512689232826233,-0.3790505528450012,1.5389221906661987,0.6758221387863159,0.6204198598861694,-0.08648601919412613,-0.39496925473213196,0.9784950017929077,1.8351720571517944,1.0437393188476562,0.9531503319740295,0.21538995206356049,0.19654209911823273,0.9299484491348267,-0.26297101378440857,0.29095011949539185,-0.4107494056224823,0.7386155724525452,1.6476491689682007,2.2297117710113525,1.3418740034103394,0.5182386636734009,1.6021119356155396,0.7179821133613586,1.0450904369354248,0.004476664587855339,0.0081923957914114,1.1211661100387573,1.3014769554138184,0.18332195281982422,0.1035124808549881,-0.4720252454280853,0.5643361806869507,-0.2810467779636383,0.4130479097366333,-0.42607009410858154,1.68697988986969,0.25698667764663696,0.1461668610572815,2.2634096145629883,1.5300843715667725,0.5032852292060852,1.266540288925171,0.24231848120689392,0.42816418409347534,2.0485711097717285,1.3472987413406372,0.439352422952652,-0.12411036342382431,1.5973076820373535,-0.17200611531734467,1.0890004634857178,-0.3414483964443207,0.5622344017028809,1.6955654621124268,0.03313828632235527,1.4385950565338135,-0.35476601123809814,0.9674935936927795,-0.28471124172210693,-0.094510518014431,1.1480145454406738,-0.5287396311759949,0.24519683420658112,0.7726280689239502,-0.4194577634334564,0.6920137405395508,-0.502901554107666,-0.3371138870716095,1.0419690608978271,-0.44634756445884705,0.24469590187072754],"default_left":[true,true,true,false,true,true,true,true,true,true,true,true,false,true,true,true,true,true,true,true,true,true,false,true,true,true,true,true,true,true,true,true,true,true,true,true,true,true,true,true,true,false,false,false,false,false,false,false,false,false,false,false,false,false,false,false,false,false,false,false,false,false,false,false,false,false,false,false,false,false,false,false,false,false,false,false,false],"id":11,"leaf_child_counts":[0,0,0,0,0,0,0,0,0,0,0,0,0,0,0,0,0,0,0,0,0,0,0,0,0,0,0,0,0,0,0,0,0,0,0,0,0,0,0,0,0,0,0,0,0,0,0,0,0,0,0,0,0,0,0,0,0,0,0,0,0,0,0,0,0,0,0,0,0,0,0,0,0,0,0,0,0],"left_children":[1,3,5,-1,7,9,11,13,15,17,19,21,-1,23,25,27,29,31,33,35,37,39,-1,41,43,45,47,49,51,53,55,57,59,61,63,65,67,69,71,73,75,-1,-1,-1,-1,-1,-1,-1,-1,-1,-1,-1,-1,-1,-1,-1,-1,-1,-1,-1,-1,-1,-1,-1,-1,-1,-1,-1,-1,-1,-1,-1,-1,-1,-1,-1,-1],"loss_changes":[300.3411865234375,180.20623779296875,27.505382537841797,0.0,54.913818359375,16.536264419555664,4.117820739746094,49.3131103515625,12.234230041503906,7.572309494018555,5.119226455688477,3.3689842224121094,0.0,12.39398193359375,20.147308349609375,8.083965301513672,6.629785537719727,4.556052207946777,9.163326263427734,4.041150093078613,4.0045952796936035,2.317361831665039,0.0,7.82763671875,4.38287353515625,12.527374267578125,9.972222328186035,7.132488250732422,7.513402938842773,5.156747817993164,6.1652092933654785,4.605812072753906,2.7116847038269043,5.612873077392578,4.835964202880859,4.193018436431885,1.4866585731506348,3.802211284637451,2.2091221809387207,2.0523247718811035,2.3814773559570312,0.0,0.0,0.0,0.0,0.0,0.0,0.0,0.0,0.0,0.0,0.0,0.0,0.0,0.0,0.0,0.0,0.0,0.0,0.0,0.0,0.0,0.0,0.0,0.0,0.0,0.0,0.0,0.0,0.0,0.0,0.0,0.0,0.0,0.0,0.0,0.0],"parents":[2147483647,0,0,1,1,2,2,4,4,5,5,6,6,7,7,8,8,9,9,10,10,11,11,13,13,14,14,15,15,16,16,17,17,18,18,19,19,20,20,21,21,23,23,24,24,25,25,26,26,27,27,28,28,29,29,30,30,31,31,32,32,33,33,34,34,35,35,36,36,37,37,38,38,39,39,40,40],"right_children":[2,4,6,-1,8,10,12,14,16,18,20,22,-1,24,26,28,30,32,34,36,38,40,-1,42,44,46,48,50,52,54,56,58,60,62,64,66,68,70,72,74,76,-1,-1,-1,-1,-1,-1,-1,-1,-1,-1,-1,-1,-1,-1,-1,-1,-1,-1,-1,-1,-1,-1,-1,-1,-1,-1,-1,-1,-1,-1,-1,-1,-1,-1,-1,-1],"split_conditions":[4.5,0.0,6.5,-0.056616779416799545,6.5,1.1865947246551514,11.0,2.5,21853.939453125,94.12313842773438,0.6312500238418579,8.5,0.09784950315952301,55.0,2.740532875061035,-7.269214630126953,3.325000047683716,0.06019999831914902,2.267251968383789,5.882781982421875,31.813133239746094,7828.0,0.07386156171560287,1824.0,-0.7890083193778992,2238.8701171875,1957.5,0.800651490688324,161.2413787841797,0.39696455001831055,21.55551528930664,2.5,8807.76953125,0.06134999915957451,1142.0,4.840909004211426,5636.21484375,0.426563024520874,2.7051923274993896,2.7395544052124023,16.55500030517578,0.1686979979276657,0.025698667392134666,0.014616685919463634,0.22634096443653107,0.15300844609737396,0.05032852292060852,0.1266540288925171,0.02423184923827648,0.042816419154405594,0.20485711097717285,0.13472987711429596,0.04393524304032326,-0.012411036528646946,0.15973077714443207,-0.017200611531734467,0.1089000478386879,-0.03414484113454819,0.056223440915346146,0.16955654323101044,0.0033138287253677845,0.14385950565338135,-0.035476602613925934,0.09674935787916183,-0.028471125289797783,-0.00945105217397213,0.11480145901441574,-0.052873965352773666,0.02451968379318714,0.07726281136274338,-0.04194577783346176,0.06920137256383896,-0.05029015615582466,-0.03371138870716095,0.10419690608978271,-0.044634755700826645,0.024469589814543724],"split_indices":[48,48,48,0,49,24,135,48,23,34,158,88,0,9,45,112,47,33,35,31,150,20,0,75,124,21,8,154,37,17,153,59,27,33,26,44,21,16,32,32,158,0,0,0,0,0,0,0,0,0,0,0,0,0,0,0,0,0,0,0,0,0,0,0,0,0,0,0,0,0,0,0,0,0,0,0,0],"sum_hessian":[803.4691162109375,498.9935302734375,304.4755554199219,54.363468170166016,444.63006591796875,132.8108673095703,171.66468811035156,348.2109680175781,96.41912078857422,58.10783767700195,74.7030258178711,170.3759002685547,1.288785696029663,216.1751708984375,132.03578186035156,59.50678253173828,36.91233825683594,25.213998794555664,32.89384078979492,51.108516693115234,23.59450912475586,168.66563415527344,1.7102694511413574,150.0386505126953,66.13652801513672,83.25104522705078,48.784732818603516,14.282020568847656,45.224761962890625,6.679832458496094,30.232505798339844,21.785137176513672,3.428861379623413,21.46800994873047,11.425830841064453,18.74767303466797,32.360843658447266,15.973406791687012,7.621100902557373,2.60552978515625,166.0601043701172,145.70474243164062,4.333896160125732,1.1375746726989746,64.99894714355469,67.31784057617188,15.933209419250488,12.17516803741455,36.60956573486328,4.47477912902832,9.807241439819336,12.701513290405273,32.523250579833984,2.391531229019165,4.28830099105835,26.724990844726562,3.507514238357544,13.591577529907227,8.193559646606445,1.8786741495132446,1.5501872301101685,19.947956085205078,1.5200542211532593,3.871736764907837,7.554093837738037,16.524394989013672,2.223278284072876,30.23296356201172,2.127878427505493,13.359530448913574,2.6138765811920166,1.0215108394622803,6.599590301513672,1.3998289108276367,1.2057008743286133,161.51211547851562,4.547995090484619],"tree_param":{"num_deleted":"0","num_feature":"202","num_nodes":"77","size_leaf_vector":"0"}},{"base_weights":[-0.42030397057533264,-0.5191939473152161,-0.3282557725906372,0.35596856474876404,-0.5246177911758423,0.21736380457878113,-0.3566908836364746,-0.5351060628890991,-0.05361507833003998,1.0086473226547241,-0.0792815312743187,-0.027619414031505585,-0.3992862105369568,0.030992938205599785,-0.5433819890022278,0.7106245160102844,-0.48415419459342957,-0.3399055004119873,1.5790317058563232,0.6951872110366821,-0.3600202798843384,-0.2697254419326782,0.5638465881347656,0.2745726406574249,-0.4144977033138275,0.8156700730323792,-0.4436507523059845,-0.03434405475854874,-0.5518446564674377,-0.32092565298080444,1.394917368888855,0.5385065674781799,1.8822962045669556,1.3495655059814453,-0.3475923240184784,-0.5225276350975037,0.44724753499031067,-0.41267433762550354,0.6945452094078064,-0.14552204310894012,1.0295594930648804,-0.4209578335285187,0.7227181196212769,-0.423107773065567,0.683954119682312,0.9678648114204407,-0.4684498906135559,-0.5547989010810852,0.15001869201660156,-0.5543612241744995,0.48106467723846436,1.3295392990112305,-0.3437304198741913,0.6944716572761536,-0.46315789222717285,-0.3520773947238922,1.416550874710083,1.3868106603622437,-0.36638888716697693,-0.43648427724838257,0.2536110281944275],"default_left":[true,true,true,false,true,true,true,true,true,true,true,true,true,true,true,true,false,false,true,true,true,true,true,true,true,false,false,true,true,false,false,false,false,false,false,false,false,true,true,true,true,false,true,true,false,false,false,false,false,false,false,false,false,false,false,false,false,false,false,false,false],"id":12,"leaf_child_counts":[0,0,0,0,0,0,0,0,0,0,0,0,0,0,0,0,0,0,0,0,0,0,0,0,0,0,0,0,0,0,0,0,0,0,0,0,0,0,0,0,0,0,0,0,0,0,0,0,0,0,0,0,0,0,0,0,0,0,0,0,0],"left_children":[1,3,5,-1,7,9,11,13,15,17,19,21,23,25,27,29,-1,-1,31,33,35,37,39,41,43,-1,-1,45,47,-1,-1,-1,-1,-1,-1,-1,-1,49,51,53,55,-1,57,59,-1,-1,-1,-1,-1,-1,-1,-1,-1,-1,-1,-1,-1,-1,-1,-1,-1],"loss_changes":[6.454345703125,1.8439865112304688,5.967720031738281,0.0,1.687408447265625,4.640057563781738,5.052215576171875,1.6083755493164062,3.199575185775757,4.667294979095459,3.5240049362182617,6.23408842086792,3.391387939453125,2.537224054336548,1.4236068725585938,2.9412074089050293,0.0,0.0,0.23311328887939453,3.435429096221924,1.769874930381775,4.533968448638916,4.332063674926758,2.6918976306915283,3.2505264282226562,0.0,0.0,3.2998006343841553,0.7660675048828125,0.0,0.0,0.0,0.0,0.0,0.0,0.0,0.0,3.7442750930786133,3.3255457878112793,1.8940930366516113,4.6511335372924805,0.0,4.143711090087891,2.9283905029296875,0.0,0.0,0.0,0.0,0.0,0.0,0.0,0.0,0.0,0.0,0.0,0.0,0.0,0.0,0.0,0.0,0.0],"parents":[2147483647,0,0,1,1,2,2,4,4,5,5,6,6,7,7,8,8,9,9,10,10,11,11,12,12,13,13,14,14,15,15,18,18,19,19,20,20,21,21,22,22,23,23,24,24,27,27,28,28,37,37,38,38,39,39,40,40,42,42,43,43],"right_children":[2,4,6,-1,8,10,12,14,16,18,20,22,24,26,28,30,-1,-1,32,34,36,38,40,42,44,-1,-1,46,48,-1,-1,-1,-1,-1,-1,-1,-1,50,52,54,56,-1,58,60,-1,-1,-1,-1,-1,-1,-1,-1,-1,-1,-1,-1,-1,-1,-1,-1,-1],"split_conditions":[3.5,-3.081233501434326,-25.899999618530273,0.03559685871005058,0.550222635269165,4.802857398986816,0.09019999951124191,0.1269097775220871,1.1957042217254639,2.0653228759765625,24.0,4.071428298950195,-3.1471383571624756,21004.5,-35.773033142089844,32.817142486572266,-0.0484154187142849,-0.03399055078625679,1.5,2.5,0.5698649883270264,68.5,0.9261860251426697,-2.5,79.5,0.08156701177358627,-0.04436507448554039,12.26650333404541,592.5821533203125,-0.03209256753325462,0.1394917368888855,0.05385065823793411,0.18822962045669556,0.13495655357837677,-0.03475923463702202,-0.052252765744924545,0.044724754989147186,0.26749998331069946,10.984622955322266,2.390644992E9,5.961602210998535,-0.04209578409790993,14.573871612548828,51435.0,0.06839541345834732,0.0967864841222763,-0.04684498906135559,-0.05547989159822464,0.015001869760453701,-0.05543612316250801,0.048106469213962555,0.1329539269208908,-0.03437304124236107,0.06944716721773148,-0.046315789222717285,-0.03520774096250534,0.1416550874710083,0.1386810690164566,-0.03663888946175575,-0.043648429214954376,0.02536110393702984],"split_indices":[48,128,172,0,123,142,46,16,119,35,38,164,124,29,159,142,0,0,4,81,171,56,30,58,164,0,0,156,142,0,0,0,0,0,0,0,0,124,22,1,28,0,146,20,0,0,0,0,0,0,0,0,0,0,0,0,0,0,0,0,0],"sum_hessian":[726.785400390625,348.13433837890625,378.6510314941406,1.746182918548584,346.3881530761719,18.426912307739258,360.22412109375,338.7096862792969,7.678477764129639,4.3700056076049805,14.056905746459961,41.47284698486328,318.75128173828125,4.840778350830078,333.868896484375,2.5325188636779785,5.14595890045166,1.4190466403961182,2.9509589672088623,3.347085475921631,10.709820747375488,29.81328582763672,11.659563064575195,6.660162448883057,312.09112548828125,1.5537093877792358,3.2870688438415527,5.542484760284424,328.326416015625,1.2217618227005005,1.3107569217681885,1.2923840284347534,1.6585750579833984,1.8757752180099487,1.4713103771209717,9.20876693725586,1.5010535717010498,26.462387084960938,3.350898504257202,4.893447399139404,6.766115188598633,2.6335339546203613,4.0266289710998535,310.2738952636719,1.8172287940979004,1.303520679473877,4.238964080810547,327.1589050292969,1.1675033569335938,23.1690616607666,3.293325662612915,1.9051876068115234,1.4457108974456787,1.0171635150909424,3.876284122467041,1.5002257823944092,5.265889644622803,2.331580400466919,1.6950483322143555,304.6077880859375,5.666098594665527],"tree_param":{"num_deleted":"0","num_feature":"202","num_nodes":"61","size_leaf_vector":"0"}},{"base_weights":[-0.21053621172904968,-0.4316238462924957,-0.14253607392311096,0.5819475054740906,-0.4421464204788208,-0.0419686995446682,-0.40424036979675293,0.21835756301879883,-0.45203566551208496,-0.06355752795934677,0.7714686393737793,-0.42211592197418213,1.1471359729766846,0.03297984600067139,-0.46637046337127686,-0.07663056999444962,1.122881293296814,1.3276910781860352,0.045726798474788666,-0.2168496698141098,-0.508888304233551,-0.4500245153903961,0.9598531723022461,-0.28228920698165894,-0.49629446864128113,-0.16562575101852417,0.09159054607152939,1.9623997211456299,-0.3465602397918701,0.2694644033908844,1.7924504280090332,-0.4403153657913208,0.8105105757713318,-0.3598446249961853,0.3356744945049286,-0.5259606242179871,0.21041353046894073,0.5918330550193787,-0.3837062120437622,-0.508734405040741,0.009122022427618504,-0.18256554007530212,0.7623963952064514,0.9787192940711975,0.04568616673350334,-0.4981646239757538,0.20314399898052216,1.0695332288742065,-0.327595055103302,-0.5617618560791016,-0.09660159051418304,0.7061023712158203,-0.3248622417449951],"default_left":[true,true,true,false,true,true,true,false,true,true,true,true,false,true,true,true,true,true,true,true,true,false,false,true,true,true,true,false,false,false,false,false,false,true,true,true,true,false,false,false,false,false,false,false,false,false,false,false,false,false,false,false,false],"id":13,"leaf_child_counts":[0,0,0,0,0,0,0,0,0,0,0,0,0,0,0,0,0,0,0,0,0,0,0,0,0,0,0,0,0,0,0,0,0,0,0,0,0,0,0,0,0,0,0,0,0,0,0,0,0,0,0,0,0],"left_children":[1,3,5,-1,7,9,11,-1,13,15,17,19,-1,21,23,25,27,29,31,33,35,-1,-1,37,39,41,43,-1,-1,-1,-1,-1,-1,45,47,49,51,-1,-1,-1,-1,-1,-1,-1,-1,-1,-1,-1,-1,-1,-1,-1,-1],"loss_changes":[11.077461242675781,2.1108245849609375,14.935637474060059,0.0,1.225921630859375,7.27602481842041,4.854701995849609,0.0,1.1997642517089844,6.318371772766113,4.265023231506348,2.6777496337890625,0.0,3.039358139038086,0.771697998046875,5.979170799255371,6.161250114440918,2.4830665588378906,2.470137357711792,3.9331746101379395,1.4526596069335938,0.0,0.0,2.484534740447998,0.8915443420410156,4.2405853271484375,5.594565391540527,0.0,0.0,0.0,0.0,0.0,0.0,3.123830795288086,5.431000232696533,1.5910091400146484,1.0911438465118408,0.0,0.0,0.0,0.0,0.0,0.0,0.0,0.0,0.0,0.0,0.0,0.0,0.0,0.0,0.0,0.0],"parents":[2147483647,0,0,1,1,2,2,4,4,5,5,6,6,8,8,9,9,10,10,11,11,13,13,14,14,15,15,16,16,17,17,18,18,19,19,20,20,23,23,24,24,25,25,26,26,33,33,34,34,35,35,36,36],"right_children":[2,4,6,-1,8,10,12,-1,14,16,18,20,-1,22,24,26,28,30,32,34,36,-1,-1,38,40,42,44,-1,-1,-1,-1,-1,-1,46,48,50,52,-1,-1,-1,-1,-1,-1,-1,-1,-1,-1,-1,-1,-1,-1,-1,-1],"split_conditions":[2.5,-0.7002816796302795,6.5,0.05819475278258324,-36.462501525878906,242.0,1180.4656982421875,0.021835757419466972,543.5,2003.5,35.67473602294922,36.5,0.11471360176801682,10.211111068725586,4.372419357299805,6.5,0.03276250138878822,1.0863850116729736,2.6030423641204834,15.587043762207031,1.325244665145874,-0.04500245302915573,0.09598531574010849,1.695033073425293,694.5,8.400840759277344,-0.9010404944419861,0.19623997807502747,-0.03465602546930313,0.02694644033908844,0.17924503982067108,-0.0440315380692482,0.0810510590672493,39.48500061035156,0.06440000236034393,0.9254617691040039,27.890092849731445,0.059183306992053986,-0.03837062045931816,-0.05087343975901604,9.122022311203182E-4,-0.018256554380059242,0.07623963803052902,0.09787192940711975,0.004568616859614849,-0.04981646314263344,0.020314401015639305,0.10695332288742065,-0.03275950625538826,-0.056176185607910156,-0.00966015923768282,0.07061024010181427,-0.03248622640967369],"split_indices":[49,128,48,0,158,173,144,0,26,8,109,38,0,47,109,49,147,24,155,40,163,0,0,39,201,131,119,0,0,0,0,0,0,51,36,117,109,0,0,0,0,0,0,0,0,0,0,0,0,0,0,0,0],"sum_hessian":[739.9198608398438,172.78846740722656,567.1314086914062,1.217422366142273,171.571044921875,410.53277587890625,156.59861755371094,2.2199532985687256,169.35108947753906,400.8168640136719,9.715912818908691,155.53439331054688,1.0642175674438477,4.82420015335083,164.52688598632812,397.3737487792969,3.4431395530700684,5.030791759490967,4.685121059417725,47.25303649902344,108.28136444091797,3.509716749191284,1.3144835233688354,24.464448928833008,140.06243896484375,259.8950500488281,137.47866821289062,1.9777449369430542,1.4653944969177246,2.0173075199127197,3.013484001159668,3.1239943504333496,1.5611268281936646,37.81509780883789,9.43793773651123,106.03349304199219,2.2478692531585693,2.040609359741211,22.423839569091797,136.6914520263672,3.3709793090820312,256.02496337890625,3.870112657546997,5.764059066772461,131.71461486816406,30.44921112060547,7.36588716506958,4.189760684967041,5.248177528381348,97.58794403076172,8.445551872253418,1.0013954639434814,1.2464736700057983],"tree_param":{"num_deleted":"0","num_feature":"202","num_nodes":"53","size_leaf_vector":"0"}},{"base_weights":[-0.1629708856344223,0.05999337136745453,-0.37775152921676636,-0.2456488162279129,0.7897096276283264,-0.4508107602596283,0.04846540838479996,-0.4581933319568634,-0.03224433213472366,-0.0775621309876442,0.8977123498916626,-0.3274005949497223,-0.533736526966095,0.5242330431938171,-0.36584174633026123,0.6411923170089722,-0.47984427213668823,-0.10977860540151596,0.646675705909729,0.7115104794502258,-0.4227137565612793,1.0883411169052124,0.39487224817276,-0.39032337069511414,0.2160375863313675,-0.5434375405311584,-0.021926434710621834,0.12125926464796066,1.2012388706207275,0.6217027902603149,-0.4552106261253357,-0.5090899467468262,0.4017504155635834,-0.27968791127204895,0.12301633507013321,1.4553887844085693,-0.2305145412683487,-0.35300758481025696,1.4136356115341187,0.20609238743782043,-0.5198667645454407,-0.2432798445224762,1.1647969484329224,0.7274710536003113,-0.11802256107330322,0.4485040605068207,-0.41190221905708313,0.5836187601089478,-0.4809448719024658,-0.0993272066116333,-0.5533986687660217,-0.41214194893836975,0.5979958772659302,1.1799827814102173,-0.09943658113479614,-0.38012275099754333,1.6284706592559814,0.5163543224334717,-0.5573439002037048,-0.5240811109542847,0.13849258422851562,-0.3960980176925659,1.2440204620361328,-0.44974178075790405,0.01368642970919609,0.006708610337227583,1.2777589559555054,1.8681886196136475,-0.31785938143730164,-0.49007540941238403,0.702246367931366,-0.42594411969184875,0.2050681710243225,0.929943323135376,1.847664713859558,1.413309931755066,0.14327485859394073,0.9177907109260559,-0.4264272153377533,-0.34329885244369507,1.1807442903518677,-0.1160527691245079,-0.4870595335960388,-0.13174046576023102,1.2574108839035034,-0.44174668192863464,0.5906588435173035,-0.5587158203125,0.15263022482395172,0.17578831315040588,1.6108955144882202,0.36969324946403503,-0.5150811076164246,0.3780577480792999,2.2092881202697754,1.201259732246399,-0.3249901235103607],"default_left":[true,true,true,true,true,true,true,true,true,true,true,true,true,true,true,false,true,true,true,true,true,true,true,true,true,true,true,true,true,false,true,true,true,true,true,true,true,false,false,false,false,true,true,true,true,true,true,true,false,true,true,false,false,true,true,false,true,true,false,false,false,false,false,false,false,false,false,false,false,false,false,false,false,false,false,false,false,false,false,false,false,false,false,false,false,false,false,false,false,false,false,false,false,false,false,false,false],"id":14,"leaf_child_counts":[0,0,0,0,0,0,0,0,0,0,0,0,0,0,0,0,0,0,0,0,0,0,0,0,0,0,0,0,0,0,0,0,0,0,0,0,0,0,0,0,0,0,0,0,0,0,0,0,0,0,0,0,0,0,0,0,0,0,0,0,0,0,0,0,0,0,0,0,0,0,0,0,0,0,0,0,0,0,0,0,0,0,0,0,0,0,0,0,0,0,0,0,0,0,0,0,0],"left_children":[1,3,5,7,9,11,13,15,17,19,21,23,25,27,29,-1,31,33,35,37,39,41,43,45,47,49,51,53,55,-1,57,59,61,63,65,67,69,-1,-1,-1,-1,71,73,75,77,79,81,83,-1,85,87,-1,-1,89,91,-1,93,95,-1,-1,-1,-1,-1,-1,-1,-1,-1,-1,-1,-1,-1,-1,-1,-1,-1,-1,-1,-1,-1,-1,-1,-1,-1,-1,-1,-1,-1,-1,-1,-1,-1,-1,-1,-1,-1,-1,-1],"loss_changes":[35.63783264160156,81.77176666259766,11.82183837890625,11.712695121765137,10.205711364746094,3.1368484497070312,11.299949645996094,3.3892250061035156,6.9189558029174805,3.815192222595215,8.802032470703125,4.6197967529296875,0.9411468505859375,7.122796535491943,2.9934840202331543,0.0,3.4927120208740234,4.686453342437744,9.897507667541504,3.7125678062438965,0.6938902139663696,7.335273742675781,4.869831562042236,2.3428993225097656,3.971881628036499,0.7782249450683594,1.362291693687439,4.279577732086182,7.25944709777832,0.0,3.1396613121032715,1.2752113342285156,3.620151996612549,3.413343906402588,6.749367713928223,5.8276214599609375,2.1185848712921143,0.0,0.0,0.0,0.0,0.4631073474884033,8.814651489257812,6.669578552246094,4.19036340713501,2.4166271686553955,2.5396690368652344,4.9300642013549805,0.0,1.5250440835952759,0.7759895324707031,0.0,0.0,1.0801105499267578,3.244582176208496,0.0,4.922172546386719,2.264881134033203,0.0,0.0,0.0,0.0,0.0,0.0,0.0,0.0,0.0,0.0,0.0,0.0,0.0,0.0,0.0,0.0,0.0,0.0,0.0,0.0,0.0,0.0,0.0,0.0,0.0,0.0,0.0,0.0,0.0,0.0,0.0,0.0,0.0,0.0,0.0,0.0,0.0,0.0,0.0],"parents":[2147483647,0,0,1,1,2,2,3,3,4,4,5,5,6,6,7,7,8,8,9,9,10,10,11,11,12,12,13,13,14,14,16,16,17,17,18,18,19,19,20,20,21,21,22,22,23,23,24,24,25,25,26,26,27,27,28,28,30,30,31,31,32,32,33,33,34,34,35,35,36,36,41,41,42,42,43,43,44,44,45,45,46,46,47,47,49,49,50,50,53,53,54,54,56,56,57,57],"right_children":[2,4,6,8,10,12,14,16,18,20,22,24,26,28,30,-1,32,34,36,38,40,42,44,46,48,50,52,54,56,-1,58,60,62,64,66,68,70,-1,-1,-1,-1,72,74,76,78,80,82,84,-1,86,88,-1,-1,90,92,-1,94,96,-1,-1,-1,-1,-1,-1,-1,-1,-1,-1,-1,-1,-1,-1,-1,-1,-1,-1,-1,-1,-1,-1,-1,-1,-1,-1,-1,-1,-1,-1,-1,-1,-1,-1,-1,-1,-1,-1,-1],"split_conditions":[3.5,5.5,8.5,2.5,1959.5,5.5,6.5,-20.025360107421875,1996.5,0.028423037379980087,7.058906112E9,7.5,61.55750274658203,0.8999999761581421,-0.6946428418159485,0.06411923468112946,3.9402852058410645,2.808608055114746,6.687141418457031,7.606039047241211,4.222222328186035,-676.0150146484375,3247.5,-4.516205310821533,0.05714999884366989,-36.04999923706055,-3.8178703784942627,2.7124319076538086,20247.330078125,0.062170278280973434,42.0,59390.5,1.5,4.5,261.9599609375,25.902938842773438,46.74689483642578,-0.035300757735967636,0.14136356115341187,0.020609239116311073,-0.05198667570948601,2850.5,842.2449951171875,14.29720687866211,-1.4492857456207275,2.950000047683716,0.0012831948697566986,24396.0,-0.0480944886803627,18.185184478759766,0.8945616483688354,-0.041214194148778915,0.05979958921670914,11.5,10.416580200195312,-0.03801227733492851,18625.0,7.5,-0.05573439225554466,-0.05240811035037041,0.013849258422851562,-0.03960980102419853,0.12440204620361328,-0.044974178075790405,0.0013686430174857378,6.708610453642905E-4,0.1277758926153183,0.18681886792182922,-0.03178593888878822,-0.04900754243135452,0.07022463530302048,-0.042594414204359055,0.02050681784749031,0.0929943323135376,0.1847664713859558,0.1413310021162033,0.014327486045658588,0.09177907556295395,-0.04264272376894951,-0.034329887479543686,0.118074432015419,-0.011605276726186275,-0.04870595410466194,-0.013174046762287617,0.12574109435081482,-0.044174667447805405,0.059065885841846466,-0.05587158352136612,0.015263022854924202,0.01757883094251156,0.16108955442905426,0.03696932643651962,-0.051508110016584396,0.03780577704310417,0.22092881798744202,0.12012597173452377,-0.03249901160597801],"split_indices":[48,49,49,49,8,48,48,170,8,154,1,49,159,172,161,0,45,45,151,28,47,64,0,162,43,172,112,28,23,0,201,10,49,49,34,146,156,0,0,0,0,0,21,156,158,172,114,20,0,47,126,0,0,55,156,0,20,48,0,0,0,0,0,0,0,0,0,0,0,0,0,0,0,0,0,0,0,0,0,0,0,0,0,0,0,0,0,0,0,0,0,0,0,0,0,0,0],"sum_hessian":[742.7117309570312,364.7669982910156,377.94476318359375,257.55377197265625,107.21322631835938,322.5907287597656,55.35402297973633,128.46218872070312,129.09158325195312,11.904095649719238,95.30912780761719,131.63685607910156,190.95387268066406,25.642385482788086,29.71163558959961,1.928381085395813,126.5338134765625,116.61246490478516,12.479114532470703,3.299488067626953,8.604607582092285,68.26514434814453,27.043989181518555,118.22926330566406,13.407600402832031,187.34115600585938,3.6127209663391113,16.813566207885742,8.828819274902344,1.971339225769043,27.740297317504883,122.87997436523438,3.653839349746704,67.29479217529297,49.31767654418945,6.150032043457031,6.32908296585083,1.5089468955993652,1.7905410528182983,1.001467227935791,7.603140830993652,3.5881900787353516,64.67694854736328,16.151683807373047,10.892305374145508,2.4689784049987793,115.76028442382812,8.884603500366211,4.52299690246582,4.350451469421387,182.99069213867188,2.4228246212005615,1.1898964643478394,2.1505045890808105,14.663061141967773,1.9013612270355225,6.927457809448242,2.2529489994049072,25.487348556518555,120.2861328125,2.5938422679901123,2.148437023162842,1.5054023265838623,42.26371765136719,25.03107452392578,45.718624114990234,3.5990512371063232,4.945267677307129,1.2047646045684814,5.322562217712402,1.0065207481384277,2.584991931915283,1.0031980276107788,49.88290786743164,14.794042587280273,6.776693344116211,9.37498950958252,2.0456888675689697,8.846616744995117,1.4414465427398682,1.0275319814682007,23.965717315673828,91.79456329345703,4.69957971572876,4.185023784637451,3.1479783058166504,1.2024731636047363,181.82997131347656,1.160725712776184,1.0684782266616821,1.0820263624191284,6.940269470214844,7.72279167175293,2.7208287715911865,4.206629276275635,1.0061203241348267,1.2468287944793701],"tree_param":{"num_deleted":"0","num_feature":"202","num_nodes":"97","size_leaf_vector":"0"}},{"base_weights":[-0.2559424936771393,1.9747360944747925,-0.5717709064483643],"default_left":[true,false,false],"id":15,"leaf_child_counts":[0,0,0],"left_children":[1,-1,-1],"loss_changes":[508.7480163574219,0.0,0.0],"parents":[2147483647,0,0],"right_children":[2,-1,-1],"split_conditions":[0.0,0.19747361540794373,-0.057177092880010605],"split_indices":[48,0,0],"sum_hessian":[719.5260620117188,88.58716583251953,630.9389038085938],"tree_param":{"num_deleted":"0","num_feature":"202","num_nodes":"3","size_leaf_vector":"0"}},{"base_weights":[0.1667850762605667,-0.2504403293132782,1.1792678833007812,-0.5086990594863892,0.14632296562194824,1.0236706733703613,1.4638073444366455,-0.5247862935066223,-0.06763086467981339,-0.07125812768936157,0.35311490297317505,1.0655512809753418,-0.30026519298553467,0.8171406388282776,1.61961030960083,-0.5334081053733826,0.0382140576839447,0.5181262493133545,-0.5034865736961365,-0.1647578775882721,0.5126685500144958,0.07362441718578339,0.6311450600624084,-0.21804559230804443,1.095473051071167,-0.458052396774292,0.1660948097705841,1.2441582679748535,0.12110117822885513,0.2928222119808197,1.682124137878418,-0.5393111109733582,0.04569688439369202,-0.4569457769393921,1.178344488143921,-0.3982570767402649,1.1793315410614014,0.789482057094574,-0.19798126816749573,0.8060309886932373,-0.44312456250190735,-0.31727662682533264,0.29274624586105347,0.41317418217658997,1.2823539972305298,0.1531863957643509,-0.40613168478012085,0.9346989989280701,1.4307246208190918,1.486935019493103,-0.33852511644363403,1.3248474597930908,-0.35312458872795105,-0.3880341053009033,1.003408432006836,1.8313169479370117,0.9078031182289124,-0.5423848628997803,0.16589009761810303,-0.3925992250442505,0.7027376294136047,0.0824546366930008,1.7948193550109863,1.5738407373428345,-0.31894075870513916,-0.0269157774746418,-0.35428279638290405,-0.19116584956645966,1.1770809888839722,-0.5445982217788696,0.23583634197711945,-0.14016731083393097,0.7197601199150085,0.6043480634689331,-0.509048581123352,1.4788932800292969,-0.3319675028324127,1.3111774921417236,0.7266045808792114,1.7138856649398804,0.7346314787864685,1.6908035278320312,0.09751880913972855,0.1418381631374359,-0.4913818836212158,1.8704365491867065,0.13367226719856262,-0.20002810657024384,1.2940367460250854],"default_left":[true,true,true,true,true,true,true,true,true,true,true,true,true,true,true,true,true,true,false,true,true,true,true,true,true,false,false,true,true,true,true,true,true,false,false,false,true,true,true,true,false,true,true,true,true,false,false,true,true,true,false,false,true,false,false,true,true,false,false,false,false,false,false,false,false,false,false,false,false,false,false,false,false,false,false,false,false,false,false,false,false,false,false,false,false,false,false,false,false],"id":16,"leaf_child_counts":[0,0,0,0,0,0,0,0,0,0,0,0,0,0,0,0,0,0,0,0,0,0,0,0,0,0,0,0,0,0,0,0,0,0,0,0,0,0,0,0,0,0,0,0,0,0,0,0,0,0,0,0,0,0,0,0,0,0,0,0,0,0,0,0,0,0,0,0,0,0,0,0,0,0,0,0,0,0,0,0,0,0,0,0,0,0,0,0,0],"left_children":[1,3,5,7,9,11,13,15,17,19,21,23,25,27,29,31,33,35,-1,37,39,41,43,45,47,-1,-1,49,51,53,55,57,59,-1,-1,-1,61,63,65,67,-1,69,71,73,75,-1,-1,77,79,81,-1,-1,83,-1,-1,85,87,-1,-1,-1,-1,-1,-1,-1,-1,-1,-1,-1,-1,-1,-1,-1,-1,-1,-1,-1,-1,-1,-1,-1,-1,-1,-1,-1,-1,-1,-1,-1,-1],"loss_changes":[327.8211364746094,56.420780181884766,8.52667236328125,2.3295211791992188,9.815237045288086,8.621109008789062,6.5074462890625,1.5806427001953125,3.5484426021575928,5.918659210205078,8.63547420501709,5.821075439453125,0.4712979793548584,4.934412002563477,4.6179656982421875,1.1071014404296875,3.802262306213379,4.097074031829834,0.0,3.1004765033721924,4.560873985290527,4.962297439575195,7.401706695556641,0.3516230285167694,6.3270721435546875,0.0,0.0,4.536214828491211,4.813730716705322,2.316481351852417,5.1108856201171875,0.7695846557617188,1.4615095853805542,0.0,0.0,0.0,2.3701376914978027,3.3927435874938965,2.4113597869873047,4.600750923156738,0.0,2.7563223838806152,6.931268692016602,7.948731422424316,4.786098480224609,0.0,0.0,6.802604675292969,7.454032897949219,2.4652442932128906,0.0,0.0,0.4974677562713623,0.0,0.0,2.949462890625,5.160207748413086,0.0,0.0,0.0,0.0,0.0,0.0,0.0,0.0,0.0,0.0,0.0,0.0,0.0,0.0,0.0,0.0,0.0,0.0,0.0,0.0,0.0,0.0,0.0,0.0,0.0,0.0,0.0,0.0,0.0,0.0,0.0,0.0],"parents":[2147483647,0,0,1,1,2,2,3,3,4,4,5,5,6,6,7,7,8,8,9,9,10,10,11,11,12,12,13,13,14,14,15,15,16,16,17,17,19,19,20,20,21,21,22,22,23,23,24,24,27,27,28,28,29,29,30,30,31,31,32,32,36,36,37,37,38,38,39,39,41,41,42,42,43,43,44,44,47,47,48,48,49,49,52,52,55,55,56,56],"right_children":[2,4,6,8,10,12,14,16,18,20,22,24,26,28,30,32,34,36,-1,38,40,42,44,46,48,-1,-1,50,52,54,56,58,60,-1,-1,-1,62,64,66,68,-1,70,72,74,76,-1,-1,78,80,82,-1,-1,84,-1,-1,86,88,-1,-1,-1,-1,-1,-1,-1,-1,-1,-1,-1,-1,-1,-1,-1,-1,-1,-1,-1,-1,-1,-1,-1,-1,-1,-1,-1,-1,-1,-1,-1,-1],"split_conditions":[6.5,3.5,1.6167488098144531,3.7525479793548584,1.2420525550842285,102.0,0.0239499993622303,17.294536590576172,35.5,0.07510000467300415,7.111411094665527,-42.75,10.695650100708008,3268.5,2.5,208.0,0.343319833278656,0.5,-0.05034865811467171,-41.66285705566406,21043.0,2.9899635314941406,3.175403118133545,56.5,27127.0,-0.04580524191260338,0.01660948060452938,3.9988086223602295,9.126273216679692E-4,0.3499999940395355,0.07279999554157257,0.4804999828338623,3.5,-0.04569457843899727,0.11783444881439209,-0.03982570767402649,1.78496253490448,14.5,2737.0,7.755673885345459,-0.044312458485364914,9.69547176361084,850.72998046875,13.24017333984375,65.0,0.015318639576435089,-0.040613170713186264,1518.0,0.5,144.71202087402344,-0.03385251387953758,0.13248474895954132,-3.7662501335144043,-0.03880340978503227,0.1003408432006836,0.8849200010299683,0.09354999661445618,-0.05423848703503609,0.016589010134339333,-0.03925992175936699,0.07027376443147659,0.008245463483035564,0.17948193848133087,0.15738408267498016,-0.031894076615571976,-0.002691577887162566,-0.035428281873464584,-0.019116586074233055,0.11770810186862946,-0.0544598214328289,0.023583633825182915,-0.014016731642186642,0.07197601348161697,0.06043480709195137,-0.050904858857393265,0.14788933098316193,-0.03319675102829933,0.13111774623394012,0.07266046106815338,0.17138856649398804,0.07346314936876297,0.16908036172389984,0.0097518814727664,0.014183816500008106,-0.04913818836212158,0.18704365193843842,0.013367227278649807,-0.020002810284495354,0.12940368056297302],"split_indices":[48,48,24,30,24,57,33,25,148,36,31,172,50,0,55,57,117,173,0,160,29,32,41,38,20,0,0,30,114,158,33,43,59,0,0,0,39,57,0,156,0,146,21,25,9,0,0,0,103,34,0,0,160,0,0,125,36,0,0,0,0,0,0,0,0,0,0,0,0,0,0,0,0,0,0,0,0,0,0,0,0,0,0,0,0,0,0,0,0],"sum_hessian":[774.3309936523438,548.8944091796875,225.4365692138672,332.3082275390625,216.58616638183594,148.7124786376953,76.7240982055664,320.43121337890625,11.8770112991333,105.8592300415039,110.7269287109375,144.34161376953125,4.370855808258057,16.108749389648438,60.61534881591797,315.64990234375,4.781314849853516,4.9866180419921875,6.890393257141113,91.86709594726562,13.992136001586914,55.84920120239258,54.87772750854492,3.1448631286621094,141.19676208496094,3.279193878173828,1.0916616916656494,9.49569320678711,6.61305570602417,2.9832496643066406,57.63209915161133,312.5328674316406,3.1170289516448975,3.751326322555542,1.0299886465072632,2.2566888332366943,2.729929208755493,2.325026273727417,89.54206848144531,10.825992584228516,3.1661431789398193,19.900278091430664,35.94892501831055,42.34020233154297,12.53752613067627,1.1199434995651245,2.0249195098876953,97.9916763305664,43.205078125,8.285266876220703,1.2104259729385376,1.362036943435669,5.25101900100708,1.755306601524353,1.227942943572998,47.177146911621094,10.454952239990234,311.40643310546875,1.1264348030090332,2.111182928085327,1.0058460235595703,1.3888282775878906,1.3411009311676025,1.1156566143035889,1.2093696594238281,43.31157302856445,46.230499267578125,3.0673329830169678,7.758659839630127,14.114721298217773,5.785556316375732,18.184715270996094,17.764209747314453,35.355751037597656,6.9844512939453125,11.251569747924805,1.2859565019607544,32.995784759521484,64.99589538574219,29.67254638671875,13.532529830932617,7.035965919494629,1.2493009567260742,1.140852689743042,4.110166072845459,46.015018463134766,1.1621263027191162,2.8273606300354004,7.627591609954834],"tree_param":{"num_deleted":"0","num_feature":"202","num_nodes":"89","size_leaf_vector":"0"}},{"base_weights":[0.12728416919708252,-0.3686472475528717,0.5199413895606995,-0.43899795413017273,-0.1288701295852661,0.7807706594467163,0.4381483793258667,-0.01085327472537756,-0.4568065106868744,-0.26612573862075806,0.536523699760437,0.844664990901947,-0.21509379148483276,0.5345030426979065,0.013973256573081017,-0.40912115573883057,1.2216484546661377,-0.4638670086860657,0.34532809257507324,-0.3028183579444885,0.5709618330001831,1.0715187788009644,-0.1934231072664261,0.006720369216054678,0.9243174195289612,0.685991108417511,-0.48970988392829895,0.7086052894592285,0.3489125669002533,-0.4114722013473511,0.21055175364017487,0.1601436585187912,-0.5065402388572693,-0.020685827359557152,-0.47354480624198914,0.41157418489456177,-0.35214298963546753,0.06591986119747162,1.6406047344207764,-0.4738217890262604,0.660221517086029,-0.5126200318336487,1.2870982885360718,0.9765521883964539,-0.4410276412963867,0.8494544625282288,0.21224135160446167,0.44505131244659424,-0.48070085048675537,-0.5526948571205139,0.060915812849998474,0.5314396619796753,-0.2737954556941986,-0.46460771560668945,1.0773231983184814,0.09758059680461884,-0.4805823266506195,-0.3925544321537018,1.2564001083374023,0.5034154653549194,-0.3950212597846985,0.6969539523124695,-0.3861072063446045,1.8516879081726074,0.5455690026283264,0.43089303374290466,1.1195015907287598,1.2535287141799927,0.6489067077636719,-0.020298901945352554,0.8035500645637512,1.5552188158035278,0.3744981288909912,-0.548229455947876,0.19279271364212036,0.9328168034553528,-0.4493587613105774,-0.48740577697753906,0.7835803627967834,0.6046893000602722,-0.48058387637138367],"default_left":[true,true,true,true,true,true,true,true,true,true,true,true,true,true,true,true,false,true,false,true,false,true,true,true,true,false,false,true,true,true,true,false,false,true,true,true,true,true,true,false,false,false,false,true,false,true,true,true,true,false,true,true,true,false,false,false,false,false,false,false,false,false,false,false,false,false,false,false,false,false,false,false,false,false,false,false,false,false,false,false,false],"id":17,"leaf_child_counts":[0,0,0,0,0,0,0,0,0,0,0,0,0,0,0,0,0,0,0,0,0,0,0,0,0,0,0,0,0,0,0,0,0,0,0,0,0,0,0,0,0,0,0,0,0,0,0,0,0,0,0,0,0,0,0,0,0,0,0,0,0,0,0,0,0,0,0,0,0,0,0,0,0,0,0,0,0,0,0,0,0],"left_children":[1,3,5,7,9,11,13,15,17,19,21,23,25,27,29,31,-1,33,-1,35,-1,37,39,41,43,-1,-1,45,47,49,51,-1,-1,53,55,57,59,61,63,-1,-1,-1,-1,65,-1,67,69,71,73,-1,75,77,79,-1,-1,-1,-1,-1,-1,-1,-1,-1,-1,-1,-1,-1,-1,-1,-1,-1,-1,-1,-1,-1,-1,-1,-1,-1,-1,-1,-1],"loss_changes":[149.9190673828125,5.684623718261719,8.82177734375,1.9982490539550781,7.323256969451904,6.625148773193359,13.450550079345703,6.152632713317871,1.5885887145996094,2.1953482627868652,5.587101459503174,6.358665466308594,2.043955087661743,8.421966552734375,5.270167827606201,0.6053403615951538,0.0,1.0643386840820312,0.0,2.3907470703125,0.0,4.528736114501953,1.9102239608764648,6.834052562713623,6.640876770019531,0.0,0.0,9.43017578125,10.728836059570312,1.3629558086395264,6.836911678314209,0.0,0.0,3.61893892288208,1.0317916870117188,3.602832317352295,2.4057064056396484,1.4015508890151978,0.1761159896850586,0.0,0.0,0.0,0.0,6.083732604980469,0.0,7.836875915527344,4.3776445388793945,8.711978912353516,0.7502262592315674,0.0,2.8602306842803955,7.121888637542725,3.5272202491760254,0.0,0.0,0.0,0.0,0.0,0.0,0.0,0.0,0.0,0.0,0.0,0.0,0.0,0.0,0.0,0.0,0.0,0.0,0.0,0.0,0.0,0.0,0.0,0.0,0.0,0.0,0.0,0.0],"parents":[2147483647,0,0,1,1,2,2,3,3,4,4,5,5,6,6,7,7,8,8,9,9,10,10,11,11,12,12,13,13,14,14,15,15,17,17,19,19,21,21,22,22,23,23,24,24,27,27,28,28,29,29,30,30,33,33,34,34,35,35,36,36,37,37,38,38,43,43,45,45,46,46,47,47,48,48,50,50,51,51,52,52],"right_children":[2,4,6,8,10,12,14,16,18,20,22,24,26,28,30,32,-1,34,-1,36,-1,38,40,42,44,-1,-1,46,48,50,52,-1,-1,54,56,58,60,62,64,-1,-1,-1,-1,66,-1,68,70,72,74,-1,76,78,80,-1,-1,-1,-1,-1,-1,-1,-1,-1,-1,-1,-1,-1,-1,-1,-1,-1,-1,-1,-1,-1,-1,-1,-1,-1,-1,-1,-1],"split_conditions":[3.5,2.5,5.537156105041504,64.55999755859375,2.8974151611328125,12.803571701049805,228.39523315429688,45.35499954223633,1.24714994430542,246.0,46.5,-6.232500076293945,-3.5,1.2151050567626953,0.2980952858924866,1.9384474754333496,0.12216484546661377,2.5,0.0345328114926815,1.5525641441345215,0.05709618330001831,47853.0,0.4729195535182953,1.6112499237060547,1.7718963623046875,0.06859911233186722,-0.048970989882946014,4.392857551574707,24.381832122802734,2.2147998809814453,70.14285278320312,0.01601436547935009,-0.05065402388572693,2141.570068359375,57.0,57.53071594238281,-69.5,2.2044572830200195,34154.5,-0.0473821796476841,0.06602215021848679,-0.05126200243830681,0.1287098377943039,2.8759398460388184,-0.04410276561975479,-8.928571478463709E-4,1.014642357826233,-2.35910701751709,53122.0,-0.05526948720216751,-0.8240000009536743,1.984375,-8.589500427246094,-0.046460773795843124,0.10773231834173203,0.009758059866726398,-0.04805823415517807,-0.03925544396042824,0.12564001977443695,0.05034154653549194,-0.03950212523341179,0.06969539821147919,-0.03861072286963463,0.1851687878370285,0.05455690249800682,0.043089304119348526,0.11195015907287598,0.1253528743982315,0.06489067524671555,-0.0020298901945352554,0.08035501092672348,0.15552188456058502,0.03744981437921524,-0.05482294782996178,0.019279271364212036,0.09328167885541916,-0.04493587836623192,-0.04874057695269585,0.07835803925991058,0.06046893075108528,-0.04805838689208031],"split_indices":[48,48,28,27,35,164,37,51,46,95,70,158,58,30,15,35,0,3,0,45,0,10,19,161,117,0,0,164,28,50,148,0,0,21,0,143,58,40,20,0,0,0,0,28,0,160,30,161,10,0,167,47,168,0,0,0,0,0,0,0,0,0,0,0,0,0,0,0,0,0,0,0,0,0,0,0,0,0,0,0,0],"sum_hessian":[767.8931274414062,339.35028076171875,428.5428771972656,261.728271484375,77.62203216552734,100.26447296142578,328.27838134765625,10.51603889465332,251.21221923828125,64.84585571289062,12.776177406311035,94.362060546875,5.902411460876465,267.2992248535156,60.97917938232422,8.452707290649414,2.0633325576782227,249.43832397460938,1.7738873958587646,62.73423385620117,2.1116225719451904,7.102585315704346,5.6735920906066895,8.285272598266602,86.07678985595703,1.0287668704986572,4.873644828796387,136.4641876220703,130.83502197265625,18.925800323486328,42.05337905883789,1.141066074371338,7.311640739440918,5.397645950317383,244.04067993164062,3.577364921569824,59.15686798095703,2.9701099395751953,4.13247537612915,4.605691909790039,1.0679000616073608,6.321010112762451,1.9642622470855713,83.17931365966797,2.89747953414917,105.7461166381836,